{"learner":{"attributes":{"scikit_learn":"{\"_estimator_type\": \"classifier\"}"},"feature_names":["btc_open","btc_high","btc_low","btc_close","btc_volume","eth_open","eth_high","eth_low","eth_close","eth_volume","sentiment_mean","sentiment_count","btc_ret","eth_ret","btc_rsi_14","btc_macd","btc_macd_signal","btc_macd_diff","btc_bb_high","btc_bb_low","btc_bb_width","btc_atr_14","eth_rsi_14","eth_macd","eth_macd_signal","eth_macd_diff","eth_bb_high","eth_bb_low","eth_bb_width","eth_atr_14","btc_roll_mean_5","btc_roll_std_5","btc_zscore_5","btc_momentum_5","btc_roll_mean_10","btc_roll_std_10","btc_zscore_10","btc_momentum_10","btc_roll_mean_20","btc_roll_std_20","btc_zscore_20","btc_momentum_20","btc_roll_mean_50","btc_roll_std_50","btc_zscore_50","btc_momentum_50","eth_roll_mean_5","eth_roll_std_5","eth_zscore_5","eth_momentum_5","eth_roll_mean_10","eth_roll_std_10","eth_zscore_10","eth_momentum_10","eth_roll_mean_20","eth_roll_std_20","eth_zscore_20","eth_momentum_20","eth_roll_mean_50","eth_roll_std_50","eth_zscore_50","eth_momentum_50","btc_close_lag_1","btc_close_lag_3","btc_close_lag_6","btc_volume_lag_1","btc_volume_lag_3","btc_volume_lag_6","btc_rsi_14_lag_1","btc_rsi_14_lag_3","btc_rsi_14_lag_6","btc_macd_lag_1","btc_macd_lag_3","btc_macd_lag_6","btc_atr_14_lag_1","btc_atr_14_lag_3","btc_atr_14_lag_6","eth_close_lag_1","eth_close_lag_3","eth_close_lag_6","eth_volume_lag_1","eth_volume_lag_3","eth_volume_lag_6","eth_rsi_14_lag_1","eth_rsi_14_lag_3","eth_rsi_14_lag_6","eth_macd_lag_1","eth_macd_lag_3","eth_macd_lag_6","eth_atr_14_lag_1","eth_atr_14_lag_3","eth_atr_14_lag_6","btc_ret_lag_1","btc_ret_lag_3","btc_ret_lag_6","eth_ret_lag_1","eth_ret_lag_3","eth_ret_lag_6","sentiment_roll_mean_24h","sentiment_roll_wmean_24h","sentiment_shock","alpha_whale_flow","alpha_exchange_delta","alpha_miner_flow","alpha_spread","alpha_ofi","alpha_vpin_proxy","alpha_regime_vol"],"feature_types":["float","float","float","float","float","float","float","float","float","float","float","float","float","float","float","float","float","float","float","float","float","float","float","float","float","float","float","float","float","float","float","float","float","float","float","float","float","float","float","float","float","float","float","float","float","float","float","float","float","float","float","float","float","float","float","float","float","float","float","float","float","float","float","float","float","float","float","float","float","float","float","float","float","float","float","float","float","float","float","float","float","float","float","float","float","float","float","float","float","float","float","float","float","float","float","float","float","float","float","float","int","float","float","float","float","float","float","float"],"gradient_booster":{"model":{"cats":{"enc":[],"feature_segments":[],"sorted_idx":[]},"gbtree_model_param":{"num_parallel_tree":"1","num_trees":"100"},"iteration_indptr":[0,1,2,3,4,5,6,7,8,9,10,11,12,13,14,15,16,17,18,19,20,21,22,23,24,25,26,27,28,29,30,31,32,33,34,35,36,37,38,39,40,41,42,43,44,45,46,47,48,49,50,51,52,53,54,55,56,57,58,59,60,61,62,63,64,65,66,67,68,69,70,71,72,73,74,75,76,77,78,79,80,81,82,83,84,85,86,87,88,89,90,91,92,93,94,95,96,97,98,99,100],"tree_info":[0,0,0,0,0,0,0,0,0,0,0,0,0,0,0,0,0,0,0,0,0,0,0,0,0,0,0,0,0,0,0,0,0,0,0,0,0,0,0,0,0,0,0,0,0,0,0,0,0,0,0,0,0,0,0,0,0,0,0,0,0,0,0,0,0,0,0,0,0,0,0,0,0,0,0,0,0,0,0,0,0,0,0,0,0,0,0,0,0,0,0,0,0,0,0,0,0,0,0,0],"trees":[{"base_weights":[-7.070791E-8,1.9029604E-1,-1.2412721E-1,1.76882E-2,3.2464162E-1,6.1842974E-2,-2.3934974E-1,-1.7866829E-3,1.249226E0,3.6809778E-1,-2.7927575E-1,-8.4110275E-2,3.9093006E-1,-2.1145076E-1,-7.104735E-1,9.400199E-3,-5.884859E-3,8.584429E-2,1.4857061E-2,5.8829356E-2,1.673589E-2,-3.245711E-2,5.3736027E-3,1.8661711E-4,-3.2783173E-2,2.7171854E-2,1.3546229E-3,-1.4766062E-2,1.5063176E-4,2.796111E-2,-4.6611883E-2],"categories":[],"categories_nodes":[],"categories_segments":[],"categories_sizes":[],"default_left":[0,0,0,0,0,0,0,0,0,0,0,0,0,0,0,0,0,0,0,0,0,0,0,0,0,0,0,0,0,0,0],"id":0,"left_children":[1,3,5,7,9,11,13,15,17,19,21,23,25,27,29,-1,-1,-1,-1,-1,-1,-1,-1,-1,-1,-1,-1,-1,-1,-1,-1],"loss_changes":[2.808585E2,1.0884386E2,1.542157E2,4.9301445E1,6.937363E1,1.3229912E2,5.8254547E1,4.4558548E1,1.3737896E1,6.6069244E1,2.5496014E1,9.582196E1,4.6941833E1,7.548392E1,7.03514E1,0E0,0E0,0E0,0E0,0E0,0E0,0E0,0E0,0E0,0E0,0E0,0E0,0E0,0E0,0E0,0E0],"parents":[2147483647,0,0,1,1,2,2,3,3,4,4,5,5,6,6,7,7,8,8,9,9,10,10,11,11,12,12,13,13,14,14],"right_children":[2,4,6,8,10,12,14,16,18,20,22,24,26,28,30,-1,-1,-1,-1,-1,-1,-1,-1,-1,-1,-1,-1,-1,-1,-1,-1],"split_conditions":[-3.446744E-3,-2.6735547E-1,1.1897158E3,7.20318E2,9.350459E-3,2.747406E2,4.03095E3,1.914825E4,3.5283047E1,5.2921E3,1.505472E3,9.852519E3,5.8784604E-1,4.446025E2,5.403628E2,9.400199E-3,-5.884859E-3,8.584429E-2,1.4857061E-2,5.8829356E-2,1.673589E-2,-3.245711E-2,5.3736027E-3,1.8661711E-4,-3.2783173E-2,2.7171854E-2,1.3546229E-3,-1.4766062E-2,1.5063176E-4,2.796111E-2,-4.6611883E-2],"split_indices":[61,107,58,76,57,58,6,0,59,0,50,34,107,76,43,0,0,0,0,0,0,0,0,0,0,0,0,0,0,0,0],"split_type":[0,0,0,0,0,0,0,0,0,0,0,0,0,0,0,0,0,0,0,0,0,0,0,0,0,0,0,0,0,0,0],"sum_hessian":[1.1888248E4,4.692999E3,7.1952485E3,2.0544995E3,2.6384995E3,2.7527495E3,4.442499E3,2.0234996E3,3.0999994E1,2.4617495E3,1.7674997E2,1.9074996E3,8.452499E2,4.195499E3,2.4699995E2,7.669999E2,1.2564998E3,2.0249996E1,1.0749998E1,9.6249985E1,2.3654995E3,8.9999985E1,8.6749985E1,1.6542498E3,2.5324995E2,5.952499E2,2.4999995E2,3.0157495E3,1.1797498E3,3.6499992E1,2.1049997E2],"tree_param":{"num_deleted":"0","num_feature":"108","num_nodes":"31","size_leaf_vector":"1"}},{"base_weights":[9.799244E-6,1.7579038E-1,-1.24301836E-1,8.7915677E-1,1.3353539E-1,-6.37825E-2,-3.0333903E-1,2.3740207E-1,1.1183026E0,-3.698822E-3,2.4819979E-1,-1.5721273E-1,2.4967782E-2,-6.1906165E-1,-1.6384019E-1,2.4729677E-2,-4.5265015E-2,6.913487E-2,3.1034706E-2,-2.3294226E-3,2.623556E-2,1.7327726E-2,-1.3597715E-3,-4.5787822E-3,-4.1351046E-2,4.4392683E-3,-1.7883373E-2,-1.5419996E-2,-4.088637E-2,-5.475017E-3,-5.4748304E-2],"categories":[],"categories_nodes":[],"categories_segments":[],"categories_sizes":[],"default_left":[0,0,0,0,0,0,0,0,0,0,0,0,0,0,0,0,0,0,0,0,0,0,0,0,0,0,0,0,0,0,0],"id":1,"left_children":[1,3,5,7,9,11,13,15,17,19,21,23,25,27,29,-1,-1,-1,-1,-1,-1,-1,-1,-1,-1,-1,-1,-1,-1,-1,-1],"loss_changes":[2.5980307E2,1.4626144E2,7.544036E1,4.254315E1,7.3128815E1,4.317331E1,7.73759E1,2.3075726E1,2.5841461E1,4.7989014E1,6.858714E1,1.1143321E2,6.525011E1,3.2995895E1,6.168058E1,0E0,0E0,0E0,0E0,0E0,0E0,0E0,0E0,0E0,0E0,0E0,0E0,0E0,0E0,0E0,0E0],"parents":[2147483647,0,0,1,1,2,2,3,3,4,4,5,5,6,6,7,7,8,8,9,9,10,10,11,11,12,12,13,13,14,14],"right_children":[2,4,6,8,10,12,14,16,18,20,22,24,26,28,30,-1,-1,-1,-1,-1,-1,-1,-1,-1,-1,-1,-1,-1,-1,-1,-1],"split_conditions":[-1.2588399E-3,7.0407314E3,6.8067865E0,1.5045963E1,-2.6735547E-1,9.425223E1,1.537112E2,1.3942603E0,-6.72794E-1,5.695963E2,2.53524E3,1.8267334E3,9.077917E2,4.6892975E1,5.5418373E1,2.4729677E-2,-4.5265015E-2,6.913487E-2,3.1034706E-2,-2.3294226E-3,2.623556E-2,1.7327726E-2,-1.3597715E-3,-4.5787822E-3,-4.1351046E-2,4.4392683E-3,-1.7883373E-2,-1.5419996E-2,-4.088637E-2,-5.475017E-3,-5.4748304E-2],"split_indices":[41,42,24,39,107,39,15,20,40,76,77,27,43,72,89,0,0,0,0,0,0,0,0,0,0,0,0,0,0,0,0],"split_type":[0,0,0,0,0,0,0,0,0,0,0,0,0,0,0,0,0,0,0,0,0,0,0,0,0,0,0,0,0,0,0],"sum_hessian":[1.1887445E4,4.924141E3,6.9633047E3,2.779328E2,4.646208E3,5.205174E3,1.758131E3,7.599383E1,2.0193896E2,2.1153975E3,2.5308108E3,2.5353545E3,2.6698193E3,5.377112E2,1.2204198E3,6.2495052E1,1.3498777E1,1.3071E2,7.122896E1,1.9574298E3,1.5796753E2,1.864621E3,6.661897E2,2.3101143E3,2.2524028E2,2.2888438E3,3.8097546E2,2.1073244E2,3.2697873E2,1.1541802E3,6.623955E1],"tree_param":{"num_deleted":"0","num_feature":"108","num_nodes":"31","size_leaf_vector":"1"}},{"base_weights":[4.967943E-6,1.754106E-1,-1.14400916E-1,1.7016307E-2,2.987205E-1,6.0551997E-2,-2.2088987E-1,-1.3031296E-3,1.1775309E0,3.6606374E-1,-3.9608035E-2,5.622727E-3,9.1232204E-1,-1.9460681E-1,-6.6821957E-1,8.86845E-3,-5.520854E-3,-3.477329E-2,6.888253E-2,6.041714E-2,1.6700884E-2,-4.072046E-2,4.2587416E-3,-4.661796E-3,1.1233549E-2,6.361712E-2,-3.797314E-3,-1.3584598E-2,1.3882105E-4,3.035417E-2,-4.3259393E-2],"categories":[],"categories_nodes":[],"categories_segments":[],"categories_sizes":[],"default_left":[0,0,0,0,0,0,0,0,0,0,0,0,0,0,0,0,0,0,0,0,0,0,0,0,0,0,0,0,0,0,0],"id":2,"left_children":[1,3,5,7,9,11,13,15,17,19,21,23,25,27,29,-1,-1,-1,-1,-1,-1,-1,-1,-1,-1,-1,-1,-1,-1,-1,-1],"loss_changes":[2.3856659E2,9.165662E1,1.3406476E2,4.3697556E1,6.0134552E1,1.2740762E2,5.245987E1,3.948608E1,1.2930492E1,5.899829E1,4.2506386E1,5.544151E1,5.8793182E1,6.430347E1,6.2775543E1,0E0,0E0,0E0,0E0,0E0,0E0,0E0,0E0,0E0,0E0,0E0,0E0,0E0,0E0,0E0,0E0],"parents":[2147483647,0,0,1,1,2,2,3,3,4,4,5,5,6,6,7,7,8,8,9,9,10,10,11,11,12,12,13,13,14,14],"right_children":[2,4,6,8,10,12,14,16,18,20,22,24,26,28,30,-1,-1,-1,-1,-1,-1,-1,-1,-1,-1,-1,-1,-1,-1,-1,-1],"split_conditions":[-3.446744E-3,-2.6735547E-1,1.19218E3,7.20318E2,1.3852915E-3,1.9560775E4,4.03095E3,1.914825E4,-3.8447943E2,5.21389E3,1.875618E2,2.497858E2,6.3873672E1,4.446025E2,5.335252E2,8.86845E-3,-5.520854E-3,-3.477329E-2,6.888253E-2,6.041714E-2,1.6700884E-2,-4.072046E-2,4.2587416E-3,-4.661796E-3,1.1233549E-2,6.361712E-2,-3.797314E-3,-1.3584598E-2,1.3882105E-4,3.035417E-2,-4.3259393E-2],"split_indices":[61,107,7,76,57,34,6,0,73,3,58,58,22,76,43,0,0,0,0,0,0,0,0,0,0,0,0,0,0,0,0],"split_type":[0,0,0,0,0,0,0,0,0,0,0,0,0,0,0,0,0,0,0,0,0,0,0,0,0,0,0,0,0,0,0],"sum_hessian":[1.1886244E4,4.6919985E3,7.194245E3,2.0543186E3,2.63768E3,2.7222444E3,4.472001E3,2.0233773E3,3.0941378E1,2.1997454E3,4.3793448E2,2.5582722E3,1.6397221E2,4.2251836E3,2.4681741E2,7.6692535E2,1.256452E3,2.7478611E0,2.8193518E1,7.928045E1,2.120465E3,5.998005E1,3.7795444E2,1.7631289E3,7.9514325E2,1.1997764E2,4.399458E1,3.0382593E3,1.1869243E3,3.2741985E1,2.1407542E2],"tree_param":{"num_deleted":"0","num_feature":"108","num_nodes":"31","size_leaf_vector":"1"}},{"base_weights":[1.5662321E-5,1.6221933E-1,-1.1467611E-1,7.4329025E-1,1.1737903E-1,-1.0481161E-1,-1.0745261E0,2.8556427E-1,9.170255E-1,1.3657299E-1,-6.488076E-1,1.4855458E-1,-1.3782497E-1,-2.8308325E-2,-1.2930899E0,-2.8278766E-2,3.0131731E-2,5.497473E-2,2.3531089E-2,-7.660759E-2,7.245138E-3,-5.515964E-3,-5.2371234E-2,1.623003E-2,-1.18905E-2,9.602237E-6,-1.2290803E-2,-5.029287E-2,6.1432015E-2,6.7391107E-3,-7.528865E-2],"categories":[],"categories_nodes":[],"categories_segments":[],"categories_sizes":[],"default_left":[0,0,0,0,0,0,0,0,0,0,0,0,0,0,0,0,0,0,0,0,0,0,0,0,0,0,0,0,0,0,0],"id":3,"left_children":[1,3,5,7,9,11,13,15,17,19,21,23,25,27,29,-1,-1,-1,-1,-1,-1,-1,-1,-1,-1,-1,-1,-1,-1,-1,-1],"loss_changes":[2.211174E2,1.2818831E2,6.581283E1,2.7770844E1,6.732037E1,5.767621E1,1.6134613E1,2.690667E1,2.0259293E1,6.222721E1,2.3904137E1,5.415739E1,9.090096E1,1.7508312E1,1.7961418E1,0E0,0E0,0E0,0E0,0E0,0E0,0E0,0E0,0E0,0E0,0E0,0E0,0E0,0E0,0E0,0E0],"parents":[2147483647,0,0,1,1,2,2,3,3,4,4,5,5,6,6,7,7,8,8,9,9,10,10,11,11,12,12,13,13,14,14],"right_children":[2,4,6,8,10,12,14,16,18,20,22,24,26,28,30,-1,-1,-1,-1,-1,-1,-1,-1,-1,-1,-1,-1,-1,-1,-1,-1],"split_conditions":[-1.2588399E-3,7.293855E3,7.035209E4,1.5258415E0,4.16254E3,-5.758981E0,-9.603487E0,4.221687E1,7.373915E0,1.3302365E2,6.6706445E2,8.962466E2,1.1897158E3,3.5706147E3,2.4005047E1,-2.8278766E-2,3.0131731E-2,5.497473E-2,2.3531089E-2,-7.660759E-2,7.245138E-3,-5.515964E-3,-5.2371234E-2,1.623003E-2,-1.18905E-2,9.602237E-6,-1.2290803E-2,-5.029287E-2,6.1432015E-2,6.7391107E-3,-7.528865E-2],"split_indices":[41,42,18,20,5,24,88,83,28,27,43,43,58,58,59,0,0,0,0,0,0,0,0,0,0,0,0,0,0,0,0],"split_type":[0,0,0,0,0,0,0,0,0,0,0,0,0,0,0,0,0,0,0,0,0,0,0,0,0,0,0,0,0,0,0],"sum_hessian":[1.1883842E4,4.9221875E3,6.961654E3,3.5150977E2,4.5706777E3,6.891934E3,6.972006E1,9.743898E1,2.5407079E2,4.4597764E3,1.1090132E2,7.940872E2,6.0978467E3,1.2243339E1,5.7476727E1,2.6233728E1,7.1205246E1,1.7931297E2,7.475782E1,2.1242653E1,4.4385337E3,4.771726E1,6.3184063E1,5.4563153E2,2.484557E2,2.6772324E3,3.420614E3,6.9994874E0,5.2438507E0,7.4988246E0,4.99779E1],"tree_param":{"num_deleted":"0","num_feature":"108","num_nodes":"31","size_leaf_vector":"1"}},{"base_weights":[5.9708614E-6,1.7066184E-1,-9.904832E-2,6.8092505E-3,2.9092547E-1,5.956434E-2,-1.9562535E-1,-1.1395659E-2,1.1079794E0,3.3161408E-1,-2.6162508E-1,-7.2023034E-2,3.6869398E-1,-1.8078172E-1,-9.179294E-1,8.065756E-3,-5.7667345E-3,8.171626E-2,8.783862E-3,2.071431E-2,2.6533434E-3,-3.202602E-2,6.504047E-3,5.059086E-4,-3.0549688E-2,1.2755183E-2,4.171397E-2,-7.7616693E-3,-3.1658135E-2,4.2238634E-2,-5.5732246E-2],"categories":[],"categories_nodes":[],"categories_segments":[],"categories_sizes":[],"default_left":[0,0,0,0,0,0,0,0,0,0,0,0,0,0,0,0,0,0,0,0,0,0,0,0,0,0,0,0,0,0,0],"id":4,"left_children":[1,3,5,7,9,11,13,15,17,19,21,23,25,27,29,-1,-1,-1,-1,-1,-1,-1,-1,-1,-1,-1,-1,-1,-1,-1,-1],"loss_changes":[2.0088596E2,8.600204E1,1.15195274E2,3.7068146E1,5.667537E1,1.1581403E2,4.994536E1,3.2679134E1,1.4469875E1,5.397455E1,2.5787918E1,8.84354E1,4.474295E1,5.2846832E1,3.349121E1,0E0,0E0,0E0,0E0,0E0,0E0,0E0,0E0,0E0,0E0,0E0,0E0,0E0,0E0,0E0,0E0],"parents":[2147483647,0,0,1,1,2,2,3,3,4,4,5,5,6,6,7,7,8,8,9,9,10,10,11,11,12,12,13,13,14,14],"right_children":[2,4,6,8,10,12,14,16,18,20,22,24,26,28,30,-1,-1,-1,-1,-1,-1,-1,-1,-1,-1,-1,-1,-1,-1,-1,-1],"split_conditions":[-4.9560745E-3,-2.6735547E-1,1.19218E3,7.20318E2,8.696361E-3,2.747406E2,6.9390984E4,1.914825E4,3.3567524E1,2.529699E3,1.5644015E3,9.852519E3,1.9543344E4,4.006386E3,3.5600947E3,8.065756E-3,-5.7667345E-3,8.171626E-2,8.783862E-3,2.071431E-2,2.6533434E-3,-3.202602E-2,6.504047E-3,5.059086E-4,-3.0549688E-2,1.2755183E-2,4.171397E-2,-7.7616693E-3,-3.1658135E-2,4.2238634E-2,-5.5732246E-2],"split_indices":[61,107,7,76,57,58,38,0,59,27,26,34,38,46,26,0,0,0,0,0,0,0,0,0,0,0,0,0,0,0,0],"split_type":[0,0,0,0,0,0,0,0,0,0,0,0,0,0,0,0,0,0,0,0,0,0,0,0,0,0,0,0,0,0,0],"sum_hessian":[1.1881793E4,4.3634653E3,7.5183276E3,1.8474596E3,2.5160056E3,2.845471E3,4.672857E3,1.8183871E3,2.9072527E1,2.3438123E3,1.7219337E2,1.9964205E3,8.4905035E2,4.579987E3,9.2870255E1,6.829718E2,1.1354153E3,1.8100569E1,1.0971958E1,1.8070092E3,5.368031E2,8.720509E1,8.498827E1,1.733248E3,2.6317242E2,6.8377545E2,1.6527492E2,4.3364287E3,2.4355777E2,8.992959E0,8.38773E1],"tree_param":{"num_deleted":"0","num_feature":"108","num_nodes":"31","size_leaf_vector":"1"}},{"base_weights":[1.170655E-5,1.5025815E-1,-1.0620563E-1,7.762097E-1,1.1282767E-1,-5.4237474E-2,-2.6004547E-1,2.006602E-1,9.920189E-1,1.3040975E-1,-6.018241E-1,-1.8340415E-1,6.164173E-3,-5.6119704E-1,-1.2708497E-1,2.234259E-2,-4.45269E-2,6.2166493E-2,2.6081039E-2,7.0378664E-3,-4.645886E-2,-4.547188E-3,-4.90538E-2,2.2853196E-3,-1.9418923E-2,1.5180968E-2,-4.7653294E-3,-1.3098391E-2,-3.763866E-2,5.1759364E-4,-2.2798013E-2],"categories":[],"categories_nodes":[],"categories_segments":[],"categories_sizes":[],"default_left":[0,0,0,0,0,0,0,0,0,0,0,0,0,0,0,0,0,0,0,0,0,0,0,0,0,0,0,0,0,0,0],"id":5,"left_children":[1,3,5,7,9,11,13,15,17,19,21,23,25,27,29,-1,-1,-1,-1,-1,-1,-1,-1,-1,-1,-1,-1,-1,-1,-1,-1],"loss_changes":[1.8959537E2,1.1519497E2,5.5629135E1,3.4263336E1,5.8429504E1,4.060034E1,7.0288376E1,2.1061378E1,2.3176498E1,4.983383E1,2.1550121E1,7.7884895E1,1.0707828E2,3.063794E1,5.516091E1,0E0,0E0,0E0,0E0,0E0,0E0,0E0,0E0,0E0,0E0,0E0,0E0,0E0,0E0,0E0,0E0],"parents":[2147483647,0,0,1,1,2,2,3,3,4,4,5,5,6,6,7,7,8,8,9,9,10,10,11,11,12,12,13,13,14,14],"right_children":[2,4,6,8,10,12,14,16,18,20,22,24,26,28,30,-1,-1,-1,-1,-1,-1,-1,-1,-1,-1,-1,-1,-1,-1,-1,-1],"split_conditions":[-1.2588399E-3,7.0407314E3,6.8067865E0,1.5045963E1,4.16254E3,2.431304E2,1.537112E2,1.3942603E0,-6.72794E-1,6.921E4,6.6706445E2,1.718505E2,1.1344844E3,4.6892975E1,7.259032E1,2.234259E-2,-4.45269E-2,6.2166493E-2,2.6081039E-2,7.0378664E-3,-4.645886E-2,-4.547188E-3,-4.90538E-2,2.2853196E-3,-1.9418923E-2,1.5180968E-2,-4.7653294E-3,-1.3098391E-2,-3.763866E-2,5.1759364E-4,-2.2798013E-2],"split_indices":[41,42,24,39,5,58,15,20,40,2,43,54,58,72,59,0,0,0,0,0,0,0,0,0,0,0,0,0,0,0,0],"split_type":[0,0,0,0,0,0,0,0,0,0,0,0,0,0,0,0,0,0,0,0,0,0,0,0,0,0,0,0,0,0,0],"sum_hessian":[1.187832E4,4.919367E3,6.958953E3,2.7645526E2,4.642912E3,5.202773E3,1.7561799E3,7.5917595E1,2.0053766E2,4.532226E3,1.1068561E2,1.6570968E3,3.5456763E3,5.36899E2,1.219281E3,6.2424202E1,1.3493395E1,1.2963617E2,7.090149E1,4.489253E3,4.2973446E1,4.768721E1,6.2998398E1,7.828459E2,8.74251E2,9.013711E2,2.6443052E3,2.1049194E2,3.2640704E2,8.6060364E2,3.586774E2],"tree_param":{"num_deleted":"0","num_feature":"108","num_nodes":"31","size_leaf_vector":"1"}},{"base_weights":[2.8995348E-6,1.4648128E-1,-9.86185E-2,7.6860964E-1,1.09937534E-1,-9.133728E-2,-1.1187563E0,-4.4319756E-2,9.0552557E-1,1.631953E-1,-1.1727977E-1,1.436065E-1,-1.2235692E-1,6.5100655E-2,-1.2328713E0,-1.6877394E-2,4.4016603E-2,4.7837187E-2,-4.2524304E-2,1.243428E-3,1.3888614E-2,7.679846E-3,-1.365829E-2,1.0484902E-2,-3.9836586E-2,-1.458012E-4,-1.0757974E-2,-6.76891E-2,5.2798744E-2],"categories":[],"categories_nodes":[],"categories_segments":[],"categories_sizes":[],"default_left":[0,0,0,0,0,0,0,0,0,0,0,0,0,0,0,0,0,0,0,0,0,0,0,0,0,0,0,0,0],"id":6,"left_children":[1,3,5,7,9,11,13,15,17,19,21,23,25,-1,27,-1,-1,-1,-1,-1,-1,-1,-1,-1,-1,-1,-1,-1,-1],"loss_changes":[1.7157254E2,1.08564156E2,5.2620384E1,2.953238E1,5.4655117E1,5.138796E1,1.5476528E1,1.0911502E1,2.121428E1,5.7969948E1,3.6267635E1,5.128812E1,6.902412E1,0E0,1.4842552E1,0E0,0E0,0E0,0E0,0E0,0E0,0E0,0E0,0E0,0E0,0E0,0E0,0E0,0E0],"parents":[2147483647,0,0,1,1,2,2,3,3,4,4,5,5,6,6,7,7,8,8,9,9,10,10,11,11,12,12,14,14],"right_children":[2,4,6,8,10,12,14,16,18,20,22,24,26,-1,28,-1,-1,-1,-1,-1,-1,-1,-1,-1,-1,-1,-1,-1,-1],"split_conditions":[-1.5333982E-3,7.0407314E3,6.9961805E4,1.5668441E1,3.9895217E0,-5.758981E0,7.02091E4,1.3721507E2,6.3857124E1,-2.6735547E-1,1.889388E3,1.8484805E3,1.1897158E3,6.5100655E-2,7.3352856E2,-1.6877394E-2,4.4016603E-2,4.7837187E-2,-4.2524304E-2,1.243428E-3,1.3888614E-2,7.679846E-3,-1.365829E-2,1.0484902E-2,-3.9836586E-2,-1.458012E-4,-1.0757974E-2,-6.76891E-2,5.2798744E-2],"split_indices":[41,42,38,43,24,24,1,26,69,107,58,43,58,0,76,0,0,0,0,0,0,0,0,0,0,0,0,0,0],"split_type":[0,0,0,0,0,0,0,0,0,0,0,0,0,0,0,0,0,0,0,0,0,0,0,0,0,0,0,0,0],"sum_hessian":[1.18749E4,4.7779375E3,7.096963E3,2.6397293E2,4.513965E3,7.047749E3,4.921366E1,3.814799E1,2.2582495E2,3.6570627E3,8.5690204E2,8.215644E2,6.2261846E3,1.74687E0,4.7466793E1,2.9445196E1,8.702795E0,2.1986717E2,5.957777E0,1.6573684E3,1.9996943E3,3.130108E2,5.4389124E2,7.683388E2,5.322558E1,2.722824E3,3.5033606E3,4.5473156E1,1.9936363E0],"tree_param":{"num_deleted":"0","num_feature":"108","num_nodes":"29","size_leaf_vector":"1"}},{"base_weights":[8.576893E-6,1.3395976E-1,-9.775485E-2,6.339634E-1,9.53523E-2,-9.053503E-2,-1.1325387E0,-2.807996E-1,7.1502227E-1,-1.4846811E0,1.0292048E-1,1.4299712E-1,-1.16466686E-1,-1.6505824E-2,-1.4176971E0,7.4838237E-3,-6.713026E-2,3.738859E-2,-2.7023906E-2,1.3006523E-2,-9.121079E-2,7.785246E-3,-5.6904466E-3,1.1677883E-2,-2.2970269E-2,-1.9271008E-4,-1.0110586E-2,-3.322685E-2,5.6374054E-2,1.4679881E-2,-7.541005E-2],"categories":[],"categories_nodes":[],"categories_segments":[],"categories_sizes":[],"default_left":[0,0,0,0,0,0,0,0,0,0,0,0,0,0,0,0,0,0,0,0,0,0,0,0,0,0,0,0,0,0,0],"id":7,"left_children":[1,3,5,7,9,11,13,15,17,19,21,23,25,27,29,-1,-1,-1,-1,-1,-1,-1,-1,-1,-1,-1,-1,-1,-1,-1,-1],"loss_changes":[1.5548395E2,9.6640335E1,5.1175545E1,2.6812714E1,5.577538E1,4.130071E1,1.5083721E1,1.3882196E1,1.3971283E1,1.3649326E1,5.2987675E1,3.7301098E1,5.925213E1,8.661163E0,6.296837E0,0E0,0E0,0E0,0E0,0E0,0E0,0E0,0E0,0E0,0E0,0E0,0E0,0E0,0E0,0E0,0E0],"parents":[2147483647,0,0,1,1,2,2,3,3,4,4,5,5,6,6,7,7,8,8,9,9,10,10,11,11,12,12,13,13,14,14],"right_children":[2,4,6,8,10,12,14,16,18,20,22,24,26,28,30,-1,-1,-1,-1,-1,-1,-1,-1,-1,-1,-1,-1,-1,-1,-1,-1],"split_conditions":[-1.0901962E-3,7.293855E3,6.9961805E4,1.30146675E1,1.3302365E2,-4.546982E0,6.7478573E-1,-9.915674E-1,6.3857124E1,2.126802E0,3.9895217E0,1.417644E3,1.1897158E3,5.3942905E1,9.492908E-1,7.4838237E-3,-6.713026E-2,3.738859E-2,-2.7023906E-2,1.3006523E-2,-9.121079E-2,7.785246E-3,-5.6904466E-3,1.1677883E-2,-2.2970269E-2,-1.9271008E-4,-1.0110586E-2,-3.322685E-2,5.6374054E-2,1.4679881E-2,-7.541005E-2],"split_indices":[41,42,38,43,27,23,44,15,69,59,24,43,58,22,28,0,0,0,0,0,0,0,0,0,0,0,0,0,0,0,0],"split_type":[0,0,0,0,0,0,0,0,0,0,0,0,0,0,0,0,0,0,0,0,0,0,0,0,0,0,0,0,0,0,0],"sum_hessian":[1.1871059E4,5.008399E3,6.8626597E3,3.5789496E2,4.650504E3,6.81619E3,4.6469948E1,2.8931705E1,3.2896326E2,2.1238787E1,4.629265E3,6.8078094E2,6.135409E3,9.672456E0,3.6797493E1,2.1197054E1,7.7346506E0,3.2099457E2,7.96869E0,3.497839E0,1.7740948E1,3.7228474E3,9.064177E2,5.923447E2,8.843623E1,2.6526367E3,3.4827722E3,6.442241E0,3.2302146E0,1.7356114E0,3.5061882E1],"tree_param":{"num_deleted":"0","num_feature":"108","num_nodes":"31","size_leaf_vector":"1"}},{"base_weights":[-6.996489E-6,1.3507709E-1,-8.805956E-2,-8.785943E-4,2.4113007E-1,4.721395E-2,-1.7064542E-1,-3.84415E-2,5.5968016E-1,2.5631848E-1,-9.6372384E-1,-2.4827374E-3,8.5759723E-1,-2.0194912E-1,1.5860519E-1,6.8085873E-3,-7.6925815E-3,-5.1625073E-2,3.9098136E-2,1.3529253E-2,-5.203895E-2,6.57334E-2,-5.766355E-2,2.0735612E-2,-2.822537E-3,6.0871836E-2,-5.699145E-3,-8.134204E-3,-2.5856638E-2,2.1337707E-2,-1.1335992E-2],"categories":[],"categories_nodes":[],"categories_segments":[],"categories_sizes":[],"default_left":[0,0,0,0,0,0,0,0,0,0,0,0,0,0,0,0,0,0,0,0,0,0,0,0,0,0,0,0,0,0,0],"id":8,"left_children":[1,3,5,7,9,11,13,15,17,19,21,23,25,27,29,-1,-1,-1,-1,-1,-1,-1,-1,-1,-1,-1,-1,-1,-1,-1,-1],"loss_changes":[1.4117932E2,6.753324E1,8.0282364E1,4.3260857E1,4.839853E1,1.0973339E2,4.601938E1,3.88237E1,4.6472294E1,4.8381836E1,1.5753309E1,5.7847416E1,5.518106E1,5.034581E1,4.0180817E1,0E0,0E0,0E0,0E0,0E0,0E0,0E0,0E0,0E0,0E0,0E0,0E0,0E0,0E0,0E0,0E0],"parents":[2147483647,0,0,1,1,2,2,3,3,4,4,5,5,6,6,7,7,8,8,9,9,10,10,11,11,12,12,13,13,14,14],"right_children":[2,4,6,8,10,12,14,16,18,20,22,24,26,28,30,-1,-1,-1,-1,-1,-1,-1,-1,-1,-1,-1,-1,-1,-1,-1,-1],"split_conditions":[-3.446744E-3,-2.6735547E-1,1.19792E3,5.81855E2,6.944153E4,1.9560775E4,1.3192893E0,1.914825E4,2.1566433E1,4.16255E3,3.5600947E3,-1.0403305E0,6.3873672E1,2.9540218E1,2.1709285E0,6.8085873E-3,-7.6925815E-3,-5.1625073E-2,3.9098136E-2,1.3529253E-2,-5.203895E-2,6.57334E-2,-5.766355E-2,2.0735612E-2,-2.822537E-3,6.0871836E-2,-5.699145E-3,-8.134204E-3,-2.5856638E-2,2.1337707E-2,-1.1335992E-2],"split_indices":[61,107,8,76,42,34,107,0,91,8,26,107,22,24,107,0,0,0,0,0,0,0,0,0,0,0,0,0,0,0,0],"split_type":[0,0,0,0,0,0,0,0,0,0,0,0,0,0,0,0,0,0,0,0,0,0,0,0,0,0,0,0,0,0,0],"sum_hessian":[1.1867295E4,4.682775E3,7.1845195E3,2.052519E3,2.6302559E3,2.723661E3,4.460859E3,1.9244907E3,1.2802824E2,2.598289E3,3.1966831E1,2.5672231E3,1.564378E2,4.0739153E3,3.8694348E2,7.657485E2,1.1587423E3,1.5237679E1,1.1279056E2,2.5708044E3,2.7484488E1,1.9992787E0,2.9967552E1,2.9328952E2,2.2739336E3,1.1397309E2,4.2464714E1,3.6239639E3,4.499513E2,2.2810027E2,1.5884322E2],"tree_param":{"num_deleted":"0","num_feature":"108","num_nodes":"31","size_leaf_vector":"1"}},{"base_weights":[-4.927436E-6,1.2356227E-1,-9.160589E-2,5.85435E-1,8.7878324E-2,-8.474247E-2,-1.0766475E0,-2.623924E-1,6.6259605E-1,7.7599615E-2,1.1496638E0,1.3032377E-1,-1.1299844E-1,-5.0209695E-3,-1.3530267E0,9.0273805E-3,-6.612264E-2,4.15533E-2,1.9006278E-2,-7.120486E-2,4.2394376E-3,-6.626389E-2,6.478524E-2,-6.7397216E-3,1.6498268E-2,-3.3958002E-3,-1.4001886E-2,-6.437408E-2,2.6968753E-2,-2.2441566E-2,-7.7540174E-2],"categories":[],"categories_nodes":[],"categories_segments":[],"categories_sizes":[],"default_left":[0,0,0,0,0,0,0,0,0,0,0,0,0,0,0,0,0,0,0,0,0,0,0,0,0,0,0,0,0,0,0],"id":9,"left_children":[1,3,5,7,9,11,13,15,17,19,21,23,25,27,29,-1,-1,-1,-1,-1,-1,-1,-1,-1,-1,-1,-1,-1,-1,-1,-1],"loss_changes":[1.3430118E2,8.3200386E1,4.5976475E1,2.3861565E1,5.1098125E1,4.1142807E1,1.3932255E1,1.4757674E1,1.5491272E1,5.0281326E1,1.7944439E1,4.166729E1,4.5032692E1,8.132055E0,5.9940186E0,0E0,0E0,0E0,0E0,0E0,0E0,0E0,0E0,0E0,0E0,0E0,0E0,0E0,0E0,0E0,0E0],"parents":[2147483647,0,0,1,1,2,2,3,3,4,4,5,5,6,6,7,7,8,8,9,9,10,10,11,11,12,12,13,13,14,14],"right_children":[2,4,6,8,10,12,14,16,18,20,22,24,26,28,30,-1,-1,-1,-1,-1,-1,-1,-1,-1,-1,-1,-1,-1,-1,-1,-1],"split_conditions":[-1.0112963E-3,7.293855E3,6.9961805E4,1.30146675E1,2.2344375E3,-4.001453E-1,6.7478573E-1,-9.915674E-1,-7.71904E-1,1.3302365E2,9.5108256E-2,7.885798E-2,1.4396473E0,-9.325672E-4,2.6635197E-3,9.0273805E-3,-6.612264E-2,4.15533E-2,1.9006278E-2,-7.120486E-2,4.2394376E-3,-6.626389E-2,6.478524E-2,-6.7397216E-3,1.6498268E-2,-3.3958002E-3,-1.4001886E-2,-6.437408E-2,2.6968753E-2,-2.2441566E-2,-7.7540174E-2],"split_indices":[41,42,38,43,43,102,44,15,40,27,107,101,60,33,41,0,0,0,0,0,0,0,0,0,0,0,0,0,0,0,0],"split_type":[0,0,0,0,0,0,0,0,0,0,0,0,0,0,0,0,0,0,0,0,0,0,0,0,0,0,0,0,0,0,0],"sum_hessian":[1.1863243E4,5.0502476E3,6.812995E3,3.6109058E2,4.689157E3,6.7669316E3,4.606351E1,2.9921354E1,3.3116922E2,4.645261E3,4.3895763E1,7.853953E2,5.981536E3,9.653074E0,3.641044E1,2.1688587E1,8.232767E0,2.0622888E2,1.2494032E2,2.1193449E1,4.624068E3,1.995949E0,4.1899815E1,3.3751288E2,4.4788245E2,4.7113823E3,1.2701539E3,2.4698215E0,7.183253E0,7.121545E0,2.9288893E1],"tree_param":{"num_deleted":"0","num_feature":"108","num_nodes":"31","size_leaf_vector":"1"}},{"base_weights":[-2.1901375E-5,1.4245632E-1,-7.207075E-2,7.319672E-1,1.0904183E-1,-2.0908764E-2,-2.2509298E-1,1.4076367E-1,1.024218E0,8.0039E-2,5.597723E-1,-1.3056044E-1,7.153795E-2,-4.8556152E-1,-9.060985E-2,-5.327953E-2,1.8477518E-2,5.377276E-2,-4.004909E-2,4.9014385E-3,-3.186321E-2,4.3932893E-3,4.221601E-2,-3.6178175E-3,-4.037783E-2,6.4623035E-3,-1.1653251E-2,-2.5648475E-2,5.699339E-2,1.8226717E-3,-1.9277288E-2],"categories":[],"categories_nodes":[],"categories_segments":[],"categories_sizes":[],"default_left":[0,0,0,0,0,0,0,0,0,0,0,0,0,0,0,0,0,0,0,0,0,0,0,0,0,0,0,0,0,0,0],"id":10,"left_children":[1,3,5,7,9,11,13,15,17,19,21,23,25,27,29,-1,-1,-1,-1,-1,-1,-1,-1,-1,-1,-1,-1,-1,-1,-1,-1],"loss_changes":[1.2176827E2,7.839498E1,6.167281E1,3.674842E1,4.9255775E1,5.987051E1,6.909942E1,2.0208776E1,1.4209244E1,4.5801094E1,3.051928E1,1.0639598E2,5.636139E1,3.0517578E1,4.884518E1,0E0,0E0,0E0,0E0,0E0,0E0,0E0,0E0,0E0,0E0,0E0,0E0,0E0,0E0,0E0,0E0],"parents":[2147483647,0,0,1,1,2,2,3,3,4,4,5,5,6,6,7,7,8,8,9,9,10,10,11,11,12,12,13,13,14,14],"right_children":[2,4,6,8,10,12,14,16,18,20,22,24,26,28,30,-1,-1,-1,-1,-1,-1,-1,-1,-1,-1,-1,-1,-1,-1,-1,-1],"split_conditions":[-5.866831E-1,7.0407314E3,6.943268E0,1.5045963E1,1.3757626E3,9.425223E1,1.537112E2,4.108241E1,6.3857124E1,4.12396E3,4.671926E2,1.8267334E3,9.077917E2,8.561213E2,7.259032E1,-5.327953E-2,1.8477518E-2,5.377276E-2,-4.004909E-2,4.9014385E-3,-3.186321E-2,4.3932893E-3,4.221601E-2,-3.6178175E-3,-4.037783E-2,6.4623035E-3,-1.1653251E-2,-2.5648475E-2,5.699339E-2,1.8226717E-3,-1.9277288E-2],"split_indices":[40,42,87,39,43,39,15,84,69,6,35,27,43,75,59,0,0,0,0,0,0,0,0,0,0,0,0,0,0,0,0],"split_type":[0,0,0,0,0,0,0,0,0,0,0,0,0,0,0,0,0,0,0,0,0,0,0,0,0,0,0,0,0,0,0],"sum_hessian":[1.186002E4,3.9828557E3,7.8771636E3,2.1252386E2,3.7703318E3,5.904252E3,1.9729117E3,7.079401E1,1.4172986E2,3.5434983E3,2.268334E2,2.700618E3,3.2036338E3,6.708979E2,1.3020138E3,1.0702725E1,6.0091278E1,1.382594E2,3.4704645E0,3.457645E3,8.585345E1,8.581796E1,1.4101544E2,2.4878357E3,2.1278241E2,2.69385E3,5.097838E2,6.6044586E2,1.0452026E1,9.1059204E2,3.9142175E2],"tree_param":{"num_deleted":"0","num_feature":"108","num_nodes":"31","size_leaf_vector":"1"}},{"base_weights":[-2.259385E-5,1.5910484E-1,-5.9855077E-2,-3.1388365E-2,2.388647E-1,5.5539995E-2,-1.3021724E-1,-6.411285E-2,1.3970683E0,2.935581E-1,-1.7303468E-1,-6.146663E-2,3.365531E-1,-5.638009E-1,-1.0688024E-1,6.0248817E-3,-1.1522091E-2,9.407111E-2,-4.259887E-2,-2.0049028E-3,1.9816527E-2,-2.7568107E-2,7.861944E-3,1.0352866E-4,-3.970885E-2,4.8564292E-2,1.3259049E-2,2.8343815E-2,-3.5530243E-2,-4.624582E-3,-4.062925E-2],"categories":[],"categories_nodes":[],"categories_segments":[],"categories_sizes":[],"default_left":[0,0,0,0,0,0,0,0,0,0,0,0,0,0,0,0,0,0,0,0,0,0,0,0,0,0,0,0,0,0,0],"id":11,"left_children":[1,3,5,7,9,11,13,15,17,19,21,23,25,27,29,-1,-1,-1,-1,-1,-1,-1,-1,-1,-1,-1,-1,-1,-1,-1,-1],"loss_changes":[1.12895195E2,4.9237473E1,6.997536E1,4.483211E1,5.150522E1,1.0736956E2,5.410959E1,2.8789263E1,2.5002018E1,6.9168015E1,3.361833E1,1.0735166E2,4.322908E1,4.5749825E1,5.1521156E1,0E0,0E0,0E0,0E0,0E0,0E0,0E0,0E0,0E0,0E0,0E0,0E0,0E0,0E0,0E0,0E0],"parents":[2147483647,0,0,1,1,2,2,3,3,4,4,5,5,6,6,7,7,8,8,9,9,10,10,11,11,12,12,13,13,14,14],"right_children":[2,4,6,8,10,12,14,16,18,20,22,24,26,28,30,-1,-1,-1,-1,-1,-1,-1,-1,-1,-1,-1,-1,-1,-1,-1,-1],"split_conditions":[-1.0879709E-2,-4.2817438E-1,1.19218E3,6.652925E4,1.9229706E-1,2.747406E2,1.2604493E3,1.3603159E2,-1.4378067E1,3.109827E1,1.5039955E3,1.008074E4,1.068238E4,4.164878E0,7.035209E4,6.0248817E-3,-1.1522091E-2,9.407111E-2,-4.259887E-2,-2.0049028E-3,1.9816527E-2,-2.7568107E-2,7.861944E-3,1.0352866E-4,-3.970885E-2,4.8564292E-2,1.3259049E-2,2.8343815E-2,-3.5530243E-2,-4.624582E-3,-4.062925E-2],"split_indices":[61,107,7,19,56,58,58,39,73,22,54,19,2,91,18,0,0,0,0,0,0,0,0,0,0,0,0,0,0,0,0],"split_type":[0,0,0,0,0,0,0,0,0,0,0,0,0,0,0,0,0,0,0,0,0,0,0,0,0,0,0,0,0,0,0],"sum_hessian":[1.1855506E4,3.2391548E3,8.616351E3,9.561517E2,2.2830032E3,3.2638293E3,5.3525215E3,9.356715E2,2.0480164E1,2.0156461E3,2.67357E2,2.3049067E3,9.5892255E2,2.7219467E2,5.0803267E3,4.435953E2,4.9207617E2,1.6985603E1,3.4945593E0,4.7479825E2,1.5408479E3,1.24301056E2,1.4305595E2,2.1219026E3,1.8300427E2,9.565214E1,8.632704E2,3.0950893E1,2.4124379E2,4.9799224E3,1.0040449E2],"tree_param":{"num_deleted":"0","num_feature":"108","num_nodes":"31","size_leaf_vector":"1"}},{"base_weights":[-1.9745527E-5,1.1007696E-1,-8.159138E-2,5.441618E-1,7.8297645E-2,-7.5282395E-2,-1.0012383E0,-2.5745416E-1,6.2123597E-1,6.879251E-2,1.0688607E0,-6.3267626E-2,-5.443262E-1,2.4717504E-2,-1.2704966E0,8.417622E-3,-6.381635E-2,-1.1557376E-2,3.4945406E-2,4.188083E-3,-2.700374E-2,-6.4086236E-2,6.0441215E-2,6.8571563E-3,-4.682316E-3,4.6887297E-2,-3.8284056E-2,-2.7130831E-2,6.0587842E-2,1.7415307E-2,-6.799855E-2],"categories":[],"categories_nodes":[],"categories_segments":[],"categories_sizes":[],"default_left":[0,0,0,0,0,0,0,0,0,0,0,0,0,0,0,0,0,0,0,0,0,0,0,0,0,0,0,0,0,0,0],"id":12,"left_children":[1,3,5,7,9,11,13,15,17,19,21,23,25,27,29,-1,-1,-1,-1,-1,-1,-1,-1,-1,-1,-1,-1,-1,-1,-1,-1],"loss_changes":[1.0644967E2,6.954611E1,3.9428127E1,2.1410378E1,4.4193825E1,3.8079517E1,1.2824039E1,1.36103525E1,2.0955109E1,4.2498894E1,1.6228298E1,4.0167423E1,5.6090343E1,7.80138E0,5.789482E0,0E0,0E0,0E0,0E0,0E0,0E0,0E0,0E0,0E0,0E0,0E0,0E0,0E0,0E0,0E0,0E0],"parents":[2147483647,0,0,1,1,2,2,3,3,4,4,5,5,6,6,7,7,8,8,9,9,10,10,11,11,12,12,13,13,14,14],"right_children":[2,4,6,8,10,12,14,16,18,20,22,24,26,28,30,-1,-1,-1,-1,-1,-1,-1,-1,-1,-1,-1,-1,-1,-1,-1,-1],"split_conditions":[-1.0112963E-3,7.125818E3,6.9961805E4,1.30146675E1,2.2344375E3,4.02687E3,6.7478573E-1,-9.915674E-1,2.6020897E1,4.16254E3,9.5108256E-2,-6.4358635E0,-1.3353467E-2,5.0699043E-1,9.492908E-1,8.417622E-3,-6.381635E-2,-1.1557376E-2,3.4945406E-2,4.188083E-3,-2.700374E-2,-6.4086236E-2,6.0441215E-2,6.8571563E-3,-4.682316E-3,4.6887297E-2,-3.8284056E-2,-2.7130831E-2,6.0587842E-2,1.7415307E-2,-6.799855E-2],"split_indices":[41,19,38,43,43,7,44,15,22,5,107,88,101,56,28,0,0,0,0,0,0,0,0,0,0,0,0,0,0,0,0],"split_type":[0,0,0,0,0,0,0,0,0,0,0,0,0,0,0,0,0,0,0,0,0,0,0,0,0,0,0,0,0,0,0],"sum_hessian":[1.185107E4,5.043518E3,6.8075522E3,3.4294794E2,4.70057E3,6.7622437E3,4.5308674E1,2.9876343E1,3.130716E2,4.6569526E3,4.361725E1,6.5944585E3,1.6778522E2,9.60789E0,3.5700783E1,2.1659279E1,8.217064E0,2.598066E1,2.8709094E2,4.5460493E3,1.10903336E2,1.9927619E0,4.162449E1,8.675626E2,5.726896E3,2.1382593E1,1.4640262E2,6.868188E0,2.7397025E0,1.7183855E0,3.39824E1],"tree_param":{"num_deleted":"0","num_feature":"108","num_nodes":"31","size_leaf_vector":"1"}},{"base_weights":[-2.4084356E-5,1.2772284E-1,-6.458335E-2,6.7234427E-1,9.723312E-2,-1.8681003E-2,-2.053409E-1,1.1326156E-1,9.529259E-1,8.749087E-2,1.2788085E0,-1.2263651E-1,6.802641E-2,-4.6452898E-1,-7.515296E-2,-5.1922172E-2,1.6649114E-2,5.0145328E-2,-3.9307926E-2,4.7757155E-3,-6.1710637E-2,-5.1252794E-2,7.0511445E-2,-3.447457E-3,-3.744552E-2,5.894437E-3,-1.1805996E-2,-3.0044258E-2,-2.5051085E-3,2.302828E-3,-1.795235E-2],"categories":[],"categories_nodes":[],"categories_segments":[],"categories_sizes":[],"default_left":[0,0,0,0,0,0,0,0,0,0,0,0,0,0,0,0,0,0,0,0,0,0,0,0,0,0,0,0,0,0,0],"id":13,"left_children":[1,3,5,7,9,11,13,15,17,19,21,23,25,27,29,-1,-1,-1,-1,-1,-1,-1,-1,-1,-1,-1,-1,-1,-1,-1,-1],"loss_changes":[9.771986E1,6.598683E1,5.0851612E1,3.2946365E1,4.326288E1,5.3518448E1,6.527486E1,1.8450943E1,1.2971809E1,3.9761192E1,1.0753029E1,9.073374E1,4.9124805E1,3.652829E1,4.4391006E1,0E0,0E0,0E0,0E0,0E0,0E0,0E0,0E0,0E0,0E0,0E0,0E0,0E0,0E0,0E0,0E0],"parents":[2147483647,0,0,1,1,2,2,3,3,4,4,5,5,6,6,7,7,8,8,9,9,10,10,11,11,12,12,13,13,14,14],"right_children":[2,4,6,8,10,12,14,16,18,20,22,24,26,28,30,-1,-1,-1,-1,-1,-1,-1,-1,-1,-1,-1,-1,-1,-1,-1,-1],"split_conditions":[-5.866831E-1,7.0407314E3,6.8067865E0,1.5045963E1,2.2344375E3,9.425223E1,1.537112E2,4.108241E1,6.3857124E1,5.6135855E0,4.4196878E-2,1.8267334E3,9.661698E2,3.53412E0,7.259032E1,-5.1922172E-2,1.6649114E-2,5.0145328E-2,-3.9307926E-2,4.7757155E-3,-6.1710637E-2,-5.1252794E-2,7.0511445E-2,-3.447457E-3,-3.744552E-2,5.894437E-3,-1.1805996E-2,-3.0044258E-2,-2.5051085E-3,2.302828E-3,-1.795235E-2],"split_indices":[40,42,24,39,43,39,15,84,69,107,107,27,43,20,59,0,0,0,0,0,0,0,0,0,0,0,0,0,0,0,0],"split_type":[0,0,0,0,0,0,0,0,0,0,0,0,0,0,0,0,0,0,0,0,0,0,0,0,0,0,0,0,0,0,0],"sum_hessian":[1.1846783E4,3.976765E3,7.870018E3,2.0971358E2,3.7670513E3,5.935522E3,1.9344965E3,7.054679E1,1.3916678E2,3.7373108E3,2.9740564E1,2.6990974E3,3.2364243E3,6.459406E2,1.2885558E3,1.0705552E1,5.9841244E1,1.356904E2,3.4763799E0,3.7156824E3,2.1628408E1,1.2379986E0,2.8502565E1,2.4870085E3,2.1208891E2,2.7810984E3,4.5532608E2,4.8568793E2,1.6025267E2,9.0359894E2,3.8495685E2],"tree_param":{"num_deleted":"0","num_feature":"108","num_nodes":"31","size_leaf_vector":"1"}},{"base_weights":[-3.4692308E-5,1.0866004E-1,-7.082295E-2,-1.1295276E-2,2.0246243E-1,4.4566404E-2,-1.4245997E-1,-4.870286E-2,5.1997006E-1,2.1675807E-1,-9.2801386E-1,-3.518168E-3,7.018085E-1,-5.826434E-1,-1.1887213E-1,5.538736E-3,-7.7226185E-3,-4.7073152E-2,3.7812844E-2,1.149657E-2,-4.8935205E-2,3.7140146E-2,-5.9214722E-2,1.9067727E-2,-2.6178502E-3,5.2598417E-2,-4.7072927E-3,2.809896E-2,-3.8078714E-2,-4.757178E-3,-2.5144046E-2],"categories":[],"categories_nodes":[],"categories_segments":[],"categories_sizes":[],"default_left":[0,0,0,0,0,0,0,0,0,0,0,0,0,0,0,0,0,0,0,0,0,0,0,0,0,0,0,0,0,0,0],"id":14,"left_children":[1,3,5,7,9,11,13,15,17,19,21,23,25,27,29,-1,-1,-1,-1,-1,-1,-1,-1,-1,-1,-1,-1,-1,-1,-1,-1],"loss_changes":[9.112961E1,5.2562984E1,5.9295914E1,4.0781334E1,4.256536E1,8.6850746E1,4.5880493E1,3.2343304E1,4.7325478E1,4.100476E1,1.4978033E1,4.817218E1,5.2315987E1,4.6474678E1,3.8237602E1,0E0,0E0,0E0,0E0,0E0,0E0,0E0,0E0,0E0,0E0,0E0,0E0,0E0,0E0,0E0,0E0],"parents":[2147483647,0,0,1,1,2,2,3,3,4,4,5,5,6,6,7,7,8,8,9,9,10,10,11,11,12,12,13,13,14,14],"right_children":[2,4,6,8,10,12,14,16,18,20,22,24,26,28,30,-1,-1,-1,-1,-1,-1,-1,-1,-1,-1,-1,-1,-1,-1,-1,-1],"split_conditions":[-3.446744E-3,-2.6735547E-1,1.1897158E3,5.7570123E2,6.944153E4,1.9560775E4,1.2604493E3,1.914825E4,2.1566433E1,4.16255E3,-4.6205625E-2,-1.0403305E0,6.3873672E1,4.164878E0,4.03095E3,5.538736E-3,-7.7226185E-3,-4.7073152E-2,3.7812844E-2,1.149657E-2,-4.8935205E-2,3.7140146E-2,-5.9214722E-2,1.9067727E-2,-2.6178502E-3,5.2598417E-2,-4.7072927E-3,2.809896E-2,-3.8078714E-2,-4.757178E-3,-2.5144046E-2],"split_indices":[61,107,58,75,42,34,58,0,91,8,45,107,22,91,6,0,0,0,0,0,0,0,0,0,0,0,0,0,0,0,0],"split_type":[0,0,0,0,0,0,0,0,0,0,0,0,0,0,0,0,0,0,0,0,0,0,0,0,0,0,0,0,0,0,0],"sum_hessian":[1.1841766E4,4.6701924E3,7.171573E3,2.0497866E3,2.6204055E3,2.7470842E3,4.424489E3,1.9157993E3,1.339874E2,2.5884807E3,3.1924816E1,2.560733E3,1.8635144E2,2.2382822E2,4.2006606E3,7.6383527E2,1.1519641E3,1.8232853E1,1.1575455E2,2.5610667E3,2.7413874E1,3.9931502E0,2.7931667E1,2.8758905E2,2.2731438E3,1.2919414E2,5.7157307E1,2.9969877E1,1.9385834E2,3.9573752E3,2.4328534E2],"tree_param":{"num_deleted":"0","num_feature":"108","num_nodes":"31","size_leaf_vector":"1"}},{"base_weights":[-3.602201E-5,1.1892115E-1,-6.0127962E-2,6.389907E-1,9.005452E-2,-5.3932358E-2,-9.666695E-1,8.845369E-2,9.0678364E-1,6.371627E-2,5.011944E-1,1.3092966E-1,-8.313584E-2,2.2931743E-1,-1.151074E0,-2.0130878E-2,1.8440455E-2,-5.3945847E-2,4.8769753E-2,-2.030383E-2,4.3687685E-3,2.8105264E-3,3.8413417E-2,2.3879748E-2,-2.5699768E-4,7.39573E-4,-8.070981E-3,6.045586E-2,-5.8607537E-2,-6.50856E-2,3.293885E-2],"categories":[],"categories_nodes":[],"categories_segments":[],"categories_sizes":[],"default_left":[0,0,0,0,0,0,0,0,0,0,0,0,0,0,0,0,0,0,0,0,0,0,0,0,0,0,0,0,0,0,0],"id":15,"left_children":[1,3,5,7,9,11,13,15,17,19,21,23,25,27,29,-1,-1,-1,-1,-1,-1,-1,-1,-1,-1,-1,-1,-1,-1,-1,-1],"loss_changes":[8.462627E1,5.9591003E1,4.4124023E1,3.0699257E1,4.0742943E1,4.219024E1,1.20257E1,9.706928E0,2.0173347E1,3.9380928E1,2.688105E1,5.029866E1,5.173132E1,1.2345116E1,1.3500057E1,0E0,0E0,0E0,0E0,0E0,0E0,0E0,0E0,0E0,0E0,0E0,0E0,0E0,0E0,0E0,0E0],"parents":[2147483647,0,0,1,1,2,2,3,3,4,4,5,5,6,6,7,7,8,8,9,9,10,10,11,11,12,12,13,13,14,14],"right_children":[2,4,6,8,10,12,14,16,18,20,22,24,26,28,30,-1,-1,-1,-1,-1,-1,-1,-1,-1,-1,-1,-1,-1,-1,-1,-1],"split_conditions":[-5.866831E-1,7.0407314E3,6.9961805E4,2.3006176E1,1.3757626E3,-5.999833E0,1.5446156E2,4.1586315E1,3.6363584E3,-3.7379627E1,3.0684286E2,3.618462E1,1.1897158E3,3.4045086E1,7.3352856E2,-2.0130878E-2,1.8440455E-2,-5.3945847E-2,4.8769753E-2,-2.030383E-2,4.3687685E-3,2.8105264E-3,3.8413417E-2,2.3879748E-2,-2.5699768E-4,7.39573E-4,-8.070981E-3,6.045586E-2,-5.8607537E-2,-6.50856E-2,3.293885E-2],"split_indices":[40,42,38,43,43,24,35,83,42,23,31,59,58,59,76,0,0,0,0,0,0,0,0,0,0,0,0,0,0,0,0],"split_type":[0,0,0,0,0,0,0,0,0,0,0,0,0,0,0,0,0,0,0,0,0,0,0,0,0,0,0,0,0,0,0],"sum_hessian":[1.1836543E4,3.9722173E3,7.8643257E3,2.0777356E2,3.7644438E3,7.8119956E3,5.2330257E1,6.842782E1,1.3934575E2,3.5388918E3,2.2555185E2,1.0652616E3,6.746734E3,6.958187E0,4.537207E1,2.4709866E1,4.3717957E1,4.162178E0,1.3518356E2,1.6890103E2,3.369991E3,8.50525E1,1.4049934E2,2.995603E2,7.657013E2,2.9976736E3,3.7490603E3,4.1759386E0,2.7822485E0,4.2145008E1,3.2270603E0],"tree_param":{"num_deleted":"0","num_feature":"108","num_nodes":"31","size_leaf_vector":"1"}},{"base_weights":[-3.1588366E-5,1.15602106E-1,-5.637522E-2,6.43913E-1,8.8241205E-2,1.4828648E-1,-8.4004655E-2,5.1647013E-1,1.2852393E0,1.01229206E-1,-6.677084E-1,3.0624783E-1,-1.4358567E-1,-2.1020992E-2,-2.00059E-1,3.1867478E-2,-1.4439993E-2,-7.290896E-2,7.3438995E-2,5.5178655E-3,-4.913857E-2,4.870993E-2,-4.5849666E-2,1.8970376E-2,-1.5214995E-2,-3.8258054E-3,-5.5322476E-2,-3.231082E-3,2.7288994E-2,-2.5592783E-2,-5.580958E-3],"categories":[],"categories_nodes":[],"categories_segments":[],"categories_sizes":[],"default_left":[0,0,0,0,0,0,0,0,0,0,0,0,0,0,0,0,0,0,0,0,0,0,0,0,0,0,0,0,0,0,0],"id":16,"left_children":[1,3,5,7,9,11,13,15,17,19,21,23,25,27,29,-1,-1,-1,-1,-1,-1,-1,-1,-1,-1,-1,-1,-1,-1,-1,-1],"loss_changes":[7.709764E1,5.598413E1,4.5004284E1,1.4925659E1,3.6269253E1,4.3692932E1,5.1241547E1,1.5835438E1,1.77248E1,3.5984875E1,2.6438347E1,2.7568375E1,2.1428698E1,1.1237024E2,6.794931E1,0E0,0E0,0E0,0E0,0E0,0E0,0E0,0E0,0E0,0E0,0E0,0E0,0E0,0E0,0E0,0E0],"parents":[2147483647,0,0,1,1,2,2,3,3,4,4,5,5,6,6,7,7,8,8,9,9,10,10,11,11,12,12,13,13,14,14],"right_children":[2,4,6,8,10,12,14,16,18,20,22,24,26,28,30,-1,-1,-1,-1,-1,-1,-1,-1,-1,-1,-1,-1,-1,-1,-1,-1],"split_conditions":[-3.324298E-3,7.0407314E3,-5.999833E0,6.7885454E3,4.3352046E3,8.267243E1,1.81599E3,-5.552522E-1,1.275191E0,6.921E4,3.964634E1,4.137228E4,4.1700713E3,2.8953541E4,3.228966E4,3.1867478E-2,-1.4439993E-2,-7.290896E-2,7.3438995E-2,5.5178655E-3,-4.913857E-2,4.870993E-2,-4.5849666E-2,1.8970376E-2,-1.5214995E-2,-3.8258054E-3,-5.5322476E-2,-3.231082E-3,2.7288994E-2,-2.5592783E-2,-5.580958E-3],"split_indices":[41,42,24,42,54,17,7,40,89,2,29,9,58,18,18,0,0,0,0,0,0,0,0,0,0,0,0,0,0,0,0],"split_type":[0,0,0,0,0,0,0,0,0,0,0,0,0,0,0,0,0,0,0,0,0,0,0,0,0,0,0,0,0,0,0],"sum_hessian":[1.1831464E4,3.8759087E3,7.955555E3,1.8973755E2,3.6861711E3,9.457393E2,7.009816E3,1.5978983E2,2.994773E1,3.62476E3,6.1411057E1,6.1360614E2,3.3213318E2,4.5446025E3,2.4652131E3,1.3911565E2,2.0674177E1,1.4424462E0,2.8505283E1,3.5953823E3,2.9377644E1,7.7115054E0,5.369955E1,5.4828564E2,6.5320496E1,3.1151373E2,2.061944E1,4.220807E3,3.2379584E2,5.436776E2,1.9215355E3],"tree_param":{"num_deleted":"0","num_feature":"108","num_nodes":"31","size_leaf_vector":"1"}},{"base_weights":[-3.5925746E-5,4.0164005E-2,-1.5056586E-1,-1.2349639E-2,1.5420352E-1,-9.167492E-2,-1.376511E-1,3.9517157E-2,-2.8542295E-1,3.5822174E-1,4.3839097E-2,-2.880154E-1,-2.7568331E-2,1.2482081E-3,3.948417E-2,-3.523663E-2,-4.0720096E-3,2.378578E-2,-1.0772955E-2,-3.5056E-3,1.0938189E-2,1.6024102E-2,-1.7541725E-2,3.6505442E-3,-1.2856959E-2],"categories":[],"categories_nodes":[],"categories_segments":[],"categories_sizes":[],"default_left":[0,0,0,0,0,0,0,0,0,0,0,0,0,0,0,0,0,0,0,0,0,0,0,0,0],"id":17,"left_children":[1,3,5,7,9,-1,11,13,15,17,19,21,23,-1,-1,-1,-1,-1,-1,-1,-1,-1,-1,-1,-1],"loss_changes":[7.1579384E1,5.5909584E1,5.393514E1,9.0559105E1,6.626273E1,0E0,4.0963406E1,5.8643543E1,8.7234825E1,6.974452E1,3.8114304E1,4.0099747E1,3.3040688E1,0E0,0E0,0E0,0E0,0E0,0E0,0E0,0E0,0E0,0E0,0E0,0E0],"parents":[2147483647,0,0,1,1,2,2,3,3,4,4,6,6,7,7,8,8,9,9,10,10,11,11,12,12],"right_children":[2,4,6,8,10,-1,12,14,16,18,20,22,24,-1,-1,-1,-1,-1,-1,-1,-1,-1,-1,-1,-1],"split_conditions":[6.946825E0,3.857224E2,4.1786E2,1.8346678E3,3.618462E1,-9.167492E-2,1.537112E2,2.882008E4,2.992126E4,8.620909E-3,5.62841E2,1.1980422E3,7.259032E1,1.2482081E-3,3.948417E-2,-3.523663E-2,-4.0720096E-3,2.378578E-2,-1.0772955E-2,-3.5056E-3,1.0938189E-2,1.6024102E-2,-1.7541725E-2,3.6505442E-3,-1.2856959E-2],"split_indices":[86,43,78,58,59,0,15,3,42,37,76,58,59,0,0,0,0,0,0,0,0,0,0,0,0],"split_type":[0,0,0,0,0,0,0,0,0,0,0,0,0,0,0,0,0,0,0,0,0,0,0,0,0],"sum_hessian":[1.1826775E4,9.334637E3,2.4921382E3,6.3920684E3,2.9425686E3,1.7905375E1,2.474233E3,5.372488E3,1.0195804E3,1.0322041E3,1.9103646E3,1.045097E3,1.4291357E3,5.2712603E3,1.0122756E2,3.3287115E2,6.867092E2,8.568799E2,1.753242E2,1.1571573E3,7.532072E2,9.741213E1,9.4768494E2,9.942281E2,4.3490765E2],"tree_param":{"num_deleted":"0","num_feature":"108","num_nodes":"25","size_leaf_vector":"1"}},{"base_weights":[-4.246522E-5,1.0817438E-1,-5.467564E-2,5.863967E-1,8.200926E-2,-4.7322296E-2,-7.701689E-1,-1.6119355E-1,7.6565576E-1,7.305459E-2,1.1878556E0,-3.616798E-2,-4.5647052E-1,-1.2995563E0,-2.7151442E-1,-2.1214744E-2,3.8325574E-2,4.0747322E-2,-3.814709E-2,4.0398785E-3,-5.990618E-2,-5.0162014E-2,6.579062E-2,-5.4344684E-3,2.0116507E-3,2.9423285E-2,-3.4107085E-2,-2.1793246E-3,-6.996357E-2,7.315573E-2,-2.6917873E-2],"categories":[],"categories_nodes":[],"categories_segments":[],"categories_sizes":[],"default_left":[0,0,0,0,0,0,0,0,0,0,0,0,0,0,0,0,0,0,0,0,0,0,0,0,0,0,0,0,0,0,0],"id":18,"left_children":[1,3,5,7,9,11,13,15,17,19,21,23,25,27,29,-1,-1,-1,-1,-1,-1,-1,-1,-1,-1,-1,-1,-1,-1,-1,-1],"loss_changes":[6.991603E1,4.9593605E1,4.1308548E1,2.7681839E1,3.717282E1,3.5487297E1,2.0732883E1,1.0234515E1,1.3132317E1,3.6844456E1,9.775364E0,4.1970352E1,4.9066463E1,4.758194E0,2.0411648E1,0E0,0E0,0E0,0E0,0E0,0E0,0E0,0E0,0E0,0E0,0E0,0E0,0E0,0E0,0E0,0E0],"parents":[2147483647,0,0,1,1,2,2,3,3,4,4,5,5,6,6,7,7,8,8,9,9,10,10,11,11,12,12,13,13,14,14],"right_children":[2,4,6,8,10,12,14,16,18,20,22,24,26,28,30,-1,-1,-1,-1,-1,-1,-1,-1,-1,-1,-1,-1,-1,-1,-1,-1],"split_conditions":[-5.866831E-1,7.0407314E3,7.035209E4,1.5668441E1,2.2344375E3,4.02687E3,3.5706147E3,1.3721507E2,6.3857124E1,5.6135855E0,4.4196878E-2,2.8496504E0,5.403628E2,5.812763E2,3.58747E3,-2.1214744E-2,3.8325574E-2,4.0747322E-2,-3.814709E-2,4.0398785E-3,-5.990618E-2,-5.0162014E-2,6.579062E-2,-5.4344684E-3,2.0116507E-3,2.9423285E-2,-3.4107085E-2,-2.1793246E-3,-6.996357E-2,7.315573E-2,-2.6917873E-2],"split_indices":[40,42,18,43,43,7,58,26,69,107,107,20,43,4,5,0,0,0,0,0,0,0,0,0,0,0,0,0,0,0,0],"split_type":[0,0,0,0,0,0,0,0,0,0,0,0,0,0,0,0,0,0,0,0,0,0,0,0,0,0,0,0,0,0,0],"sum_hessian":[1.1823661E4,3.966291E3,7.85737E3,2.0464084E2,3.7616504E3,7.778494E3,7.887583E1,3.9598454E1,1.6504237E2,3.7324922E3,2.9158062E1,7.573122E3,2.0537221E2,3.747988E1,4.139595E1,3.1272165E1,8.326287E0,1.60339E2,4.703372E0,3.7108254E3,2.1666868E1,1.2314045E0,2.7926657E1,3.8849888E3,3.6881333E3,3.6190407E1,1.6918181E2,2.8624728E0,3.461741E1,4.9213524E0,3.6474598E1],"tree_param":{"num_deleted":"0","num_feature":"108","num_nodes":"31","size_leaf_vector":"1"}},{"base_weights":[-4.354315E-5,1.20377555E-1,-4.5234483E-2,-1.095043E-1,1.7737712E-1,4.703707E-2,-1.0157338E-1,-1.3987449E-2,-5.745529E-1,2.313639E-1,-1.6305158E-1,-6.306703E-2,3.115753E-1,-5.0909656E-1,-7.966841E-2,3.3975262E-3,-2.570433E-2,-3.7178718E-2,4.7751993E-2,-1.5938118E-4,1.6927842E-2,2.4520962E-2,-1.4382444E-2,-1.2314037E-4,-3.8101565E-2,2.2322582E-2,-1.8470694E-4,5.3595144E-2,-3.0022142E-2,-5.767759E-3,7.482999E-3],"categories":[],"categories_nodes":[],"categories_segments":[],"categories_sizes":[],"default_left":[0,0,0,0,0,0,0,0,0,0,0,0,0,0,0,0,0,0,0,0,0,0,0,0,0,0,0,0,0,0,0],"id":19,"left_children":[1,3,5,7,9,11,13,15,17,19,21,23,25,27,29,-1,-1,-1,-1,-1,-1,-1,-1,-1,-1,-1,-1,-1,-1,-1,-1],"loss_changes":[6.432911E1,4.228525E1,4.468758E1,2.8487663E1,4.754859E1,9.495023E1,4.760291E1,2.1884855E1,2.8963696E1,5.6110596E1,2.8999126E1,9.7519684E1,4.0739197E1,3.9934067E1,4.1478E1,0E0,0E0,0E0,0E0,0E0,0E0,0E0,0E0,0E0,0E0,0E0,0E0,0E0,0E0,0E0,0E0],"parents":[2147483647,0,0,1,1,2,2,3,3,4,4,5,5,6,6,7,7,8,8,9,9,10,10,11,11,12,12,13,13,14,14],"right_children":[2,4,6,8,10,12,14,16,18,20,22,24,26,28,30,-1,-1,-1,-1,-1,-1,-1,-1,-1,-1,-1,-1,-1,-1,-1,-1],"split_conditions":[-1.0879709E-2,3.109827E1,1.19218E3,2.98331E3,1.9229706E-1,2.747406E2,1.2604493E3,-8.228515E-3,1.597299E3,-4.2817438E-1,2.3554873E0,1.008074E4,5.8784604E-1,3.1820524E0,8.076215E-1,3.3975262E-3,-2.570433E-2,-3.7178718E-2,4.7751993E-2,-1.5938118E-4,1.6927842E-2,2.4520962E-2,-1.4382444E-2,-1.2314037E-4,-3.8101565E-2,2.2322582E-2,-1.8470694E-4,5.3595144E-2,-3.0022142E-2,-5.767759E-3,7.482999E-3],"split_indices":[61,22,7,8,56,58,58,53,43,107,28,19,107,59,107,0,0,0,0,0,0,0,0,0,0,0,0,0,0,0,0],"split_type":[0,0,0,0,0,0,0,0,0,0,0,0,0,0,0,0,0,0,0,0,0,0,0,0,0,0,0,0,0,0,0],"sum_hessian":[1.1818982E4,3.2246191E3,8.594363E3,6.405064E2,2.5841125E3,3.2582246E3,5.336138E3,5.3222266E2,1.0828373E2,2.2306812E3,3.534315E2,2.3011987E3,9.5702594E2,2.710599E2,5.0650786E3,4.5803995E2,7.4182724E1,9.797164E1,1.0312081E1,6.9998865E2,1.5306925E3,5.61272E1,2.973043E2,2.118515E3,1.8268388E2,6.699826E2,2.8704333E2,1.4219405E1,2.568405E2,4.383448E3,6.8163007E2],"tree_param":{"num_deleted":"0","num_feature":"108","num_nodes":"31","size_leaf_vector":"1"}},{"base_weights":[-3.8058955E-5,1.1413664E-1,-4.5475043E-2,6.448077E-1,8.6791866E-2,9.976359E-2,-8.108276E-2,1.803177E-1,9.833259E-1,5.7831783E-2,5.4210865E-1,1.8539283E-1,-1.2566522E-1,1.2451774E-2,-1.6003203E-1,8.657217E-4,6.3819766E-2,5.1826965E-2,-3.585902E-2,-2.2736067E-2,4.2955116E-3,7.5024553E-3,4.2551413E-2,-1.479961E-2,1.2412559E-2,-5.130088E-2,-2.738613E-3,-5.1596193E-3,1.4218559E-2,-3.5711884E-2,-6.6720652E-3],"categories":[],"categories_nodes":[],"categories_segments":[],"categories_sizes":[],"default_left":[0,0,0,0,0,0,0,0,0,0,0,0,0,0,0,0,0,0,0,0,0,0,0,0,0,0,0,0,0,0,0],"id":20,"left_children":[1,3,5,7,9,11,13,15,17,19,21,23,25,27,29,-1,-1,-1,-1,-1,-1,-1,-1,-1,-1,-1,-1,-1,-1,-1,-1],"loss_changes":[6.1297653E1,4.8754055E1,4.371961E1,2.5715881E1,4.2163406E1,3.215638E1,5.0131958E1,1.2599682E1,9.342575E0,4.335408E1,2.3034386E1,3.659005E1,2.9231264E1,9.776896E1,5.415606E1,0E0,0E0,0E0,0E0,0E0,0E0,0E0,0E0,0E0,0E0,0E0,0E0,0E0,0E0,0E0,0E0],"parents":[2147483647,0,0,1,1,2,2,3,3,4,4,5,5,6,6,7,7,8,8,9,9,10,10,11,11,12,12,13,13,14,14],"right_children":[2,4,6,8,10,12,14,16,18,20,22,24,26,28,30,-1,-1,-1,-1,-1,-1,-1,-1,-1,-1,-1,-1,-1,-1,-1,-1],"split_conditions":[-7.71904E-1,7.0407314E3,-3.1759489E0,2.6275166E1,1.3757626E3,7.3250336E1,1.1897158E3,-2.3140484E-2,6.4413666E1,-3.7379627E1,7.4801404E2,-1.0290564E0,1.6466672E2,2.8375E2,1.2454442E3,8.657217E-4,6.3819766E-2,5.1826965E-2,-3.585902E-2,-2.2736067E-2,4.2955116E-3,7.5024553E-3,4.2551413E-2,-1.479961E-2,1.2412559E-2,-5.130088E-2,-2.738613E-3,-5.1596193E-3,1.4218559E-2,-3.5711884E-2,-6.6720652E-3],"split_indices":[40,42,24,74,43,17,58,107,69,23,74,107,35,6,58,0,0,0,0,0,0,0,0,0,0,0,0,0,0,0,0],"split_type":[0,0,0,0,0,0,0,0,0,0,0,0,0,0,0,0,0,0,0,0,0,0,0,0,0,0,0,0,0,0,0],"sum_hessian":[1.1813835E4,3.3626382E3,8.451197E3,1.6367479E2,3.1989634E3,1.6636426E3,6.7875547E3,6.964528E1,9.402951E1,3.008723E3,1.9024055E2,1.2057975E3,4.578451E2,3.107184E3,3.6803704E3,6.151314E1,8.132135E0,9.155496E1,2.4745507E0,1.5547302E2,2.8532498E3,8.449325E1,1.0574731E2,1.3883736E2,1.0669601E3,3.2435543E1,4.2540955E2,2.1804744E3,9.2670984E2,1.6731526E2,3.5130552E3],"tree_param":{"num_deleted":"0","num_feature":"108","num_nodes":"31","size_leaf_vector":"1"}},{"base_weights":[-2.9975605E-5,3.5828073E-2,-1.343805E-1,-1.3178909E-2,1.4227082E-1,-8.769914E-2,-1.22017056E-1,3.5089526E-2,-2.6728967E-1,3.3758476E-1,3.665565E-2,-2.656758E-1,-1.6969582E-2,1.0520332E-3,3.791755E-2,-3.3377152E-2,-3.6465735E-3,2.5745943E-2,-3.1441424E-4,5.3595584E-2,9.5909956E-4,1.4599017E-2,-1.6165555E-2,1.0394196E-3,-3.0126994E-2],"categories":[],"categories_nodes":[],"categories_segments":[],"categories_sizes":[],"default_left":[0,0,0,0,0,0,0,0,0,0,0,0,0,0,0,0,0,0,0,0,0,0,0,0,0],"id":21,"left_children":[1,3,5,7,9,-1,11,13,15,17,19,21,23,-1,-1,-1,-1,-1,-1,-1,-1,-1,-1,-1,-1],"loss_changes":[5.6893406E1,4.8627808E1,4.9604294E1,7.83106E1,6.0610134E1,0E0,3.7272846E1,5.4504745E1,7.923447E1,6.289238E1,3.4504185E1,3.3625916E1,3.158333E1,0E0,0E0,0E0,0E0,0E0,0E0,0E0,0E0,0E0,0E0,0E0,0E0],"parents":[2147483647,0,0,1,1,2,2,3,3,4,4,6,6,7,7,8,8,9,9,10,10,11,11,12,12],"right_children":[2,4,6,8,10,-1,12,14,16,18,20,22,24,-1,-1,-1,-1,-1,-1,-1,-1,-1,-1,-1,-1],"split_conditions":[6.946825E0,3.857224E2,4.1786E2,1.8346678E3,3.618462E1,-8.769914E-2,1.537112E2,2.882008E4,2.992126E4,3.3318507E-3,1.07013E3,1.1980422E3,5.5418373E1,1.0520332E-3,3.791755E-2,-3.3377152E-2,-3.6465735E-3,2.5745943E-2,-3.1441424E-4,5.3595584E-2,9.5909956E-4,1.4599017E-2,-1.6165555E-2,1.0394196E-3,-3.0126994E-2],"split_indices":[86,43,78,58,59,0,15,3,42,41,8,58,29,0,0,0,0,0,0,0,0,0,0,0,0],"split_type":[0,0,0,0,0,0,0,0,0,0,0,0,0,0,0,0,0,0,0,0,0,0,0,0,0],"sum_hessian":[1.1807621E4,9.320674E3,2.4869473E3,6.3828438E3,2.9378296E3,1.7773418E1,2.4691738E3,5.3646826E3,1.0181615E3,1.0303005E3,1.9075292E3,1.0422733E3,1.4269005E3,5.263472E3,1.0121029E2,3.3200644E2,6.861551E2,6.794257E2,3.508748E2,3.0660368E1,1.8768689E3,9.725048E1,9.4502277E2,1.3413724E3,8.552811E1],"tree_param":{"num_deleted":"0","num_feature":"108","num_nodes":"25","size_leaf_vector":"1"}},{"base_weights":[-3.2981407E-5,7.538348E-2,-6.1393656E-2,3.988496E-1,5.083865E-2,1.3633992E-1,-9.041582E-2,-1.2185917E-1,4.915652E-1,-1.4292958E0,5.796709E-2,-1.06114626E-1,3.2816097E-1,-5.4239754E-2,-2.6552808E-1,-4.8105996E-2,8.75202E-3,3.016505E-2,3.105113E-3,2.4210315E-3,-8.6613625E-2,2.5017217E-3,4.5886047E-2,2.9059622E-2,-9.572177E-3,1.8696873E-2,-4.62684E-2,-4.7975783E-3,5.7678022E-3,-1.0181992E-2,-3.9782573E-2],"categories":[],"categories_nodes":[],"categories_segments":[],"categories_sizes":[],"default_left":[0,0,0,0,0,0,0,0,0,0,0,0,0,0,0,0,0,0,0,0,0,0,0,0,0,0,0,0,0,0,0],"id":22,"left_children":[1,3,5,7,9,11,13,15,17,19,21,23,25,27,29,-1,-1,-1,-1,-1,-1,-1,-1,-1,-1,-1,-1,-1,-1,-1,-1],"loss_changes":[5.4633003E1,4.2029552E1,3.7368427E1,1.808677E1,5.2035545E1,3.8801384E1,3.5948727E1,1.4447848E1,1.51819E1,1.0667553E1,3.3381565E1,2.1748362E1,2.7063782E1,3.33039E1,3.1719261E1,0E0,0E0,0E0,0E0,0E0,0E0,0E0,0E0,0E0,0E0,0E0,0E0,0E0,0E0,0E0,0E0],"parents":[2147483647,0,0,1,1,2,2,3,3,4,4,5,5,6,6,7,7,8,8,9,9,10,10,11,11,12,12,13,13,14,14],"right_children":[2,4,6,8,10,12,14,16,18,20,22,24,26,28,30,-1,-1,-1,-1,-1,-1,-1,-1,-1,-1,-1,-1,-1,-1,-1,-1],"split_conditions":[-5.545827E-4,7.293855E3,-3.9164487E-1,1.5668441E1,1.3302365E2,7.885798E-2,1.5963432E0,4.0726425E1,7.696869E0,2.126802E0,2.2344375E3,1.7360527E2,6.7170557E2,4.5381833E2,5.7162645E4,-4.8105996E-2,8.75202E-3,3.016505E-2,3.105113E-3,2.4210315E-3,-8.6613625E-2,2.5017217E-3,4.5886047E-2,2.9059622E-2,-9.572177E-3,1.8696873E-2,-4.62684E-2,-4.7975783E-3,5.7678022E-3,-1.0181992E-2,-3.9782573E-2],"split_indices":[41,42,102,43,27,101,60,83,28,59,43,26,74,76,42,0,0,0,0,0,0,0,0,0,0,0,0,0,0,0,0],"split_type":[0,0,0,0,0,0,0,0,0,0,0,0,0,0,0,0,0,0,0,0,0,0,0,0,0,0,0,0,0,0,0],"sum_hessian":[1.1803891E4,5.2953345E3,6.508556E3,3.7239856E2,4.922936E3,8.325481E2,5.6760083E3,5.6238407E1,3.1616016E2,2.2639368E1,4.9002964E3,3.679368E2,4.6461133E2,4.705267E3,9.7074115E2,1.4098223E1,4.2140186E1,2.5056458E2,6.559558E1,3.9949386E0,1.8644428E1,4.856545E3,4.375149E1,3.9992676E1,3.2794412E2,4.4891937E2,1.5691971E1,3.7768027E3,9.284643E2,8.7050037E2,1.00240814E2],"tree_param":{"num_deleted":"0","num_feature":"108","num_nodes":"31","size_leaf_vector":"1"}},{"base_weights":[-3.904836E-5,1.0431355E-1,-4.1539215E-2,6.0417235E-1,7.895358E-2,-6.453106E-3,-1.7038585E-1,1.6104563E-1,9.32984E-1,5.1720086E-2,5.091735E-1,-8.846541E-2,7.032945E-2,-3.9343017E-1,-4.3094568E-2,3.0775697E-4,6.1339695E-2,3.6475514E-3,5.2546162E-2,-2.1760173E-2,3.9213784E-3,6.941656E-3,4.0165663E-2,-1.7875392E-3,-3.2124896E-2,6.3282535E-3,-9.889266E-3,-2.8200908E-2,4.7129253E-3,4.318721E-3,-1.5412435E-2],"categories":[],"categories_nodes":[],"categories_segments":[],"categories_sizes":[],"default_left":[0,0,0,0,0,0,0,0,0,0,0,0,0,0,0,0,0,0,0,0,0,0,0,0,0,0,0,0,0,0,0],"id":23,"left_children":[1,3,5,7,9,11,13,15,17,19,21,23,25,27,29,-1,-1,-1,-1,-1,-1,-1,-1,-1,-1,-1,-1,-1,-1,-1,-1],"loss_changes":[5.111058E1,4.2520874E1,3.817175E1,2.3453114E1,3.7432144E1,4.1804966E1,5.1292343E1,1.1582458E1,9.334473E0,3.9150124E1,2.0609406E1,9.372763E1,5.172223E1,5.467048E1,3.9563377E1,0E0,0E0,0E0,0E0,0E0,0E0,0E0,0E0,0E0,0E0,0E0,0E0,0E0,0E0,0E0,0E0],"parents":[2147483647,0,0,1,1,2,2,3,3,4,4,5,5,6,6,7,7,8,8,9,9,10,10,11,11,12,12,13,13,14,14],"right_children":[2,4,6,8,10,12,14,16,18,20,22,24,26,28,30,-1,-1,-1,-1,-1,-1,-1,-1,-1,-1,-1,-1,-1,-1,-1,-1],"split_conditions":[-7.71904E-1,7.0407314E3,7.745371E0,2.6275166E1,1.3757626E3,1.0999015E2,1.5678502E2,-2.3140484E-2,-1.3689171E-1,-3.7379627E1,7.4801404E2,1.8267334E3,9.077917E2,3.7840536E0,7.259032E1,3.0775697E-4,6.1339695E-2,3.6475514E-3,5.2546162E-2,-2.1760173E-2,3.9213784E-3,6.941656E-3,4.0165663E-2,-1.7875392E-3,-3.2124896E-2,6.3282535E-3,-9.889266E-3,-2.8200908E-2,4.7129253E-3,4.318721E-3,-1.5412435E-2],"split_indices":[40,42,88,74,43,39,16,107,101,23,74,27,43,20,59,0,0,0,0,0,0,0,0,0,0,0,0,0,0,0,0],"split_type":[0,0,0,0,0,0,0,0,0,0,0,0,0,0,0,0,0,0,0,0,0,0,0,0,0,0,0,0,0,0,0],"sum_hessian":[1.1800056E4,3.3570942E3,8.442962E3,1.6099391E2,3.1961003E3,6.6367617E3,1.8062003E3,6.921088E1,9.1783035E1,3.0068809E3,1.8921931E2,3.2090198E3,3.4277417E3,6.5550696E2,1.1506934E3,6.1306652E1,7.9042253E0,1.126383E1,8.05192E1,1.555547E2,2.8513262E3,8.44117E1,1.04807625E2,2.93119E3,2.778299E2,2.833879E3,5.9386273E2,4.8552078E2,1.6998618E2,7.736239E2,3.7706946E2],"tree_param":{"num_deleted":"0","num_feature":"108","num_nodes":"31","size_leaf_vector":"1"}},{"base_weights":[-2.9574025E-5,1.0044094E-1,-3.9991386E-2,6.716843E-2,5.2852595E-1,-2.7017951E-2,-3.912482E-1,-1.2459188E0,7.692493E-2,1.0305347E0,3.3423156E-1,-2.1333756E-2,-9.0535444E-1,3.502584E-1,-5.940166E-1,-7.772216E-2,3.1813443E-2,-1.4967251E-3,8.623274E-3,5.5138834E-2,-3.0084928E-2,-8.1641965E-2,2.3506148E-2,-2.847256E-3,6.6516176E-3,3.702505E-2,-6.0131222E-2,6.503169E-2,-1.1969002E-2,-2.3000084E-2,-7.453534E-2],"categories":[],"categories_nodes":[],"categories_segments":[],"categories_sizes":[],"default_left":[0,0,0,0,0,0,0,0,0,0,0,0,0,0,0,0,0,0,0,0,0,0,0,0,0,0,0,0,0,0,0],"id":24,"left_children":[1,3,5,7,9,11,13,15,17,19,21,23,25,27,29,-1,-1,-1,-1,-1,-1,-1,-1,-1,-1,-1,-1,-1,-1,-1,-1],"loss_changes":[4.7360806E1,4.7775623E1,3.8447414E1,4.001239E1,2.3253387E1,4.061966E1,4.539303E1,1.4367344E1,3.1590342E1,8.567299E0,4.778892E1,4.4471413E1,2.6485947E1,3.682661E1,2.7717834E1,0E0,0E0,0E0,0E0,0E0,0E0,0E0,0E0,0E0,0E0,0E0,0E0,0E0,0E0,0E0,0E0],"parents":[2147483647,0,0,1,1,2,2,3,3,4,4,5,5,6,6,7,7,8,8,9,9,10,10,11,11,12,12,13,13,14,14],"right_children":[2,4,6,8,10,12,14,16,18,20,22,24,26,28,30,-1,-1,-1,-1,-1,-1,-1,-1,-1,-1,-1,-1,-1,-1,-1,-1],"split_conditions":[4.428798E1,6.938894E2,3.95029E3,-6.4227165E1,1.8518904E3,6.9961805E4,-8.076834E-3,5.6783723E4,-2.6735547E-1,-9.260261E-2,2.0050676E3,4.446025E2,1.4062856E2,-3.7403375E-1,5.1974857E1,-7.772216E-2,3.1813443E-2,-1.4967251E-3,8.623274E-3,5.5138834E-2,-3.0084928E-2,-8.1641965E-2,2.3506148E-2,-2.847256E-3,6.6516176E-3,3.702505E-2,-6.0131222E-2,6.503169E-2,-1.1969002E-2,-2.3000084E-2,-7.453534E-2],"split_indices":[83,76,79,24,58,38,101,42,107,60,26,76,35,107,23,0,0,0,0,0,0,0,0,0,0,0,0,0,0,0,0],"split_type":[0,0,0,0,0,0,0,0,0,0,0,0,0,0,0,0,0,0,0,0,0,0,0,0,0,0,0,0,0,0,0],"sum_hessian":[1.1794014E4,3.3557063E3,8.438308E3,3.1147705E3,2.4093579E2,8.1387837E3,2.995236E2,2.2038198E1,3.0927324E3,6.6029045E1,1.7490674E2,8.0874697E3,5.131414E1,6.416186E1,2.3536172E2,1.90841E1,2.9540982E0,1.4602123E3,1.63252E3,6.3541122E1,2.487925E0,1.0590479E1,1.6431625E2,6.5719824E3,1.5154872E3,7.622217E0,4.369192E1,2.4104525E1,4.0057335E1,2.0607567E2,2.928607E1],"tree_param":{"num_deleted":"0","num_feature":"108","num_nodes":"31","size_leaf_vector":"1"}},{"base_weights":[-4.048991E-5,3.2047722E-2,-1.20392665E-1,-1.220871E-2,1.282113E-1,-8.407413E-2,-1.0857636E-1,2.4479806E-2,-3.0845818E-1,3.155759E-1,2.6947692E-2,-2.4115376E-1,-1.1851542E-2,1.3335998E-2,-2.6698606E-4,-7.893529E-2,-7.93436E-3,2.1213003E-2,-1.067819E-2,2.8473143E-3,-2.7493691E-2,1.47436485E-2,-1.4827988E-2,3.3430195E-5,-8.098312E-2],"categories":[],"categories_nodes":[],"categories_segments":[],"categories_sizes":[],"default_left":[0,0,0,0,0,0,0,0,0,0,0,0,0,0,0,0,0,0,0,0,0,0,0,0,0],"id":25,"left_children":[1,3,5,7,9,-1,11,13,15,17,19,21,23,-1,-1,-1,-1,-1,-1,-1,-1,-1,-1,-1,-1],"loss_changes":[4.553974E1,3.9623173E1,4.560488E1,6.9314476E1,5.5664696E1,0E0,3.1602262E1,4.099359E1,1.3344508E2,5.9289993E1,3.3010933E1,3.0962048E1,2.8707304E1,0E0,0E0,0E0,0E0,0E0,0E0,0E0,0E0,0E0,0E0,0E0,0E0],"parents":[2147483647,0,0,1,1,2,2,3,3,4,4,6,6,7,7,8,8,9,9,10,10,11,11,12,12],"right_children":[2,4,6,8,10,-1,12,14,16,18,20,22,24,-1,-1,-1,-1,-1,-1,-1,-1,-1,-1,-1,-1],"split_conditions":[6.946825E0,3.857224E2,4.1856E2,1.889388E3,3.618462E1,-8.407413E-2,1.537112E2,-1.051059E0,2.9117307E4,8.620909E-3,4.16255E3,1.1980422E3,2.4853376E1,1.3335998E-2,-2.6698606E-4,-7.893529E-2,-7.93436E-3,2.1213003E-2,-1.067819E-2,2.8473143E-3,-2.7493691E-2,1.47436485E-2,-1.4827988E-2,3.3430195E-5,-8.098312E-2],"split_indices":[86,43,5,58,59,0,15,107,19,37,8,58,28,0,0,0,0,0,0,0,0,0,0,0,0],"split_type":[0,0,0,0,0,0,0,0,0,0,0,0,0,0,0,0,0,0,0,0,0,0,0,0,0],"sum_hessian":[1.17901E4,9.3089E3,2.4811987E3,6.3755957E3,2.9333052E3,1.7578259E1,2.4636204E3,5.673845E3,7.017504E2,1.0283915E3,1.9049138E3,1.0385804E3,1.42504E3,6.210199E2,5.052825E3,7.300814E1,6.287423E2,8.5331964E2,1.7507181E2,1.8115997E3,9.331407E1,9.689032E1,9.416901E2,1.4150208E3,1.0019291E1],"tree_param":{"num_deleted":"0","num_feature":"108","num_nodes":"25","size_leaf_vector":"1"}},{"base_weights":[-6.218674E-5,6.566276E-3,-5.716079E-1,1.14594236E-1,-2.9368412E-2,9.167108E-1,-7.420585E-1,1.254873E-1,-1.0176973E0,-1.7023098E-2,-4.9999246E-1,8.4013894E-2,-4.6991718E-1,-1.123366E0,-9.701724E-2,2.0625496E-2,4.209564E-3,6.3245036E-2,-6.728845E-2,9.0138875E-3,-1.9289063E-3,-5.9926856E-2,-1.5071307E-2,-5.6556165E-2,4.4455808E-2,6.116007E-2,-5.932641E-2,-6.982565E-2,1.5686685E-2],"categories":[],"categories_nodes":[],"categories_segments":[],"categories_sizes":[],"default_left":[0,0,0,0,0,0,0,0,0,0,0,0,0,0,0,0,0,0,0,0,0,0,0,0,0,0,0,0,0],"id":26,"left_children":[1,3,5,7,9,11,13,15,17,19,21,-1,23,25,27,-1,-1,-1,-1,-1,-1,-1,-1,-1,-1,-1,-1,-1,-1],"loss_changes":[4.466106E1,4.5241844E1,3.4966026E1,3.6008415E1,5.0802757E1,1.5967367E1,2.9852745E1,3.412802E1,2.2542412E1,3.6253666E1,3.0641296E1,0E0,6.282349E0,1.27845E1,2.5179075E1,0E0,0E0,0E0,0E0,0E0,0E0,0E0,0E0,0E0,0E0,0E0,0E0,0E0,0E0],"parents":[2147483647,0,0,1,1,2,2,3,3,4,4,5,5,6,6,7,7,8,8,9,9,10,10,12,12,13,13,14,14],"right_children":[2,4,6,8,10,12,14,16,18,20,22,-1,24,26,28,-1,-1,-1,-1,-1,-1,-1,-1,-1,-1,-1,-1,-1,-1],"split_conditions":[6.939102E4,-3.3524678E0,3.5600947E3,5.6135855E0,4.03095E3,-8.0658925E-1,3.7300884E3,1.915E4,5.26856E3,7.16876E3,4.0547024E3,8.4013894E-2,1.5248077E4,7.826213E1,5.6120776E2,2.0625496E-2,4.209564E-3,6.3245036E-2,-6.728845E-2,9.0138875E-3,-1.9289063E-3,-5.9926856E-2,-1.5071307E-2,-5.6556165E-2,4.4455808E-2,6.116007E-2,-5.932641E-2,-6.982565E-2,1.5686685E-2],"split_indices":[0,23,26,107,6,107,27,3,2,1,58,0,81,39,43,0,0,0,0,0,0,0,0,0,0,0,0,0,0],"split_type":[0,0,0,0,0,0,0,0,0,0,0,0,0,0,0,0,0,0,0,0,0,0,0,0,0,0,0,0,0],"sum_hessian":[1.1786692E4,1.1652541E4,1.3415105E2,2.9080583E3,8.744482E3,1.3335112E1,1.2081594E2,2.881229E3,2.6829329E1,8.521973E3,2.2251048E2,8.463041E0,4.872071E0,7.546455E1,4.5351395E1,3.6127124E2,2.5199578E3,3.0126798E0,2.3816648E1,8.386004E2,7.683372E3,4.8135754E1,1.7437473E2,3.390299E0,1.4817713E0,1.4966269E0,7.396792E1,1.0315685E1,3.503571E1],"tree_param":{"num_deleted":"0","num_feature":"108","num_nodes":"29","size_leaf_vector":"1"}},{"base_weights":[-6.407109E-5,1.1924886E-1,-3.037138E-2,-1.7155322E-1,1.6976158E-1,1.10441335E-1,-5.7951327E-2,-2.962096E-1,4.4502288E-1,1.3499081E-1,6.705076E-1,3.5670754E-1,3.1631622E-3,2.8153013E-2,-1.2747265E-1,1.4600827E-2,-2.172775E-2,2.9808184E-2,-3.723832E-2,7.4161813E-3,-4.302472E-2,3.9445795E-2,-1.8896583E-2,3.8523176E-3,3.444724E-2,-2.5984356E-2,2.4014476E-3,-4.0451307E-3,1.4326076E-2,-4.255321E-2,-5.420764E-3],"categories":[],"categories_nodes":[],"categories_segments":[],"categories_sizes":[],"default_left":[0,0,0,0,0,0,0,0,0,0,0,0,0,0,0,0,0,0,0,0,0,0,0,0,0,0,0,0,0,0,0],"id":27,"left_children":[1,3,5,7,9,11,13,15,17,19,21,23,25,27,29,-1,-1,-1,-1,-1,-1,-1,-1,-1,-1,-1,-1,-1,-1,-1,-1],"loss_changes":[4.2614616E1,3.509454E1,3.650331E1,2.7323656E1,3.533061E1,4.06717E1,4.7049187E1,2.412428E1,1.1215016E1,2.5392506E1,1.6665089E1,4.335073E1,2.5204638E1,9.896993E1,5.9872253E1,0E0,0E0,0E0,0E0,0E0,0E0,0E0,0E0,0E0,0E0,0E0,0E0,0E0,0E0,0E0,0E0],"parents":[2147483647,0,0,1,1,2,2,3,3,4,4,5,5,6,6,7,7,8,8,9,9,10,10,11,11,12,12,13,13,14,14],"right_children":[2,4,6,8,10,12,14,16,18,20,22,24,26,28,30,-1,-1,-1,-1,-1,-1,-1,-1,-1,-1,-1,-1,-1,-1,-1,-1],"split_conditions":[-1.0944483E0,2.8268782E1,-5.999833E0,-1.970534E0,1.6548301E0,3.618462E1,1.1897158E3,-3.4751715E2,8.161492E-1,4.7809877E-2,4.8022256E0,2.2635898E2,1.351966E3,2.8375E2,1.2191675E3,1.4600827E-2,-2.172775E-2,2.9808184E-2,-3.723832E-2,7.4161813E-3,-4.302472E-2,3.9445795E-2,-1.8896583E-2,3.8523176E-3,3.444724E-2,-2.5984356E-2,2.4014476E-3,-4.0451307E-3,1.4326076E-2,-4.255321E-2,-5.420764E-3],"split_indices":[40,68,24,44,107,59,58,73,105,61,107,21,50,6,54,0,0,0,0,0,0,0,0,0,0,0,0,0,0,0,0],"split_type":[0,0,0,0,0,0,0,0,0,0,0,0,0,0,0,0,0,0,0,0,0,0,0,0,0,0,0,0,0,0,0],"sum_hessian":[1.1782839E4,2.3861558E3,9.396684E3,3.5278336E2,2.0333723E3,1.5385302E3,7.8581533E3,2.938864E2,5.8896942E1,1.9025338E3,1.3083847E2,4.6614026E2,1.0723899E3,3.5106716E3,4.3474814E3,5.574697E1,2.3813943E2,5.270116E1,6.19578E0,1.8782292E3,2.4304646E1,1.17783775E2,1.3054693E1,2.5376508E2,2.123752E2,8.391306E1,9.884768E2,2.4691477E3,1.0415239E3,1.10441986E2,4.2370396E3],"tree_param":{"num_deleted":"0","num_feature":"108","num_nodes":"31","size_leaf_vector":"1"}},{"base_weights":[-6.3212734E-5,5.1186034E-3,-6.776258E-1,9.82526E-2,-3.1785972E-2,-1.1459274E0,-1.16794445E-1,5.6872797E-1,7.445289E-2,8.97737E-2,-6.153814E-2,-1.4710523E0,-7.3532367E-1,-5.067266E-1,1.6721569E0,7.162615E-3,4.4512816E-2,-9.180174E-3,5.7423366E-3,3.424533E-2,2.884261E-3,6.7992234E-3,-4.4324915E-3,-1.7919326E-2,-7.61716E-2,-4.6785884E-3,-6.0541756E-2,6.6146456E-2,-4.156133E-2,8.936235E-2,2.690271E-2],"categories":[],"categories_nodes":[],"categories_segments":[],"categories_sizes":[],"default_left":[0,0,0,0,0,0,0,0,0,0,0,0,0,0,0,0,0,0,0,0,0,0,0,0,0,0,0,0,0,0,0],"id":28,"left_children":[1,3,5,7,9,11,13,15,17,19,21,23,25,27,29,-1,-1,-1,-1,-1,-1,-1,-1,-1,-1,-1,-1,-1,-1,-1,-1],"loss_changes":[4.13598E1,4.0184715E1,2.3347813E1,3.711009E1,3.0290138E1,5.4075127E0,3.0004072E1,2.17081E1,3.2954353E1,3.1411165E1,3.6040222E1,9.768486E-1,7.051956E0,2.1930414E1,4.5049667E-2,0E0,0E0,0E0,0E0,0E0,0E0,0E0,0E0,0E0,0E0,0E0,0E0,0E0,0E0,0E0,0E0],"parents":[2147483647,0,0,1,1,2,2,3,3,4,4,5,5,6,6,7,7,8,8,9,9,10,10,11,11,12,12,13,13,14,14],"right_children":[2,4,6,8,10,12,14,16,18,20,22,24,26,28,30,-1,-1,-1,-1,-1,-1,-1,-1,-1,-1,-1,-1,-1,-1,-1,-1],"split_conditions":[7.119013E4,-7.71904E-1,3.777408E3,7.0407314E3,-3.1759489E0,3.3956112E1,7.659118E1,2.6275166E1,2.2067624E2,1.3240901E2,-3.9164487E-1,-9.92422E-3,-7.689424E-2,1.5446156E2,-1.2260017E2,7.162615E-3,4.4512816E-2,-9.180174E-3,5.7423366E-3,3.424533E-2,2.884261E-3,6.7992234E-3,-4.4324915E-3,-1.7919326E-2,-7.61716E-2,-4.6785884E-3,-6.0541756E-2,6.6146456E-2,-4.156133E-2,8.936235E-2,2.690271E-2],"split_indices":[18,40,54,42,24,91,59,74,26,43,102,92,32,35,17,0,0,0,0,0,0,0,0,0,0,0,0,0,0,0,0],"split_type":[0,0,0,0,0,0,0,0,0,0,0,0,0,0,0,0,0,0,0,0,0,0,0,0,0,0,0,0,0,0,0],"sum_hessian":[1.1778058E4,1.1689651E4,8.840685E1,3.3170178E3,8.372633E3,4.760924E1,4.079761E1,1.5861433E2,3.1584036E3,1.6458988E3,6.7267344E3,2.5128944E1,2.2480295E1,3.4084965E1,6.712647E0,6.8893585E1,8.972076E1,4.269952E2,2.7314082E3,8.316293E1,1.5627358E3,8.1138214E2,5.915352E3,1.4823576E0,2.3646587E1,1.0077053E1,1.2403243E1,4.671037E0,2.9413927E1,5.571347E0,1.1413E0],"tree_param":{"num_deleted":"0","num_feature":"108","num_nodes":"31","size_leaf_vector":"1"}},{"base_weights":[-5.3291937E-5,9.4818855E-3,-3.4459028E-1,-1.5606217E-2,1.533481E-1,5.659794E-1,-5.0855166E-1,4.642217E-3,-2.599391E-1,2.5199014E-1,-2.7359328E-1,-7.96549E-2,8.3417106E-1,-7.553732E-1,-3.9896984E-2,-5.9108756E-4,1.964203E-2,-3.160853E-2,-3.2387492E-3,9.546513E-3,4.7123946E-2,-3.7609246E-2,-2.789588E-3,5.398477E-2,-2.5572404E-2,-5.988527E-2,-2.0530641E-2,2.707307E-2,-3.223348E-2],"categories":[],"categories_nodes":[],"categories_segments":[],"categories_sizes":[],"default_left":[0,0,0,0,0,0,0,0,0,0,0,0,0,0,0,0,0,0,0,0,0,0,0,0,0,0,0,0,0],"id":29,"left_children":[1,3,5,7,9,11,13,15,17,19,21,-1,23,25,27,-1,-1,-1,-1,-1,-1,-1,-1,-1,-1,-1,-1,-1,-1],"loss_changes":[3.8687363E1,4.1361908E1,4.763524E1,4.8279514E1,7.1732956E1,2.9623577E1,3.1117287E1,5.7606575E1,5.421335E1,5.8120735E1,3.329828E1,0E0,1.5129154E1,2.6397057E1,3.3379795E1,0E0,0E0,0E0,0E0,0E0,0E0,0E0,0E0,0E0,0E0,0E0,0E0,0E0,0E0],"parents":[2147483647,0,0,1,1,2,2,3,3,4,4,5,5,6,6,7,7,8,8,9,9,10,10,12,12,13,13,14,14],"right_children":[2,4,6,8,10,12,14,16,18,20,22,-1,24,26,28,-1,-1,-1,-1,-1,-1,-1,-1,-1,-1,-1,-1,-1,-1],"split_conditions":[4.02687E3,5.0842654E2,5.335252E2,3.1845747E3,2.6025911E1,2.711301E1,4.4423303E-1,4.436997E4,3.5226306E2,3.7061497E3,9.340396E2,-7.96549E-2,5.8818634E2,-4.5033207E1,1.2681836E-3,-5.9108756E-4,1.964203E-2,-3.160853E-2,-3.2387492E-3,9.546513E-3,4.7123946E-2,-3.7609246E-2,-2.789588E-3,5.398477E-2,-2.5572404E-2,-5.988527E-2,-2.0530641E-2,2.707307E-2,-3.223348E-2],"split_indices":[7,76,43,58,23,91,107,38,75,27,43,0,76,17,37,0,0,0,0,0,0,0,0,0,0,0,0,0,0],"split_type":[0,0,0,0,0,0,0,0,0,0,0,0,0,0,0,0,0,0,0,0,0,0,0,0,0,0,0,0,0],"sum_hessian":[1.1774187E4,1.1458054E4,3.1613303E2,9.757401E3,1.7006523E3,4.786422E1,2.6826883E2,9.011572E3,7.45829E2,1.381805E3,3.1884735E2,4.7427287E0,4.312149E1,1.7532199E2,9.294682E1,8.64586E3,3.6571194E2,2.5576874E2,4.900602E2,1.2707125E3,1.1109256E2,9.895422E1,2.1989311E2,3.663468E1,6.4868107E0,7.571045E1,9.961154E1,4.744417E1,4.550265E1],"tree_param":{"num_deleted":"0","num_feature":"108","num_nodes":"29","size_leaf_vector":"1"}},{"base_weights":[-6.585369E-5,4.909773E-3,-6.555534E-1,1.1718767E-1,-2.3502475E-2,-1.1048508E0,-1.20536804E-1,1.7796627E-1,-1.10216394E-1,1.0538272E-1,-4.870866E-2,-1.4197094E0,-7.0970416E-1,-4.9235943E-1,1.5721673E0,7.504622E-3,3.4208387E-2,-9.287985E-3,2.7635584E-2,1.7375404E-2,-8.730612E-6,1.4787999E-3,-5.636492E-3,-1.7001426E-2,-7.360192E-2,-4.6117087E-3,-5.859181E-2,-6.1283667E-2,1.704635E-2,2.4726333E-2,8.44352E-2],"categories":[],"categories_nodes":[],"categories_segments":[],"categories_sizes":[],"default_left":[0,0,0,0,0,0,0,0,0,0,0,0,0,0,0,0,0,0,0,0,0,0,0,0,0,0,0,0,0,0,0],"id":30,"left_children":[1,3,5,7,9,11,13,15,17,19,21,23,25,27,29,-1,-1,-1,-1,-1,-1,-1,-1,-1,-1,-1,-1,-1,-1,-1,-1],"loss_changes":[3.8399723E1,3.7278984E1,2.1188244E1,3.2637344E1,3.030297E1,4.9754105E0,2.6962442E1,2.6178455E1,2.5059448E1,3.8998657E1,3.910224E1,9.5508194E-1,6.5477724E0,2.1729853E1,1.3595581E-1,0E0,0E0,0E0,0E0,0E0,0E0,0E0,0E0,0E0,0E0,0E0,0E0,0E0,0E0,0E0,0E0],"parents":[2147483647,0,0,1,1,2,2,3,3,4,4,5,5,6,6,7,7,8,8,9,9,10,10,11,11,12,12,13,13,14,14],"right_children":[2,4,6,8,10,12,14,16,18,20,22,24,26,28,30,-1,-1,-1,-1,-1,-1,-1,-1,-1,-1,-1,-1,-1,-1,-1,-1],"split_conditions":[7.119013E4,-1.0944483E0,3.777408E3,4.0132353E-1,-5.999833E0,3.3956112E1,7.659118E1,1.7822487E0,-1.7918022E0,3.618462E1,1.1897158E3,-5.467882E2,-7.689424E-2,1.9523367E-1,1.3896707E3,7.504622E-3,3.4208387E-2,-9.287985E-3,2.7635584E-2,1.7375404E-2,-8.730612E-6,1.4787999E-3,-5.636492E-3,-1.7001426E-2,-7.360192E-2,-4.6117087E-3,-5.859181E-2,-6.1283667E-2,1.704635E-2,2.4726333E-2,8.44352E-2],"split_indices":[18,40,54,102,24,91,59,107,44,59,58,15,32,60,66,0,0,0,0,0,0,0,0,0,0,0,0,0,0,0,0],"split_type":[0,0,0,0,0,0,0,0,0,0,0,0,0,0,0,0,0,0,0,0,0,0,0,0,0,0,0,0,0,0,0],"sum_hessian":[1.177179E4,1.1684092E4,8.769823E1,2.358961E3,9.325132E3,4.7088814E1,4.0609417E1,1.8616205E3,4.9734045E2,1.5248795E3,7.800252E3,2.4763788E1,2.2325026E1,3.387705E1,6.7323685E0,1.7656898E3,9.593066E1,4.4711026E2,5.023021E1,4.6226132E2,1.0626182E3,3.5094536E3,4.290798E3,1.4913461E0,2.3272442E1,1.0069891E1,1.2255136E1,1.7768984E1,1.6108063E1,1.1686972E0,5.5636716E0],"tree_param":{"num_deleted":"0","num_feature":"108","num_nodes":"31","size_leaf_vector":"1"}},{"base_weights":[-6.462175E-5,5.7843663E-3,-5.1241E-1,1.500484E-2,-3.297098E-1,9.105823E-1,-6.7726463E-1,-1.5027287E-2,1.6563898E-1,6.4950407E-1,-4.7063035E-1,8.117233E-2,-4.1291544E-1,-1.0361234E0,-8.093401E-2,2.3169208E-3,-4.5170872E-3,2.053967E-2,2.5057483E-3,-7.573726E-2,4.841124E-2,-6.755706E-2,-1.7539835E-2,-5.2895308E-2,4.365211E-2,6.003468E-2,-5.4917485E-2,-5.3005368E-2,2.0026343E-2],"categories":[],"categories_nodes":[],"categories_segments":[],"categories_sizes":[],"default_left":[0,0,0,0,0,0,0,0,0,0,0,0,0,0,0,0,0,0,0,0,0,0,0,0,0,0,0,0,0],"id":31,"left_children":[1,3,5,7,9,11,13,15,17,19,21,-1,23,25,27,-1,-1,-1,-1,-1,-1,-1,-1,-1,-1,-1,-1,-1,-1],"loss_changes":[3.526924E1,3.6001534E1,3.1780071E1,5.1240772E1,4.3262203E1,1.4085339E1,2.5515678E1,4.365352E1,5.3303722E1,2.8771055E1,2.8301506E1,0E0,5.7133436E0,1.1701965E1,2.2123302E1,0E0,0E0,0E0,0E0,0E0,0E0,0E0,0E0,0E0,0E0,0E0,0E0,0E0,0E0],"parents":[2147483647,0,0,1,1,2,2,3,3,4,4,5,5,6,6,7,7,8,8,9,9,10,10,12,12,13,13,14,14],"right_children":[2,4,6,8,10,12,14,16,18,20,22,-1,24,26,28,-1,-1,-1,-1,-1,-1,-1,-1,-1,-1,-1,-1,-1,-1],"split_conditions":[6.939102E4,4.02687E3,3.5600947E3,4.7810773E2,5.134548E2,-8.0658925E-1,3.7300884E3,1.557585E3,-2.8337023E-1,2.711301E1,4.0547024E3,8.117233E-2,1.5248077E4,7.826213E1,-4.7192028E-1,2.3169208E-3,-4.5170872E-3,2.053967E-2,2.5057483E-3,-7.573726E-2,4.841124E-2,-6.755706E-2,-1.7539835E-2,-5.2895308E-2,4.365211E-2,6.003468E-2,-5.4917485E-2,-5.3005368E-2,2.0026343E-2],"split_indices":[0,7,26,76,43,107,27,54,107,91,58,0,81,39,60,0,0,0,0,0,0,0,0,0,0,0,0,0,0],"split_type":[0,0,0,0,0,0,0,0,0,0,0,0,0,0,0,0,0,0,0,0,0,0,0,0,0,0,0,0,0],"sum_hessian":[1.1767363E4,1.163552E4,1.3184358E2,1.1325221E4,3.102987E2,1.3218718E1,1.1862487E2,9.443382E3,1.8818391E3,3.858365E1,2.7171506E2,8.443977E0,4.7747407E0,7.359782E1,4.502705E1,5.20377E3,4.2396113E3,6.0192773E2,1.2799114E3,4.4710093E0,3.411264E1,3.131851E1,2.4039655E2,3.2979472E0,1.4767935E0,1.4968207E0,7.2101E1,1.444586E1,3.0581192E1],"tree_param":{"num_deleted":"0","num_feature":"108","num_nodes":"29","size_leaf_vector":"1"}},{"base_weights":[-6.960527E-5,6.3573465E-2,-4.561718E-2,-1.824033E-1,8.497184E-2,1.3884696E-1,-6.9287494E-2,1.1405219E0,-2.1361902E-1,5.6372564E-2,3.6923856E-1,-1.0675145E-1,3.2112816E-1,-5.3823635E-2,-4.52126E-1,7.324058E-2,-1.533513E-2,-5.3708512E-2,-6.453441E-3,1.0534881E-2,3.8634156E-4,-7.044584E-2,2.0980665E-2,1.2246861E-2,-1.274543E-2,1.8340493E-2,-4.4293057E-2,-4.3556383E-3,5.484625E-3,-3.1615976E-2,4.153049E-4],"categories":[],"categories_nodes":[],"categories_segments":[],"categories_sizes":[],"default_left":[0,0,0,0,0,0,0,0,0,0,0,0,0,0,0,0,0,0,0,0,0,0,0,0,0,0,0,0,0,0,0],"id":32,"left_children":[1,3,5,7,9,11,13,15,17,19,21,23,25,27,29,-1,-1,-1,-1,-1,-1,-1,-1,-1,-1,-1,-1,-1,-1,-1,-1],"loss_changes":[3.4107655E1,2.5849407E1,2.9954117E1,1.647799E1,3.6693462E1,3.49655E1,3.596305E1,4.77639E0,2.7866663E1,3.0810925E1,3.755221E1,1.742153E1,2.5032951E1,3.181979E1,1.9574669E1,0E0,0E0,0E0,0E0,0E0,0E0,0E0,0E0,0E0,0E0,0E0,0E0,0E0,0E0,0E0,0E0],"parents":[2147483647,0,0,1,1,2,2,3,3,4,4,5,5,6,6,7,7,8,8,9,9,10,10,11,11,12,12,13,13,14,14],"right_children":[2,4,6,8,10,12,14,16,18,20,22,24,26,28,30,-1,-1,-1,-1,-1,-1,-1,-1,-1,-1,-1,-1,-1,-1,-1,-1],"split_conditions":[-7.5945136E-4,2.8268782E1,-4.001453E-1,3.537904E1,1.4357908E0,7.885798E-2,2.9540218E1,-1.7921406E1,3.117838E0,-2.3492713E0,9.759795E1,3.9859788E0,6.7170557E2,4.6285248E2,6.205348E-1,7.324058E-2,-1.533513E-2,-5.3708512E-2,-6.453441E-3,1.0534881E-2,3.8634156E-4,-7.044584E-2,2.0980665E-2,1.2246861E-2,-1.274543E-2,1.8340493E-2,-4.4293057E-2,-4.3556383E-3,5.484625E-3,-3.1615976E-2,4.153049E-4],"split_indices":[37,68,102,76,107,101,24,15,59,88,43,28,74,75,107,0,0,0,0,0,0,0,0,0,0,0,0,0,0,0,0],"split_type":[0,0,0,0,0,0,0,0,0,0,0,0,0,0,0,0,0,0,0,0,0,0,0,0,0,0,0,0,0,0,0],"sum_hessian":[1.1764178E4,4.9071216E3,6.8570566E3,3.9212097E2,4.5150005E3,7.792726E2,6.077784E3,8.219996E0,3.8390097E2,4.10337E3,4.1163022E2,3.3215482E2,4.471178E2,5.842914E3,2.3487015E2,6.705333E0,1.514663E0,3.3297256E1,3.506037E2,9.826509E2,3.1207195E3,1.0597166E1,4.0103305E2,9.825895E1,2.3389586E2,4.3148328E2,1.5634523E1,4.854988E3,9.8792633E2,1.6853816E2,6.6331985E1],"tree_param":{"num_deleted":"0","num_feature":"108","num_nodes":"31","size_leaf_vector":"1"}},{"base_weights":[-7.4041825E-5,4.489362E-3,-6.101124E-1,1.024319E-2,-4.8644146E-1,-1.0381597E0,-1.1027785E-1,-1.4175898E-2,1.4480297E-1,1.187483E0,-9.7759694E-1,-1.3499721E0,-6.509201E-1,-4.7742322E-1,1.4427556E0,-1.4161925E-4,-1.9606944E-2,1.2277562E-2,-1.2609136E-2,1.0348803E-1,5.9091364E-4,-8.965943E-3,-6.2168505E-2,-7.2064474E-2,-2.775732E-2,-2.7075808E-3,-5.538569E-2,-6.0029592E-2,1.6299209E-2,8.2442395E-2,4.5426474E-3],"categories":[],"categories_nodes":[],"categories_segments":[],"categories_sizes":[],"default_left":[0,0,0,0,0,0,0,0,0,0,0,0,0,0,0,0,0,0,0,0,0,0,0,0,0,0,0,0,0,0,0],"id":33,"left_children":[1,3,5,7,9,11,13,15,17,19,21,23,25,27,29,-1,-1,-1,-1,-1,-1,-1,-1,-1,-1,-1,-1,-1,-1,-1,-1],"loss_changes":[3.2748196E1,3.2987396E1,1.8573154E1,3.7927124E1,1.1238591E2,4.788166E0,2.4301697E1,4.1887394E1,7.097169E1,3.2277184E1,2.2084305E1,1.0192642E0,6.1730976E0,2.0288004E1,2.125616E0,0E0,0E0,0E0,0E0,0E0,0E0,0E0,0E0,0E0,0E0,0E0,0E0,0E0,0E0,0E0,0E0],"parents":[2147483647,0,0,1,1,2,2,3,3,4,4,5,5,6,6,7,7,8,8,9,9,10,10,11,11,12,12,13,13,14,14],"right_children":[2,4,6,8,10,12,14,16,18,20,22,24,26,28,30,-1,-1,-1,-1,-1,-1,-1,-1,-1,-1,-1,-1,-1,-1,-1,-1],"split_conditions":[7.119013E4,4.3352046E3,3.777408E3,5.0842654E2,3.8715103E1,3.3956112E1,7.522212E1,1.0308595E3,2.1848358E-2,6.3748754E4,-1.3448065E1,3.5948113E-3,-7.689424E-2,1.9523367E-1,-6.4702106E-1,-1.4161925E-4,-1.9606944E-2,1.2277562E-2,-1.2609136E-2,1.0348803E-1,5.9091364E-4,-8.965943E-3,-6.2168505E-2,-7.2064474E-2,-2.775732E-2,-2.7075808E-3,-5.538569E-2,-6.0029592E-2,1.6299209E-2,8.2442395E-2,4.5426474E-3],"split_indices":[18,54,54,76,29,91,59,43,57,42,24,93,32,60,56,0,0,0,0,0,0,0,0,0,0,0,0,0,0,0,0],"split_type":[0,0,0,0,0,0,0,0,0,0,0,0,0,0,0,0,0,0,0,0,0,0,0,0,0,0,0,0,0,0,0],"sum_hessian":[1.17616455E4,1.1675301E4,8.6344666E1,1.1541016E4,1.342844E2,4.593227E1,4.041239E1,9.769078E3,1.7719381E3,3.0141237E1,1.0414315E2,2.4066969E1,2.1865301E1,3.3245552E1,7.166839E0,9.485407E3,2.8367078E2,1.4135774E3,3.583607E2,1.6784674E1,1.3356563E1,2.6430632E1,7.771252E1,2.0857338E1,3.2096326E0,9.965123E0,1.1900179E1,1.7236311E1,1.6009241E1,6.0282116E0,1.138628E0],"tree_param":{"num_deleted":"0","num_feature":"108","num_nodes":"31","size_leaf_vector":"1"}},{"base_weights":[-8.406519E-5,5.644842E-2,-4.748664E-2,1.6283892E-1,-5.4861805E-3,-3.7231084E-2,-5.777857E-1,2.6413012E-2,3.819457E-1,-4.1187188E-1,4.7644336E-2,-1.6411893E-1,3.885058E-3,3.2731098E-1,-8.583404E-1,2.0128494E-2,-3.2578781E-3,2.713346E-2,2.403544E-3,-5.8023702E-2,-9.484893E-3,5.177285E-2,1.5794038E-3,2.9680484E-3,-1.8137798E-2,3.1464614E-2,-9.5576746E-4,3.6554527E-2,-6.297122E-2,2.178466E-2,-4.873499E-2],"categories":[],"categories_nodes":[],"categories_segments":[],"categories_sizes":[],"default_left":[0,0,0,0,0,0,0,0,0,0,0,0,0,0,0,0,0,0,0,0,0,0,0,0,0,0,0,0,0,0,0],"id":34,"left_children":[1,3,5,7,9,11,13,15,17,19,21,23,25,27,29,-1,-1,-1,-1,-1,-1,-1,-1,-1,-1,-1,-1,-1,-1,-1,-1],"loss_changes":[3.1516312E1,3.5344555E1,3.4768246E1,5.8985508E1,7.324062E1,3.2746693E1,3.1081387E1,4.195881E1,4.060933E1,6.50111E1,4.7548958E1,6.821213E1,6.821682E1,1.9773392E1,1.4408371E1,0E0,0E0,0E0,0E0,0E0,0E0,0E0,0E0,0E0,0E0,0E0,0E0,0E0,0E0,0E0,0E0],"parents":[2147483647,0,0,1,1,2,2,3,3,4,4,5,5,6,6,7,7,8,8,9,9,10,10,11,11,12,12,13,13,14,14],"right_children":[2,4,6,8,10,12,14,16,18,20,22,24,26,28,30,-1,-1,-1,-1,-1,-1,-1,-1,-1,-1,-1,-1,-1,-1,-1,-1],"split_conditions":[-4.0215356E-4,1.908627E4,1.9215128E3,5.3794436E0,2.2472545E4,2.431304E2,-2.5576723E0,3.848875E1,1.4202751E1,1.5098156E1,2.334794E4,1.718505E2,3.018754E0,3.29575E3,5.5159216E2,2.0128494E-2,-3.2578781E-3,2.713346E-2,2.403544E-3,-5.8023702E-2,-9.484893E-3,5.177285E-2,1.5794038E-3,2.9680484E-3,-1.8137798E-2,3.1464614E-2,-9.5576746E-4,3.6554527E-2,-6.297122E-2,2.178466E-2,-4.873499E-2],"split_indices":[41,2,43,59,19,58,25,21,59,59,18,54,91,7,76,0,0,0,0,0,0,0,0,0,0,0,0,0,0,0,0],"split_type":[0,0,0,0,0,0,0,0,0,0,0,0,0,0,0,0,0,0,0,0,0,0,0,0,0,0,0,0,0,0,0],"sum_hessian":[1.175876E4,5.362834E3,6.3959263E3,1.9726355E3,3.3901985E3,6.275631E3,1.2029543E2,1.2163813E3,7.5625415E2,3.9120328E2,2.998995E3,1.5351226E3,4.7405083E3,2.8425468E1,9.1869965E1,2.3747536E2,9.78906E2,5.1008145E2,2.461727E2,8.856512E1,3.0263815E2,4.69516E1,2.9520435E3,7.227179E2,8.1240466E2,1.6722095E2,4.573287E3,2.3089172E1,5.336296E0,7.3529835E0,8.451698E1],"tree_param":{"num_deleted":"0","num_feature":"108","num_nodes":"31","size_leaf_vector":"1"}},{"base_weights":[-7.910574E-5,8.325347E-3,-3.068784E-1,5.5179414E-3,1.1372945E0,5.987249E-1,-4.355411E-1,1.1014186E-2,-4.851808E-1,1.325838E0,-5.7596005E-2,1.4960093E0,-1.707808E-1,-6.474957E-1,-1.815496E-2,-5.5878784E-4,7.5665745E-3,4.30178E-2,-3.3070948E-2,8.146626E-2,-1.3109215E-2,8.3790004E-2,-6.8513313E-3,4.9378257E-2,-4.443725E-2,-5.5523623E-2,-1.5588107E-2,2.5740394E-2,-2.9291002E-2],"categories":[],"categories_nodes":[],"categories_segments":[],"categories_sizes":[],"default_left":[0,0,0,0,0,0,0,0,0,0,0,0,0,0,0,0,0,0,0,0,0,0,0,0,0,0,0,0,0],"id":35,"left_children":[1,3,5,7,9,11,13,15,17,19,-1,21,23,25,27,-1,-1,-1,-1,-1,-1,-1,-1,-1,-1,-1,-1,-1,-1],"loss_changes":[3.0316685E1,3.6265472E1,3.678885E1,3.0796211E1,1.377763E1,2.747391E1,2.432359E1,3.515842E1,3.0562511E1,1.32891655E1,0E0,5.6030693E0,1.9272768E1,2.8006477E1,2.8641546E1,0E0,0E0,0E0,0E0,0E0,0E0,0E0,0E0,0E0,0E0,0E0,0E0,0E0,0E0],"parents":[2147483647,0,0,1,1,2,2,3,3,4,4,5,5,6,6,7,7,8,8,9,9,11,11,12,12,13,13,14,14],"right_children":[2,4,6,8,10,12,14,16,18,20,-1,22,24,26,28,-1,-1,-1,-1,-1,-1,-1,-1,-1,-1,-1,-1,-1,-1],"split_conditions":[4.02687E3,4.096069E3,5.134548E2,6.939101E4,6.071E4,-9.618678E1,4.4423303E-1,4.7474008E4,3.5600947E3,7.978739E1,-5.7596005E-2,-1.6216621E0,-6.8268826E-5,-4.5033207E1,1.2681836E-3,-5.5878784E-4,7.5665745E-3,4.30178E-2,-3.3070948E-2,8.146626E-2,-1.3109215E-2,8.3790004E-2,-6.8513313E-3,4.9378257E-2,-4.443725E-2,-5.5523623E-2,-1.5588107E-2,2.5740394E-2,-2.9291002E-2],"split_indices":[7,58,43,3,3,73,107,42,26,91,0,87,101,17,37,0,0,0,0,0,0,0,0,0,0,0,0,0,0],"split_type":[0,0,0,0,0,0,0,0,0,0,0,0,0,0,0,0,0,0,0,0,0,0,0,0,0,0,0,0,0],"sum_hessian":[1.1755591E4,1.1443092E4,3.1249893E2,1.1415709E4,2.7382532E1,3.8420383E1,2.7407852E2,1.1290227E4,1.2548262E2,2.5687685E1,1.6948471E0,1.730164E1,2.1118744E1,1.8140645E2,9.267208E1,9.74937E3,1.5408564E3,1.4082706E1,1.1139991E2,2.1544334E1,4.1433496E0,1.5562125E1,1.7395146E0,7.937334E0,1.318141E1,7.528323E1,1.0612322E2,4.7845016E1,4.4827065E1],"tree_param":{"num_deleted":"0","num_feature":"108","num_nodes":"29","size_leaf_vector":"1"}},{"base_weights":[-7.4579584E-5,9.9248625E-2,-2.5270756E-2,-1.1668439E-1,1.54339E-1,1.5193473E-2,-9.029502E-2,-1.6953366E-1,6.830425E-1,6.9561666E-1,1.2792543E-1,-3.0590521E-2,2.4594031E-1,-4.7998315E-1,-1.2110199E-2,-1.9356881E-3,-3.318609E-2,-4.7492757E-2,4.228147E-2,2.4567798E-3,5.125442E-2,-1.1029916E-2,8.733674E-3,-1.2547906E-3,-7.987096E-2,2.726447E-2,3.3291418E-3,-1.893645E-2,-6.356894E-2,1.9884484E-2,-4.07888E-3],"categories":[],"categories_nodes":[],"categories_segments":[],"categories_sizes":[],"default_left":[0,0,0,0,0,0,0,0,0,0,0,0,0,0,0,0,0,0,0,0,0,0,0,0,0,0,0,0,0,0,0],"id":36,"left_children":[1,3,5,7,9,11,13,15,17,19,21,23,25,27,29,-1,-1,-1,-1,-1,-1,-1,-1,-1,-1,-1,-1,-1,-1,-1,-1],"loss_changes":[2.9418045E1,2.8313742E1,2.467249E1,2.0574919E1,2.7011955E1,6.107728E1,1.0958277E2,2.9381025E1,8.822312E0,1.8687279E1,2.9505482E1,4.149502E1,5.1355568E1,4.7680862E1,8.534569E1,0E0,0E0,0E0,0E0,0E0,0E0,0E0,0E0,0E0,0E0,0E0,0E0,0E0,0E0,0E0,0E0],"parents":[2147483647,0,0,1,1,2,2,3,3,4,4,5,5,6,6,7,7,8,8,9,9,10,10,11,11,12,12,13,13,14,14],"right_children":[2,4,6,8,10,12,14,16,18,20,22,24,26,28,30,-1,-1,-1,-1,-1,-1,-1,-1,-1,-1,-1,-1,-1,-1,-1,-1],"split_conditions":[-1.0944483E0,-1.3689171E-1,1.841446E3,1.3757626E3,7.0407314E3,2.6466379E4,3.1934936E4,3.0861348E3,-4.555774E-6,1.4600021E0,2.1398814E2,5.204041E2,-4.502638E-1,3.0556229E4,2.24333E3,-1.9356881E-3,-3.318609E-2,-4.7492757E-2,4.228147E-2,2.4567798E-3,5.125442E-2,-1.1029916E-2,8.733674E-3,-1.2547906E-3,-7.987096E-2,2.726447E-2,3.3291418E-3,-1.893645E-2,-6.356894E-2,1.9884484E-2,-4.07888E-3],"split_indices":[40,101,46,43,42,42,34,58,106,59,26,21,107,42,6,0,0,0,0,0,0,0,0,0,0,0,0,0,0,0,0],"split_type":[0,0,0,0,0,0,0,0,0,0,0,0,0,0,0,0,0,0,0,0,0,0,0,0,0,0,0,0,0,0,0],"sum_hessian":[1.1753154E4,2.377626E3,9.375528E3,4.8306793E2,1.894558E3,5.779651E3,3.5958777E3,4.5386282E2,2.920512E1,8.69713E1,1.8075868E3,4.8234634E3,9.5618756E2,6.0003735E2,2.9958403E3,3.597178E2,9.4145E1,2.2061453E0,2.6998976E1,2.9748562E1,5.7222736E1,2.1334003E2,1.5942467E3,4.8076196E3,1.5843822E1,3.5749136E2,5.9869617E2,5.3328534E2,6.6752E1,4.3354727E2,2.5622932E3],"tree_param":{"num_deleted":"0","num_feature":"108","num_nodes":"31","size_leaf_vector":"1"}},{"base_weights":[-7.827321E-5,2.4700668E-2,-1.0014024E-1,-7.6563517E-3,1.0866108E-1,-2.1733826E-1,4.592794E-2,1.797516E-2,-2.5452924E-1,8.7683785E-1,6.759694E-2,-3.7498417E-1,-2.6508265E-3,1.9185372E-1,-3.0034944E-1,4.565895E-4,4.275326E-2,-6.6370845E-2,-4.7910768E-3,6.9706045E-2,1.6790684E-2,-2.1700857E-2,4.410477E-3,1.5988414E-3,-2.4320675E-2,3.7453366E-3,-5.8215626E-2,2.4915826E-2,2.0603265E-3,-2.7349187E-2,1.8010534E-3],"categories":[],"categories_nodes":[],"categories_segments":[],"categories_sizes":[],"default_left":[0,0,0,0,0,0,0,0,0,0,0,0,0,0,0,0,0,0,0,0,0,0,0,0,0,0,0,0,0,0,0],"id":37,"left_children":[1,3,5,7,9,11,13,15,17,19,21,23,25,27,29,-1,-1,-1,-1,-1,-1,-1,-1,-1,-1,-1,-1,-1,-1,-1,-1],"loss_changes":[2.9138063E1,2.5590475E1,3.9941025E1,4.3033268E1,8.2597725E1,4.3805965E1,5.2569946E1,4.560284E1,1.0879297E2,3.672068E1,2.5767733E1,3.3859154E1,4.955309E1,3.3761513E1,2.5612226E1,0E0,0E0,0E0,0E0,0E0,0E0,0E0,0E0,0E0,0E0,0E0,0E0,0E0,0E0,0E0,0E0],"parents":[2147483647,0,0,1,1,2,2,3,3,4,4,5,5,6,6,7,7,8,8,9,9,10,10,11,11,12,12,13,13,14,14],"right_children":[2,4,6,8,10,12,14,16,18,20,22,24,26,28,30,-1,-1,-1,-1,-1,-1,-1,-1,-1,-1,-1,-1,-1,-1,-1,-1],"split_conditions":[7.745371E0,2.73588E2,7.54838E2,1.889388E3,1.7613276E1,3.3462055E0,7.3792934E-3,3.397087E4,2.925936E4,1.073606E-2,2.6020897E1,1.4937767E0,9.797541E1,2.3026147E3,6.2672504E1,4.565895E-4,4.275326E-2,-6.6370845E-2,-4.7910768E-3,6.9706045E-2,1.6790684E-2,-2.1700857E-2,4.410477E-3,1.5988414E-3,-2.4320675E-2,3.7453366E-3,-5.8215626E-2,2.4915826E-2,2.0603265E-3,-2.7349187E-2,1.8010534E-3],"split_indices":[88,76,43,58,59,20,53,64,64,45,84,20,59,26,17,0,0,0,0,0,0,0,0,0,0,0,0,0,0,0,0],"split_type":[0,0,0,0,0,0,0,0,0,0,0,0,0,0,0,0,0,0,0,0,0,0,0,0,0,0,0,0,0,0,0],"sum_hessian":[1.1749925E4,9.4183545E3,2.3315703E3,6.799026E3,2.6193286E3,1.2933561E3,1.0382142E3,6.160356E3,6.3867017E2,1.3188248E2,2.4874463E3,7.453187E2,5.480374E2,7.3072375E2,3.074905E2,6.096956E3,6.3399895E1,8.135233E1,5.573178E2,6.661441E1,6.526807E1,9.738931E1,2.390057E3,1.6036145E2,5.849573E2,5.14615E2,3.3422405E1,2.4005997E2,4.9066376E2,1.7704851E2,1.3044199E2],"tree_param":{"num_deleted":"0","num_feature":"108","num_nodes":"31","size_leaf_vector":"1"}},{"base_weights":[-7.914787E-5,5.279461E-2,-4.4392496E-2,3.335865E-1,3.1651657E-2,-3.2504532E-2,-4.6655026E-1,-6.1678815E-1,3.816491E-1,-1.3678468E0,3.8336217E-2,-1.5469557E-1,7.566063E-3,7.553158E-2,-5.989462E-1,3.1299576E-2,-6.0639318E-2,6.5087356E-2,1.707565E-2,2.1211847E-3,-8.278788E-2,3.4066036E-2,1.4597666E-3,2.8815593E-3,-1.7178087E-2,3.8787834E-2,-4.8810008E-4,2.997078E-2,-3.49395E-2],"categories":[],"categories_nodes":[],"categories_segments":[],"categories_sizes":[],"default_left":[0,0,0,0,0,0,0,0,0,0,0,0,0,0,0,0,0,0,0,0,0,0,0,0,0,0,0,0,0],"id":38,"left_children":[1,3,5,7,9,11,13,15,17,19,21,23,25,-1,27,-1,-1,-1,-1,-1,-1,-1,-1,-1,-1,-1,-1,-1,-1],"loss_changes":[2.7527533E1,3.1792494E1,3.206276E1,1.7365158E1,4.6668064E1,3.0445305E1,4.671175E1,1.4413658E1,1.2760597E1,9.699146E0,2.9133614E1,6.159708E1,6.234795E1,0E0,2.0127762E1,0E0,0E0,0E0,0E0,0E0,0E0,0E0,0E0,0E0,0E0,0E0,0E0,0E0,0E0],"parents":[2147483647,0,0,1,1,2,2,3,3,4,4,5,5,6,6,7,7,8,8,9,9,10,10,11,11,12,12,14,14],"right_children":[2,4,6,8,10,12,14,16,18,20,22,24,26,-1,28,-1,-1,-1,-1,-1,-1,-1,-1,-1,-1,-1,-1,-1,-1],"split_conditions":[-4.0215356E-4,7.293855E3,8.312958E2,7.0600903E-1,1.3302365E2,2.431304E2,1.10884E3,-9.933403E-1,-7.2736636E-2,2.126802E0,3.848875E1,1.718505E2,2.6698148E0,7.553158E-2,3.9859788E0,3.1299576E-2,-6.0639318E-2,6.5087356E-2,1.707565E-2,2.1211847E-3,-8.278788E-2,3.4066036E-2,1.4597666E-3,2.8815593E-3,-1.7178087E-2,3.8787834E-2,-4.8810008E-4,2.997078E-2,-3.49395E-2],"split_indices":[41,42,76,90,27,58,58,73,61,59,21,54,91,0,28,0,0,0,0,0,0,0,0,0,0,0,0,0,0],"split_type":[0,0,0,0,0,0,0,0,0,0,0,0,0,0,0,0,0,0,0,0,0,0,0,0,0,0,0,0,0],"sum_hessian":[1.1746775E4,5.355962E3,6.390813E3,3.7401575E2,4.9819463E3,6.216824E3,1.7398877E2,1.743468E1,3.565811E2,2.2714653E1,4.9592314E3,1.5345415E3,4.6822827E3,1.0266118E1,1.6372266E2,5.634745E0,1.1799935E1,1.3590604E1,3.4299048E2,3.9956155E0,1.8719038E1,6.848313E1,4.8907485E3,7.227301E2,8.118114E2,1.0232279E2,4.57996E3,1.2206946E1,1.5151572E2],"tree_param":{"num_deleted":"0","num_feature":"108","num_nodes":"29","size_leaf_vector":"1"}},{"base_weights":[-6.5556036E-5,4.079466E-3,-5.6333905E-1,1.0316119E-1,-1.9823872E-2,-9.837365E-1,-7.901508E-2,1.3189708E-1,-5.031352E-1,5.285751E-2,-7.97946E-2,-1.2967727E0,-5.9856826E-1,-4.180659E-1,1.452381E0,3.0382156E-2,4.419915E-3,-3.9458126E-2,4.3839134E-2,-2.1021867E-3,1.4602805E-2,-3.1366576E-3,-3.0110663E-2,-6.940206E-2,-2.5871102E-2,-6.005443E-3,-5.784421E-2,6.319289E-2,-3.6356073E-2,7.870806E-2,2.1195648E-2],"categories":[],"categories_nodes":[],"categories_segments":[],"categories_sizes":[],"default_left":[0,0,0,0,0,0,0,0,0,0,0,0,0,0,0,0,0,0,0,0,0,0,0,0,0,0,0,0,0,0,0],"id":39,"left_children":[1,3,5,7,9,11,13,15,17,19,21,23,25,27,29,-1,-1,-1,-1,-1,-1,-1,-1,-1,-1,-1,-1,-1,-1,-1,-1],"loss_changes":[2.7422646E1,2.7616194E1,1.7391853E1,3.955081E1,4.095121E1,4.751259E0,2.187241E1,4.4739994E1,4.1250687E1,9.643441E1,4.584363E1,1.0197029E0,5.847769E0,1.8752811E1,2.905197E-1,0E0,0E0,0E0,0E0,0E0,0E0,0E0,0E0,0E0,0E0,0E0,0E0,0E0,0E0,0E0,0E0],"parents":[2147483647,0,0,1,1,2,2,3,3,4,4,5,5,6,6,7,7,8,8,9,9,10,10,11,11,12,12,13,13,14,14],"right_children":[2,4,6,8,10,12,14,16,18,20,22,24,26,28,30,-1,-1,-1,-1,-1,-1,-1,-1,-1,-1,-1,-1,-1,-1,-1,-1],"split_conditions":[7.119013E4,-5.93543E0,3.777408E3,3.4857738E0,1.19218E3,3.3956112E1,7.659118E1,1.9960629E4,1.1593214E3,2.8375E2,8.103693E2,3.5948113E-3,1.2146952E2,1.5446156E2,-1.2260017E2,3.0382156E-2,4.419915E-3,-3.9458126E-2,4.3839134E-2,-2.1021867E-3,1.4602805E-2,-3.1366576E-3,-3.0110663E-2,-6.940206E-2,-2.5871102E-2,-6.005443E-3,-5.784421E-2,6.319289E-2,-3.6356073E-2,7.870806E-2,2.1195648E-2],"split_indices":[18,23,54,107,7,91,59,38,21,6,76,93,59,35,17,0,0,0,0,0,0,0,0,0,0,0,0,0,0,0,0],"split_type":[0,0,0,0,0,0,0,0,0,0,0,0,0,0,0,0,0,0,0,0,0,0,0,0,0,0,0,0,0,0,0],"sum_hessian":[1.174329E4,1.165849E4,8.479985E1,2.2652961E3,9.393194E3,4.484384E1,3.9956005E1,2.1635361E3,1.01759964E2,4.2466255E3,5.1465693E3,2.3432709E1,2.1411135E1,3.330851E1,6.647495E0,1.8015974E2,1.9833763E3,8.464333E1,1.7116634E1,3.0409592E3,1.2056663E3,4.9848896E3,1.616793E2,2.027707E1,3.1556392E0,1.2184513E1,9.226622E0,4.690847E0,2.8617662E1,5.469291E0,1.1782033E0],"tree_param":{"num_deleted":"0","num_feature":"108","num_nodes":"31","size_leaf_vector":"1"}},{"base_weights":[-6.3579E-5,5.0760224E-3,-4.4720528E-1,-1.6599521E-2,1.2165091E-1,1.140466E0,-9.189121E-1,4.4598607E-3,-2.5526303E-1,2.2387536E-1,-2.1398017E-1,1.6263754E0,-7.135066E-1,-1.579384E-1,-1.1700984E0,-5.631386E-4,1.8738769E-2,-2.8441085E-2,-4.1747075E-3,-6.5147184E-2,1.201457E-2,2.0760226E-4,-3.0986784E-2,-3.889584E-2,8.925427E-2,6.687441E-2,-6.7795314E-2,-7.507309E-2,2.1251451E-2,-6.332332E-2,2.8203106E-2],"categories":[],"categories_nodes":[],"categories_segments":[],"categories_sizes":[],"default_left":[0,0,0,0,0,0,0,0,0,0,0,0,0,0,0,0,0,0,0,0,0,0,0,0,0,0,0,0,0,0,0],"id":40,"left_children":[1,3,5,7,9,11,13,15,17,19,21,23,25,27,29,-1,-1,-1,-1,-1,-1,-1,-1,-1,-1,-1,-1,-1,-1,-1,-1],"loss_changes":[2.6981579E1,2.9331528E1,1.0096657E2,4.919817E1,6.2490192E1,2.9092537E1,1.9581978E1,5.237966E1,4.2700462E1,3.5291573E1,3.765494E1,1.0879448E1,1.1212823E1,2.1644089E1,1.3681374E1,0E0,0E0,0E0,0E0,0E0,0E0,0E0,0E0,0E0,0E0,0E0,0E0,0E0,0E0,0E0,0E0],"parents":[2147483647,0,0,1,1,2,2,3,3,4,4,5,5,6,6,7,7,8,8,9,9,10,10,11,11,12,12,13,13,14,14],"right_children":[2,4,6,8,10,12,14,16,18,20,22,24,26,28,30,-1,-1,-1,-1,-1,-1,-1,-1,-1,-1,-1,-1,-1,-1,-1,-1],"split_conditions":[4.3352046E3,5.0842654E2,3.8715034E1,3.1845747E3,3.32683E-2,6.4234242E4,-1.3448065E1,4.436997E4,3.563084E2,2.1461506E4,5.350629E4,4.2710605E2,-1.5428615E2,5.6834285E4,4.079733E4,-5.631386E-4,1.8738769E-2,-2.8441085E-2,-4.1747075E-3,-6.5147184E-2,1.201457E-2,2.0760226E-4,-3.0986784E-2,-3.889584E-2,8.925427E-2,6.687441E-2,-6.7795314E-2,-7.507309E-2,2.1251451E-2,-6.332332E-2,2.8203106E-2],"split_indices":[54,76,89,58,61,42,24,38,76,19,42,43,17,38,80,0,0,0,0,0,0,0,0,0,0,0,0,0,0,0,0],"split_type":[0,0,0,0,0,0,0,0,0,0,0,0,0,0,0,0,0,0,0,0,0,0,0,0,0,0,0,0,0,0,0],"sum_hessian":[1.1738678E4,1.1606261E4,1.3241772E2,9.7873E3,1.8189601E3,3.0005945E1,1.0241179E2,8.994608E3,7.9269214E2,1.3945498E3,4.2441037E2,2.3872057E1,6.1338887E0,2.58196E1,7.6592186E1,8.629204E3,3.6540393E2,2.7973434E2,5.129578E2,1.4000743E1,1.380549E3,2.766659E2,1.4774449E2,1.2366445E0,2.2635412E1,1.2049183E0,4.928971E0,7.3363914E0,1.8483208E1,7.28155E1,3.7766902E0],"tree_param":{"num_deleted":"0","num_feature":"108","num_nodes":"31","size_leaf_vector":"1"}},{"base_weights":[-7.695631E-5,1.679917E-1,-1.3276087E-2,-7.703868E-2,4.203149E-1,-2.3364323E-1,6.2520867E-3,2.7327845E-1,-4.8454306E-1,1.6948308E0,3.5374802E-1,-7.177567E-2,-8.334997E-1,1.5396341E0,-1.2142105E-3,-1.059344E-2,4.3476965E-2,-6.7259185E-2,-1.15041435E-2,9.129905E-2,3.4102336E-2,2.327413E-2,-7.3264265E-3,-1.4497133E-2,2.0486278E-2,-6.907322E-2,-1.3641235E-2,-7.469677E-2,8.50153E-2,1.673568E-2,-5.540964E-4],"categories":[],"categories_nodes":[],"categories_segments":[],"categories_sizes":[],"default_left":[0,0,0,0,0,0,0,0,0,0,0,0,0,0,0,0,0,0,0,0,0,0,0,0,0,0,0,0,0,0,0],"id":41,"left_children":[1,3,5,7,9,11,13,15,17,19,21,23,25,27,29,-1,-1,-1,-1,-1,-1,-1,-1,-1,-1,-1,-1,-1,-1,-1,-1],"loss_changes":[2.6038391E1,5.2874947E1,4.6834938E1,6.2153297E1,3.5138016E1,8.596182E1,1.1446641E2,6.79494E1,4.375203E1,1.4967766E0,2.251619E1,7.352239E1,5.7433914E1,2.6153732E1,3.2988377E1,0E0,0E0,0E0,0E0,0E0,0E0,0E0,0E0,0E0,0E0,0E0,0E0,0E0,0E0,0E0,0E0],"parents":[2147483647,0,0,1,1,2,2,3,3,4,4,5,5,6,6,7,7,8,8,9,9,10,10,11,11,12,12,13,13,14,14],"right_children":[2,4,6,8,10,12,14,16,18,20,22,24,26,28,30,-1,-1,-1,-1,-1,-1,-1,-1,-1,-1,-1,-1,-1,-1,-1,-1],"split_conditions":[7.16876E3,1.3705855E2,1.875618E2,1.326992E2,8.3179E0,1.8318E2,7.759E3,1.2379E2,-5.347511E-1,7.5353694E-1,1.0992141E0,8.46454E3,9.578825E1,1.8506E2,4.327824E1,-1.059344E-2,4.3476965E-2,-6.7259185E-2,-1.15041435E-2,9.129905E-2,3.4102336E-2,2.327413E-2,-7.3264265E-3,-1.4497133E-2,2.0486278E-2,-6.907322E-2,-1.3641235E-2,-7.469677E-2,8.50153E-2,1.673568E-2,-5.540964E-4],"split_indices":[1,27,58,58,39,6,1,7,107,20,87,2,43,5,76,0,0,0,0,0,0,0,0,0,0,0,0,0,0,0,0],"split_type":[0,0,0,0,0,0,0,0,0,0,0,0,0,0,0,0,0,0,0,0,0,0,0,0,0,0,0,0,0,0,0],"sum_hessian":[1.1735669E4,8.536864E2,1.0881982E4,4.3345453E2,4.2023184E2,8.8493243E2,9.997051E3,2.332592E2,2.0019533E2,1.9644775E1,4.0058707E2,6.977646E2,1.871678E2,4.74471E1,9.949604E3,1.2896863E2,1.0429058E2,4.4705387E1,1.5548994E2,1.6681658E1,2.9631174E0,3.2750894E2,7.3078125E1,4.80465E2,2.1729962E2,9.3916466E1,9.325134E1,1.9692158E0,4.5477886E1,2.8298526E2,9.666618E3],"tree_param":{"num_deleted":"0","num_feature":"108","num_nodes":"31","size_leaf_vector":"1"}},{"base_weights":[-6.753249E-5,-3.7005577E-2,5.961285E-2,-1.7545821E-2,-2.244327E-1,8.628176E-2,-1.3081828E-1,2.748922E-1,-4.0034987E-2,-1.1839745E0,-1.7387077E-1,-6.975328E-2,1.19749725E-1,-3.338693E-2,-9.0337485E-1,-2.3343652E-2,1.9257035E-2,7.7205636E-3,-2.9599366E-3,-7.5224556E-2,2.7969772E-2,4.7805887E-2,-9.947125E-3,-5.0600083E-3,4.485777E-2,1.2534109E-2,2.6010666E-3,-1.6950663E-2,8.882273E-3,3.3355597E-2,-5.4734673E-2],"categories":[],"categories_nodes":[],"categories_segments":[],"categories_sizes":[],"default_left":[0,0,0,0,0,0,0,0,0,0,0,0,0,0,0,0,0,0,0,0,0,0,0,0,0,0,0,0,0,0,0],"id":42,"left_children":[1,3,5,7,9,11,13,15,17,19,21,23,25,27,29,-1,-1,-1,-1,-1,-1,-1,-1,-1,-1,-1,-1,-1,-1,-1,-1],"loss_changes":[2.5872248E1,2.6436584E1,2.2798218E1,4.321049E1,3.2872055E1,2.0564352E1,4.148723E1,3.854977E1,2.2741123E1,1.9815311E1,1.8572178E1,2.124798E1,2.8731838E1,3.17178E1,1.927874E1,0E0,0E0,0E0,0E0,0E0,0E0,0E0,0E0,0E0,0E0,0E0,0E0,0E0,0E0,0E0,0E0],"parents":[2147483647,0,0,1,1,2,2,3,3,4,4,5,5,6,6,7,7,8,8,9,9,10,10,11,11,12,12,13,13,14,14],"right_children":[2,4,6,8,10,12,14,16,18,20,22,24,26,28,30,-1,-1,-1,-1,-1,-1,-1,-1,-1,-1,-1,-1,-1,-1,-1,-1],"split_conditions":[8.67363E-3,6.214647E1,4.7809877E-2,-1.3594214E2,-1.2656525E0,-8.447551E-2,5.3835684E4,2.2275709E4,7.0407314E3,4.2901714E3,1.6206473E0,1.1593214E3,-6.008986E-1,9.141508E2,2.767092E0,-2.3343652E-2,1.9257035E-2,7.7205636E-3,-2.9599366E-3,-7.5224556E-2,2.7969772E-2,4.7805887E-2,-9.947125E-3,-5.0600083E-3,4.485777E-2,1.2534109E-2,2.6010666E-3,-1.6950663E-2,8.882273E-3,3.3355597E-2,-5.4734673E-2],"split_indices":[104,59,61,16,107,101,38,19,42,26,28,21,40,27,20,0,0,0,0,0,0,0,0,0,0,0,0,0,0,0,0],"split_type":[0,0,0,0,0,0,0,0,0,0,0,0,0,0,0,0,0,0,0,0,0,0,0,0,0,0,0,0,0,0,0],"sum_hessian":[1.17342295E4,7.2483687E3,4.485861E3,6.5675786E3,6.8079E2,3.9352905E3,5.5057043E2,4.681938E2,6.099385E3,3.2955666E1,6.4783435E2,6.948168E2,3.2404736E3,4.8983755E2,6.073289E1,6.0164555E1,4.0802924E2,5.4656537E2,5.5528193E3,2.7953472E1,5.0021915E0,1.3255822E1,6.345785E2,6.737981E2,2.1018677E1,1.1038367E3,2.136637E3,1.9982942E2,2.9000815E2,6.325066E0,5.4407825E1],"tree_param":{"num_deleted":"0","num_feature":"108","num_nodes":"31","size_leaf_vector":"1"}},{"base_weights":[-6.3632906E-5,5.433529E-2,-3.894617E-2,-1.8218955E-1,7.491841E-2,1.400422E-1,-6.193671E-2,-1.3162081E-1,-9.6969116E-1,4.8590414E-2,3.3740637E-1,-9.365543E-2,3.1335998E-1,-4.8701048E-2,-3.933906E-1,-8.720198E-3,3.8667858E-2,-5.649971E-2,5.3420126E-2,9.180422E-3,3.0297285E-4,-6.776589E-2,1.9291427E-2,2.0397458E-2,-9.201358E-3,1.782752E-2,-4.1678343E-2,-3.0907681E-2,-2.0325826E-3,-2.8576558E-2,3.0013446E-3],"categories":[],"categories_nodes":[],"categories_segments":[],"categories_sizes":[],"default_left":[0,0,0,0,0,0,0,0,0,0,0,0,0,0,0,0,0,0,0,0,0,0,0,0,0,0,0,0,0,0,0],"id":43,"left_children":[1,3,5,7,9,11,13,15,17,19,21,23,25,27,29,-1,-1,-1,-1,-1,-1,-1,-1,-1,-1,-1,-1,-1,-1,-1,-1],"loss_changes":[2.4816738E1,2.3822979E1,2.8164534E1,1.5475495E1,3.1080427E1,3.1587118E1,2.6583927E1,1.4434427E1,8.8800335E0,2.3489697E1,3.4130527E1,1.5149536E1,2.2468899E1,2.6708878E1,1.8830868E1,0E0,0E0,0E0,0E0,0E0,0E0,0E0,0E0,0E0,0E0,0E0,0E0,0E0,0E0,0E0,0E0],"parents":[2147483647,0,0,1,1,2,2,3,3,4,4,5,5,6,6,7,7,8,8,9,9,10,10,11,11,12,12,13,13,14,14],"right_children":[2,4,6,8,10,12,14,16,18,20,22,24,26,28,30,-1,-1,-1,-1,-1,-1,-1,-1,-1,-1,-1,-1,-1,-1,-1,-1],"split_conditions":[-7.5945136E-4,2.8268782E1,-4.001453E-1,1.8527822E-3,1.4357908E0,7.885798E-2,2.9540218E1,-5.227127E-3,1.0838772E2,-2.3492713E0,9.759795E1,1.0631259E4,6.7170557E2,3.8510046E3,6.205348E-1,-8.720198E-3,3.8667858E-2,-5.649971E-2,5.3420126E-2,9.180422E-3,3.0297285E-4,-6.776589E-2,1.9291427E-2,2.0397458E-2,-9.201358E-3,1.782752E-2,-4.1678343E-2,-3.0907681E-2,-2.0325826E-3,-2.8576558E-2,3.0013446E-3],"split_indices":[37,68,102,101,107,101,24,101,59,88,43,80,74,18,107,0,0,0,0,0,0,0,0,0,0,0,0,0,0,0,0],"split_type":[0,0,0,0,0,0,0,0,0,0,0,0,0,0,0,0,0,0,0,0,0,0,0,0,0,0,0,0,0,0,0],"sum_hessian":[1.1730751E4,4.8895664E3,6.841184E3,3.9081223E2,4.498754E3,7.781282E2,6.063056E3,3.683275E2,2.24847E1,4.089732E3,4.090221E2,3.31543E2,4.4658517E2,5.8313447E3,2.3171114E2,3.524716E2,1.5855934E1,2.125823E1,1.226469E0,9.7887994E2,3.110852E3,1.0624516E1,3.9839758E2,5.0077232E1,2.8146576E2,4.3104233E2,1.5542858E1,8.022259E1,5.751122E3,1.6616646E2,6.5544685E1],"tree_param":{"num_deleted":"0","num_feature":"108","num_nodes":"31","size_leaf_vector":"1"}},{"base_weights":[-6.759685E-5,4.8115226E-3,-4.2868304E-1,-1.5670476E-2,1.1511597E-1,1.0865725E0,-8.830604E-1,4.238884E-3,-2.4157348E-1,2.090696E-1,-1.941129E-1,1.5453107E0,-6.822909E-1,-1.5411295E-1,-1.1270205E0,-5.36972E-4,1.7845945E-2,-2.7059395E-2,-3.8855807E-3,2.8726754E-3,1.8748349E-2,2.787791E-2,-1.5385351E-2,-1.8409459E-2,8.728452E-2,6.4772E-2,-6.58183E-2,-7.67257E-2,1.8311951E-2,-6.1116792E-2,2.7824802E-2],"categories":[],"categories_nodes":[],"categories_segments":[],"categories_sizes":[],"default_left":[0,0,0,0,0,0,0,0,0,0,0,0,0,0,0,0,0,0,0,0,0,0,0,0,0,0,0,0,0,0,0],"id":44,"left_children":[1,3,5,7,9,11,13,15,17,19,21,23,25,27,29,-1,-1,-1,-1,-1,-1,-1,-1,-1,-1,-1,-1,-1,-1,-1,-1],"loss_changes":[2.453088E1,2.6204979E1,9.185958E1,4.3999462E1,5.281462E1,2.6132675E1,1.7986893E1,4.7501003E1,3.8858997E1,3.5032654E1,3.6358685E1,1.0169937E1,1.0556523E1,1.9787575E1,1.2932571E1,0E0,0E0,0E0,0E0,0E0,0E0,0E0,0E0,0E0,0E0,0E0,0E0,0E0,0E0,0E0,0E0],"parents":[2147483647,0,0,1,1,2,2,3,3,4,4,5,5,6,6,7,7,8,8,9,9,10,10,11,11,12,12,13,13,14,14],"right_children":[2,4,6,8,10,12,14,16,18,20,22,24,26,28,30,-1,-1,-1,-1,-1,-1,-1,-1,-1,-1,-1,-1,-1,-1,-1,-1],