{"learner":{"attributes":{"scikit_learn":"{\"_estimator_type\": \"classifier\"}"},"feature_names":["btc_open","btc_high","btc_low","btc_close","btc_volume","eth_open","eth_high","eth_low","eth_close","eth_volume","sentiment_mean","sentiment_count","btc_ret","eth_ret","btc_rsi_14","btc_macd","btc_macd_signal","btc_macd_diff","btc_bb_high","btc_bb_low","btc_bb_width","btc_atr_14","eth_rsi_14","eth_macd","eth_macd_signal","eth_macd_diff","eth_bb_high","eth_bb_low","eth_bb_width","eth_atr_14","btc_roll_mean_5","btc_roll_std_5","btc_zscore_5","btc_momentum_5","btc_roll_mean_10","btc_roll_std_10","btc_zscore_10","btc_momentum_10","btc_roll_mean_20","btc_roll_std_20","btc_zscore_20","btc_momentum_20","btc_roll_mean_50","btc_roll_std_50","btc_zscore_50","btc_momentum_50","eth_roll_mean_5","eth_roll_std_5","eth_zscore_5","eth_momentum_5","eth_roll_mean_10","eth_roll_std_10","eth_zscore_10","eth_momentum_10","eth_roll_mean_20","eth_roll_std_20","eth_zscore_20","eth_momentum_20","eth_roll_mean_50","eth_roll_std_50","eth_zscore_50","eth_momentum_50","btc_close_lag_1","btc_close_lag_3","btc_close_lag_6","btc_volume_lag_1","btc_volume_lag_3","btc_volume_lag_6","btc_rsi_14_lag_1","btc_rsi_14_lag_3","btc_rsi_14_lag_6","btc_macd_lag_1","btc_macd_lag_3","btc_macd_lag_6","btc_atr_14_lag_1","btc_atr_14_lag_3","btc_atr_14_lag_6","eth_close_lag_1","eth_close_lag_3","eth_close_lag_6","eth_volume_lag_1","eth_volume_lag_3","eth_volume_lag_6","eth_rsi_14_lag_1","eth_rsi_14_lag_3","eth_rsi_14_lag_6","eth_macd_lag_1","eth_macd_lag_3","eth_macd_lag_6","eth_atr_14_lag_1","eth_atr_14_lag_3","eth_atr_14_lag_6","btc_ret_lag_1","btc_ret_lag_3","btc_ret_lag_6","eth_ret_lag_1","eth_ret_lag_3","eth_ret_lag_6","sentiment_roll_mean_24h","sentiment_roll_wmean_24h","sentiment_shock","alpha_whale_flow","alpha_exchange_delta","alpha_miner_flow","alpha_spread","alpha_ofi","alpha_vpin_proxy","alpha_regime_vol"],"feature_types":["float","float","float","float","float","float","float","float","float","float","float","float","float","float","float","float","float","float","float","float","float","float","float","float","float","float","float","float","float","float","float","float","float","float","float","float","float","float","float","float","float","float","float","float","float","float","float","float","float","float","float","float","float","float","float","float","float","float","float","float","float","float","float","float","float","float","float","float","float","float","float","float","float","float","float","float","float","float","float","float","float","float","float","float","float","float","float","float","float","float","float","float","float","float","float","float","float","float","float","float","int","float","float","float","float","float","float","float"],"gradient_booster":{"model":{"cats":{"enc":[],"feature_segments":[],"sorted_idx":[]},"gbtree_model_param":{"num_parallel_tree":"1","num_trees":"100"},"iteration_indptr":[0,1,2,3,4,5,6,7,8,9,10,11,12,13,14,15,16,17,18,19,20,21,22,23,24,25,26,27,28,29,30,31,32,33,34,35,36,37,38,39,40,41,42,43,44,45,46,47,48,49,50,51,52,53,54,55,56,57,58,59,60,61,62,63,64,65,66,67,68,69,70,71,72,73,74,75,76,77,78,79,80,81,82,83,84,85,86,87,88,89,90,91,92,93,94,95,96,97,98,99,100],"tree_info":[0,0,0,0,0,0,0,0,0,0,0,0,0,0,0,0,0,0,0,0,0,0,0,0,0,0,0,0,0,0,0,0,0,0,0,0,0,0,0,0,0,0,0,0,0,0,0,0,0,0,0,0,0,0,0,0,0,0,0,0,0,0,0,0,0,0,0,0,0,0,0,0,0,0,0,0,0,0,0,0,0,0,0,0,0,0,0,0,0,0,0,0,0,0,0,0,0,0,0,0],"trees":[{"base_weights":[8.947903E-8,1.2615626E-1,-1.1137793E-1,6.462518E-1,1.0588009E-1,-2.593485E-1,1.2404301E-2,-1.3088709E-1,8.366892E-1,8.629803E-2,6.220858E-1,-1.8575399E-1,-5.925001E-1,6.744407E-2,-5.064223E-1,-2.229303E-2,3.5894237E-2,-1.0629947E-2,4.810322E-2,-1.1302622E-2,5.720832E-3,-3.6660533E-3,4.201998E-2,5.2422024E-3,-1.2403685E-2,-3.8913246E-2,-1.600103E-2,9.6961325E-3,-1.4620738E-3,-1.9163126E-2,-6.652459E-2],"categories":[],"categories_nodes":[],"categories_segments":[],"categories_sizes":[],"default_left":[0,0,0,0,0,0,0,0,0,0,0,0,0,0,0,0,0,0,0,0,0,0,0,0,0,0,0,0,0,0,0],"id":0,"left_children":[1,3,5,7,9,11,13,15,17,19,21,23,25,27,29,-1,-1,-1,-1,-1,-1,-1,-1,-1,-1,-1,-1,-1,-1,-1,-1],"loss_changes":[1.6676367E2,5.861776E1,1.1545735E2,3.0984245E1,5.4100937E1,7.028697E1,9.8072655E1,1.1528269E1,2.2265419E1,4.5369682E1,2.9763397E1,4.2641983E1,2.602362E1,3.7973106E1,3.292121E1,0E0,0E0,0E0,0E0,0E0,0E0,0E0,0E0,0E0,0E0,0E0,0E0,0E0,0E0,0E0,0E0],"parents":[2147483647,0,0,1,1,2,2,3,3,4,4,5,5,6,6,7,7,8,8,9,9,10,10,11,11,12,12,13,13,14,14],"right_children":[2,4,6,8,10,12,14,16,18,20,22,24,26,28,30,-1,-1,-1,-1,-1,-1,-1,-1,-1,-1,-1,-1,-1,-1,-1,-1],"split_conditions":[4.9940468E1,5.29282E3,2.624853E0,1.30146675E1,1.6518494E3,7.064893E0,3.543511E3,-1.2305433E-2,3.0074905E1,2.8857788E1,3.678928E2,-8.076834E-3,1.9184024E2,1.20894E3,5.379987E-2,-2.229303E-2,3.5894237E-2,-1.0629947E-2,4.810322E-2,-1.1302622E-2,5.720832E-3,-3.6660533E-3,4.201998E-2,5.2422024E-3,-1.2403685E-2,-3.8913246E-2,-1.600103E-2,9.6961325E-3,-1.4620738E-3,-1.9163126E-2,-6.652459E-2],"split_indices":[14,3,20,43,43,24,26,25,84,68,35,101,73,8,61,0,0,0,0,0,0,0,0,0,0,0,0,0,0,0,0],"split_type":[0,0,0,0,0,0,0,0,0,0,0,0,0,0,0,0,0,0,0,0,0,0,0,0,0,0,0,0,0,0,0],"sum_hessian":[1.1866435E4,5.564021E3,6.3024136E3,2.0761832E2,5.356403E3,2.8702234E3,3.4321902E3,4.0924763E1,1.6669354E2,5.1617607E3,1.9464217E2,2.3521758E3,5.180476E2,3.103794E3,3.2839627E2,3.019449E1,1.0730273E1,1.7717428E1,1.4897612E2,4.2571735E2,4.736043E3,4.666421E1,1.4797795E2,4.1523663E2,1.9369391E3,3.0693573E2,2.111119E2,1.3442787E3,1.7595153E3,2.869724E2,4.1423847E1],"tree_param":{"num_deleted":"0","num_feature":"108","num_nodes":"31","size_leaf_vector":"1"}},{"base_weights":[-8.453782E-6,1.1983286E-1,-1.058662E-1,6.1358446E-1,1.0056986E-1,-2.4656391E-1,1.1758672E-2,2.339578E-1,9.731279E-1,8.1966795E-2,5.905685E-1,-1.7654824E-1,-5.638581E-1,6.406512E-2,-4.8200577E-1,-4.38992E-4,4.7182597E-2,5.6187402E-2,-1.142512E-2,-1.0744487E-2,5.4335264E-3,-5.24909E-3,3.9395157E-2,4.979623E-3,-1.1790707E-2,-5.2417397E-2,-2.3156216E-2,-1.9297748E-5,1.2010304E-2,-1.7319916E-2,-5.8322173E-2],"categories":[],"categories_nodes":[],"categories_segments":[],"categories_sizes":[],"default_left":[0,0,0,0,0,0,0,0,0,0,0,0,0,0,0,0,0,0,0,0,0,0,0,0,0,0,0,0,0,0,0],"id":1,"left_children":[1,3,5,7,9,11,13,15,17,19,21,23,25,27,29,-1,-1,-1,-1,-1,-1,-1,-1,-1,-1,-1,-1,-1,-1,-1,-1],"loss_changes":[1.5055795E2,5.2880234E1,1.0429167E2,2.8273468E1,4.8796844E1,6.3646362E1,8.869987E1,1.773231E1,1.960926E1,4.095661E1,2.6962402E1,3.8518326E1,2.4808044E1,3.525191E1,3.0129356E1,0E0,0E0,0E0,0E0,0E0,0E0,0E0,0E0,0E0,0E0,0E0,0E0,0E0,0E0,0E0,0E0],"parents":[2147483647,0,0,1,1,2,2,3,3,4,4,5,5,6,6,7,7,8,8,9,9,10,10,11,11,12,12,13,13,14,14],"right_children":[2,4,6,8,10,12,14,16,18,20,22,24,26,28,30,-1,-1,-1,-1,-1,-1,-1,-1,-1,-1,-1,-1,-1,-1,-1,-1],"split_conditions":[4.9940468E1,5.29282E3,2.624853E0,1.2111907E0,1.6518494E3,7.064893E0,3.543511E3,1.365792E2,1.72006E2,2.8857788E1,3.5028915E2,-8.076834E-3,1.5752031E2,6.115118E-2,4.923166E-2,-4.38992E-4,4.7182597E-2,5.6187402E-2,-1.142512E-2,-1.0744487E-2,5.4335264E-3,-5.24909E-3,3.9395157E-2,4.979623E-3,-1.1790707E-2,-5.2417397E-2,-2.3156216E-2,-1.9297748E-5,1.2010304E-2,-1.7319916E-2,-5.8322173E-2],"split_indices":[14,3,20,91,43,24,26,58,58,68,35,101,74,101,61,0,0,0,0,0,0,0,0,0,0,0,0,0,0,0,0],"split_type":[0,0,0,0,0,0,0,0,0,0,0,0,0,0,0,0,0,0,0,0,0,0,0,0,0,0,0,0,0,0,0],"sum_hessian":[1.1865917E4,5.5653105E3,6.300607E3,2.0781133E2,5.357499E3,2.8684258E3,3.4321812E3,1.0188547E2,1.0592585E2,5.162663E3,1.9483597E2,2.351163E3,5.1726263E2,3.10421E3,3.2797116E2,7.665477E1,2.5230703E1,9.418491E1,1.1740933E1,4.2549777E2,4.7371655E3,4.3163715E1,1.5167224E2,4.153271E2,1.935836E3,8.7416534E1,4.298461E2,2.2733682E3,8.3084174E2,2.7499298E2,5.2978172E1],"tree_param":{"num_deleted":"0","num_feature":"108","num_nodes":"31","size_leaf_vector":"1"}},{"base_weights":[-1.3731519E-5,-9.31352E-2,1.2336567E-1,-2.1790329E-1,1.7490549E-2,5.87408E-1,1.0211103E-1,-1.5158999E-1,-5.305486E-1,6.675968E-2,-4.4043198E-1,-2.0245221E-1,7.437234E-1,8.2108684E-2,6.169753E-1,-2.1018509E-2,-4.8350017E-3,-4.996649E-2,-2.1688914E-2,4.2787422E-3,-2.5900042E-2,-1.4047051E-2,-4.802059E-2,2.5365412E-2,-3.46411E-2,1.1388869E-3,4.6534188E-2,-6.6860393E-3,6.2217764E-3,6.70419E-3,4.6080474E-2],"categories":[],"categories_nodes":[],"categories_segments":[],"categories_sizes":[],"default_left":[0,0,0,0,0,0,0,0,0,0,0,0,0,0,0,0,0,0,0,0,0,0,0,0,0,0,0,0,0,0,0],"id":2,"left_children":[1,3,5,7,9,11,13,15,17,19,21,23,25,27,29,-1,-1,-1,-1,-1,-1,-1,-1,-1,-1,-1,-1,-1,-1,-1,-1],"loss_changes":[1.3633836E2,9.334393E1,5.028163E1,6.581154E1,8.091964E1,2.7724884E1,5.022378E1,3.8663895E1,2.4777435E1,3.566906E1,2.8624908E1,1.3466628E1,2.513713E1,4.295585E1,2.6709587E1,0E0,0E0,0E0,0E0,0E0,0E0,0E0,0E0,0E0,0E0,0E0,0E0,0E0,0E0,0E0,0E0],"parents":[2147483647,0,0,1,1,2,2,3,3,4,4,5,5,6,6,7,7,8,8,9,9,10,10,11,11,12,12,13,13,14,14],"right_children":[2,4,6,8,10,12,14,16,18,20,22,24,26,28,30,-1,-1,-1,-1,-1,-1,-1,-1,-1,-1,-1,-1,-1,-1,-1,-1],"split_conditions":[2.3912668E-2,2.624853E0,6.170206E3,7.064893E0,3.543511E3,1.30146675E1,1.6518494E3,5.5662915E3,1.5751166E2,1.8484805E3,4.1606743E-2,7.3146466E2,3.537415E1,3.378089E1,-2.9131087E-2,-2.1018509E-2,-4.8350017E-3,-4.996649E-2,-2.1688914E-2,4.2787422E-3,-2.5900042E-2,-1.4047051E-2,-4.802059E-2,2.5365412E-2,-3.46411E-2,1.1388869E-3,4.6534188E-2,-6.6860393E-3,6.2217764E-3,6.70419E-3,4.6080474E-2],"split_indices":[102,20,38,24,26,43,43,80,21,43,61,67,84,85,101,0,0,0,0,0,0,0,0,0,0,0,0,0,0,0,0],"split_type":[0,0,0,0,0,0,0,0,0,0,0,0,0,0,0,0,0,0,0,0,0,0,0,0,0,0,0,0,0,0,0],"sum_hessian":[1.1864581E4,6.761521E3,5.1030605E3,3.1771904E3,3.5843306E3,2.2233305E2,4.8807275E3,2.6224443E3,5.54746E2,3.236916E3,3.4741443E2,3.6682343E1,1.8565071E2,4.6993193E3,1.814079E2,4.4360098E2,2.1788435E3,9.332553E1,4.6142044E2,3.1368394E3,1.0007679E2,2.670452E2,8.0369225E1,1.4974186E1,2.1708157E1,3.8461098E1,1.471896E2,7.7013794E2,3.9291814E3,7.073009E1,1.1067781E2],"tree_param":{"num_deleted":"0","num_feature":"108","num_nodes":"31","size_leaf_vector":"1"}},{"base_weights":[-2.4359028E-5,1.0875513E-1,-9.620459E-2,5.6350315E-1,9.1350585E-2,4.8500482E-2,-1.920049E-1,2.0311663E-1,9.139917E-1,1.724363E-2,1.929291E-1,-9.145352E-2,2.7243468E-1,-9.738874E-1,-1.5608776E-1,-1.3557171E-3,4.4494376E-2,5.211333E-2,-8.949548E-3,7.3042028E-3,-7.15515E-3,2.5622392E-2,4.4263033E-3,5.7082954E-3,-1.3792875E-2,5.7362795E-2,1.061555E-2,4.4103242E-2,-5.212713E-2,-1.072974E-2,7.7428557E-3],"categories":[],"categories_nodes":[],"categories_segments":[],"categories_sizes":[],"default_left":[0,0,0,0,0,0,0,0,0,0,0,0,0,0,0,0,0,0,0,0,0,0,0,0,0,0,0,0,0,0,0],"id":3,"left_children":[1,3,5,7,9,11,13,15,17,19,21,23,25,27,29,-1,-1,-1,-1,-1,-1,-1,-1,-1,-1,-1,-1,-1,-1,-1,-1],"loss_changes":[1.2413462E2,4.401525E1,8.7304306E1,2.571379E1,4.037269E1,7.8661514E1,1.0625346E2,1.6212112E1,1.47204895E1,6.41115E1,7.542497E1,5.860705E1,5.052726E1,2.2099167E1,6.595812E1,0E0,0E0,0E0,0E0,0E0,0E0,0E0,0E0,0E0,0E0,0E0,0E0,0E0,0E0,0E0,0E0],"parents":[2147483647,0,0,1,1,2,2,3,3,4,4,5,5,6,6,7,7,8,8,9,9,10,10,11,11,12,12,13,13,14,14],"right_children":[2,4,6,8,10,12,14,16,18,20,22,24,26,28,30,-1,-1,-1,-1,-1,-1,-1,-1,-1,-1,-1,-1,-1,-1,-1,-1],"split_conditions":[4.9940468E1,5.2921E3,1.209004E3,1.2111907E0,3.857224E2,2.497858E2,1.2604493E3,1.365792E2,1.72006E2,1.915E4,3.655268E1,7.916526E3,2.4965718E0,1.652E4,8.371171E-1,-1.3557171E-3,4.4494376E-2,5.211333E-2,-8.949548E-3,7.3042028E-3,-7.15515E-3,2.5622392E-2,4.4263033E-3,5.7082954E-3,-1.3792875E-2,5.7362795E-2,1.061555E-2,4.4103242E-2,-5.212713E-2,-1.072974E-2,7.7428557E-3],"split_indices":[14,0,46,91,43,58,58,58,58,3,59,34,89,2,107,0,0,0,0,0,0,0,0,0,0,0,0,0,0,0,0],"split_type":[0,0,0,0,0,0,0,0,0,0,0,0,0,0,0,0,0,0,0,0,0,0,0,0,0,0,0,0,0,0,0],"sum_hessian":[1.1862793E4,5.566721E3,6.296072E3,2.0404445E2,5.362677E3,2.508106E3,3.787966E3,1.0138047E2,1.0266398E2,3.1012898E3,2.261387E3,1.5438346E3,9.642714E2,1.6521765E2,3.6227483E3,7.664631E1,2.4734154E1,9.192218E1,1.0741795E1,1.7196332E3,1.3816567E3,5.559696E2,1.7054172E3,7.3010864E2,8.137259E2,6.0846817E1,9.034246E2,5.4710617E0,1.597466E2,3.0493044E3,5.734438E2],"tree_param":{"num_deleted":"0","num_feature":"108","num_nodes":"31","size_leaf_vector":"1"}},{"base_weights":[-1.2597687E-5,8.8359684E-2,-1.0842389E-1,5.1753875E-2,3.7337166E-1,-1.4192474E-1,2.8592423E-1,1.7611915E-1,-7.1683966E-2,4.3591985E-1,-3.544086E-1,6.444496E-2,-2.0216335E-1,9.4813585E-2,6.0649365E-1,4.497403E-3,2.169572E-2,-1.2065082E-2,4.7601718E-3,2.6599145E-2,-1.767993E-3,2.6113687E-2,-3.6985543E-2,5.9981137E-3,-3.3861995E-2,-8.467707E-3,-2.4086155E-2,5.115647E-2,8.6493307E-4,2.3508338E-2,5.712077E-2],"categories":[],"categories_nodes":[],"categories_segments":[],"categories_sizes":[],"default_left":[0,0,0,0,0,0,0,0,0,0,0,0,0,0,0,0,0,0,0,0,0,0,0,0,0,0,0,0,0,0,0],"id":4,"left_children":[1,3,5,7,9,11,13,15,17,19,21,23,25,27,29,-1,-1,-1,-1,-1,-1,-1,-1,-1,-1,-1,-1,-1,-1,-1,-1],"loss_changes":[1.1365672E2,6.816795E1,7.042355E1,8.894252E1,3.400937E1,6.1065193E1,2.5519482E1,6.40704E1,8.234072E1,3.1044296E1,2.0454514E1,4.580332E1,3.4788315E1,1.8888783E1,1.0841652E1,0E0,0E0,0E0,0E0,0E0,0E0,0E0,0E0,0E0,0E0,0E0,0E0,0E0,0E0,0E0,0E0],"parents":[2147483647,0,0,1,1,2,2,3,3,4,4,5,5,6,6,7,7,8,8,9,9,10,10,11,11,12,12,13,13,14,14],"right_children":[2,4,6,8,10,12,14,16,18,20,22,24,26,28,30,-1,-1,-1,-1,-1,-1,-1,-1,-1,-1,-1,-1,-1,-1,-1,-1],"split_conditions":[5.701207E-1,5.6969324E2,3.0920487E-2,1.915E4,4.1629087E3,-2.5076976E-3,1.3216648E-1,3.079345E2,2.3826999E2,8.367345E-3,-2.8337023E-1,3.91026E3,3.464E3,6.75436E3,2.6415916E3,4.497403E-3,2.169572E-2,-1.2065082E-2,4.7601718E-3,2.6599145E-2,-1.767993E-3,2.6113687E-2,-3.6985543E-2,5.9981137E-3,-3.3861995E-2,-8.467707E-3,-2.4086155E-2,5.115647E-2,8.6493307E-4,2.3508338E-2,5.712077E-2],"split_indices":[23,75,41,3,54,33,101,54,21,41,107,8,79,3,58,0,0,0,0,0,0,0,0,0,0,0,0,0,0,0,0],"split_type":[0,0,0,0,0,0,0,0,0,0,0,0,0,0,0,0,0,0,0,0,0,0,0,0,0,0,0,0,0,0,0],"sum_hessian":[1.1861274E4,6.5346724E3,5.3266025E3,5.7919575E3,7.427145E2,4.9101157E3,4.1648654E2,2.8849277E3,2.90703E3,6.8430383E2,5.8410645E1,1.1093966E3,3.8007192E3,2.6174213E2,1.5474442E2,2.1632012E3,7.2172656E2,1.4415006E3,1.4655294E3,5.683298E2,1.1597401E2,1.7725082E1,4.0685562E1,1.032918E3,7.647871E1,3.4029531E3,3.9776608E2,1.9231176E1,2.4251096E2,1.2486004E2,2.9884377E1],"tree_param":{"num_deleted":"0","num_feature":"108","num_nodes":"31","size_leaf_vector":"1"}},{"base_weights":[-6.425961E-6,-8.0030076E-2,1.11103825E-1,-1.9805017E-1,2.5888402E-2,-2.8611165E-2,1.8629573E-1,-1.3793795E-1,-4.8338765E-1,7.04661E-2,-3.8948455E-1,-2.4189141E-1,5.2932996E-2,3.1848383E-1,6.348474E-2,5.754245E-3,-9.813987E-3,-4.7071617E-2,-1.9465702E-2,4.412714E-3,-2.4282483E-2,-1.4264594E-2,-5.9083115E-2,-1.4548301E-2,4.5971036E-2,5.1104803E-2,1.7343294E-3,1.2063415E-2,3.4228195E-2,4.8857066E-3,-3.247207E-2],"categories":[],"categories_nodes":[],"categories_segments":[],"categories_sizes":[],"default_left":[0,0,0,0,0,0,0,0,0,0,0,0,0,0,0,0,0,0,0,0,0,0,0,0,0,0,0,0,0,0,0],"id":5,"left_children":[1,3,5,7,9,11,13,15,17,19,21,23,25,27,29,-1,-1,-1,-1,-1,-1,-1,-1,-1,-1,-1,-1,-1,-1,-1,-1],"loss_changes":[1.0546831E2,8.620241E1,5.2178143E1,5.5876312E1,6.733355E1,3.0247877E1,5.2396553E1,3.9811596E1,2.4071838E1,3.2524208E1,2.8753548E1,2.7681032E1,2.2218761E1,4.3783997E1,4.0938854E1,0E0,0E0,0E0,0E0,0E0,0E0,0E0,0E0,0E0,0E0,0E0,0E0,0E0,0E0,0E0,0E0],"parents":[2147483647,0,0,1,1,2,2,3,3,4,4,5,5,6,6,7,7,8,8,9,9,10,10,11,11,12,12,13,13,14,14],"right_children":[2,4,6,8,10,12,14,16,18,20,22,24,26,28,30,-1,-1,-1,-1,-1,-1,-1,-1,-1,-1,-1,-1,-1,-1,-1,-1],"split_conditions":[3.0801803E-2,2.624853E0,-3.6847442E-2,7.064893E0,3.543511E3,3.412124E1,-1.1824442E-2,-7.61026E-3,1.5752031E2,1.8484805E3,1.7901251E3,1.1593214E3,1.29263E2,4.3517984E4,3.95029E3,5.754245E-3,-9.813987E-3,-4.7071617E-2,-1.9465702E-2,4.412714E-3,-2.4282483E-2,-1.4264594E-2,-5.9083115E-2,-1.4548301E-2,4.5971036E-2,5.1104803E-2,1.7343294E-3,1.2063415E-2,3.4228195E-2,4.8857066E-3,-3.247207E-2],"split_indices":[102,20,101,24,26,70,61,101,74,43,43,21,54,19,79,0,0,0,0,0,0,0,0,0,0,0,0,0,0,0,0],"split_type":[0,0,0,0,0,0,0,0,0,0,0,0,0,0,0,0,0,0,0,0,0,0,0,0,0,0,0,0,0,0,0],"sum_hessian":[1.185977E4,6.894502E3,4.9652676E3,3.2605505E3,3.6339514E3,1.7374713E3,3.2277964E3,2.6944026E3,5.6614795E2,3.2825044E3,3.5144702E2,4.8001553E2,1.2574558E3,1.5537828E3,1.6740135E3,5.0467996E2,2.1897224E3,9.492935E1,4.7121863E2,3.1815784E3,1.009261E2,3.117974E2,3.964961E1,4.6127258E2,1.874295E1,2.2219967E1,1.2352358E3,1.284507E3,2.6927594E2,1.5981455E3,7.586805E1],"tree_param":{"num_deleted":"0","num_feature":"108","num_nodes":"31","size_leaf_vector":"1"}},{"base_weights":[-1.527868E-5,9.2918426E-2,-8.758099E-2,-1.8672745E-1,1.17148064E-1,-2.1020876E-1,1.239725E-2,-9.3806505E-1,-1.3306136E-1,2.1326038E-1,3.061763E-2,-1.5275899E-1,-4.6936044E-1,1.5214491E-1,-1.231139E-1,-5.6754977E-2,1.8405672E-2,2.794326E-3,-1.8655742E-2,4.88832E-5,1.748542E-2,2.6236817E-3,-3.1281933E-2,-3.573608E-2,-6.254904E-3,-3.1837888E-2,-1.1330836E-2,-1.2380087E-3,1.4496356E-2,-3.2092918E-2,-3.1489038E-3],"categories":[],"categories_nodes":[],"categories_segments":[],"categories_sizes":[],"default_left":[0,0,0,0,0,0,0,0,0,0,0,0,0,0,0,0,0,0,0,0,0,0,0,0,0,0,0,0,0,0,0],"id":6,"left_children":[1,3,5,7,9,11,13,15,17,19,21,23,25,27,29,-1,-1,-1,-1,-1,-1,-1,-1,-1,-1,-1,-1,-1,-1,-1,-1],"loss_changes":[9.650833E1,3.9004505E1,7.48625E1,1.8387758E1,4.4031387E1,4.075785E1,6.373471E1,8.252623E0,1.951025E1,7.266011E1,4.001641E1,3.4827354E1,2.0057167E1,4.039155E1,5.3263523E1,0E0,0E0,0E0,0E0,0E0,0E0,0E0,0E0,0E0,0E0,0E0,0E0,0E0,0E0,0E0,0E0],"parents":[2147483647,0,0,1,1,2,2,3,3,4,4,5,5,6,6,7,7,8,8,9,9,10,10,11,11,12,12,13,13,14,14],"right_children":[2,4,6,8,10,12,14,16,18,20,22,24,26,28,30,-1,-1,-1,-1,-1,-1,-1,-1,-1,-1,-1,-1,-1,-1,-1,-1],"split_conditions":[5.0394855E1,2.8865755E1,2.624853E0,1.121704E3,-1.0879709E-2,7.064893E0,1.5786484E3,4.0359024E1,-9.048394E-7,-3.092192E-2,4.07E3,7.946508E-1,1.9184024E2,2.454366E2,2.1043947E2,-5.6754977E-2,1.8405672E-2,2.794326E-3,-1.8655742E-2,4.88832E-5,1.748542E-2,2.6236817E-3,-3.1281933E-2,-3.573608E-2,-6.254904E-3,-3.1837888E-2,-1.1330836E-2,-1.2380087E-3,1.4496356E-2,-3.2092918E-2,-3.1489038E-3],"split_indices":[14,83,20,65,61,24,58,85,106,101,7,28,73,58,21,0,0,0,0,0,0,0,0,0,0,0,0,0,0,0,0],"split_type":[0,0,0,0,0,0,0,0,0,0,0,0,0,0,0,0,0,0,0,0,0,0,0,0,0,0,0,0,0,0,0],"sum_hessian":[1.1857257E4,5.752283E3,6.1049736E3,4.5812585E2,5.294157E3,2.7414097E3,3.363564E3,2.9442629E1,4.2868323E2,2.5075127E3,2.7866445E3,2.245261E3,4.9614883E2,1.6558373E3,1.7077268E3,2.569723E1,3.7453992E0,2.4030475E2,1.8837846E2,9.8150946E2,1.5260032E3,2.6977197E3,8.8924995E1,1.04166275E2,2.1410947E3,2.9268713E2,2.0346172E2,7.2534845E2,9.3048883E2,1.7639891E2,1.5313279E3],"tree_param":{"num_deleted":"0","num_feature":"108","num_nodes":"31","size_leaf_vector":"1"}},{"base_weights":[-3.2876902E-5,7.84022E-2,-9.6367836E-2,4.4464797E-2,3.4262466E-1,-1.2732397E-1,2.673808E-1,1.6305193E-1,-7.3280826E-2,4.006499E-1,-3.3365354E-1,6.0823448E-2,-1.8511319E-1,8.6040035E-2,5.7132494E-1,-7.4027455E-4,1.3800904E-2,-1.1589659E-2,4.127331E-3,5.1932335E-2,1.6725887E-2,2.5369866E-2,-3.5215896E-2,5.1621734E-3,-3.3303276E-2,-5.663023E-3,-1.5035912E-2,4.852857E-2,6.066538E-4,2.1952154E-2,5.456681E-2],"categories":[],"categories_nodes":[],"categories_segments":[],"categories_sizes":[],"default_left":[0,0,0,0,0,0,0,0,0,0,0,0,0,0,0,0,0,0,0,0,0,0,0,0,0,0,0,0,0,0,0],"id":7,"left_children":[1,3,5,7,9,11,13,15,17,19,21,23,25,27,29,-1,-1,-1,-1,-1,-1,-1,-1,-1,-1,-1,-1,-1,-1,-1,-1],"loss_changes":[8.9589966E1,5.858918E1,5.9951942E1,8.089753E1,2.9319168E1,5.3337692E1,2.297096E1,5.7997223E1,7.183371E1,2.8572243E1,1.88493E1,3.562727E1,3.1134842E1,1.7165886E1,1.0244358E1,0E0,0E0,0E0,0E0,0E0,0E0,0E0,0E0,0E0,0E0,0E0,0E0,0E0,0E0,0E0,0E0],"parents":[2147483647,0,0,1,1,2,2,3,3,4,4,5,5,6,6,7,7,8,8,9,9,10,10,11,11,12,12,13,13,14,14],"right_children":[2,4,6,8,10,12,14,16,18,20,22,24,26,28,30,-1,-1,-1,-1,-1,-1,-1,-1,-1,-1,-1,-1,-1,-1,-1,-1],"split_conditions":[5.701207E-1,5.6969324E2,3.0920487E-2,1.915E4,4.1629087E3,-2.6438877E-3,1.3216648E-1,1.8141104E0,2.3826999E2,7.1538074E2,-2.8337023E-1,4.099438E3,-9.462064E-2,6.75436E3,2.6415916E3,-7.4027455E-4,1.3800904E-2,-1.1589659E-2,4.127331E-3,5.1932335E-2,1.6725887E-2,2.5369866E-2,-3.5215896E-2,5.1621734E-3,-3.3303276E-2,-5.663023E-3,-1.5035912E-2,4.852857E-2,6.066538E-4,2.1952154E-2,5.456681E-2],"split_indices":[23,75,41,3,54,12,101,91,21,43,107,26,107,3,58,0,0,0,0,0,0,0,0,0,0,0,0,0,0,0,0],"split_type":[0,0,0,0,0,0,0,0,0,0,0,0,0,0,0,0,0,0,0,0,0,0,0,0,0,0,0,0,0,0,0],"sum_hessian":[1.1854735E4,6.534549E3,5.320186E3,5.791803E3,7.4274567E2,4.9035303E3,4.166556E2,2.8853987E3,2.9064048E3,6.8442865E2,5.831701E1,1.1522E3,3.7513303E3,2.617638E2,1.5489183E2,1.1211283E3,1.7642703E3,1.4405483E3,1.4658564E3,6.2900757E1,6.215279E2,1.7726362E1,4.0590645E1,1.0894778E3,6.272212E1,2.3146628E3,1.4366675E3,1.9249546E1,2.4251424E2,1.249508E2,2.994103E1],"tree_param":{"num_deleted":"0","num_feature":"108","num_nodes":"31","size_leaf_vector":"1"}},{"base_weights":[-2.1826401E-5,8.882112E-2,-7.871538E-2,5.126132E-1,7.232386E-2,-1.9053812E-1,1.4441751E-2,-1.0655591E0,5.8278114E-1,-1.9899872E-1,9.684018E-2,-1.352957E-1,-4.4317088E-1,5.7281427E-2,-3.9321578E-1,2.753866E-2,-7.5865366E-2,1.8005442E-2,4.8708048E-2,-4.6387645E-3,-3.7578795E-2,1.0431115E-2,9.850778E-4,-3.2727893E-2,-5.4604383E-3,2.6822051E-2,-2.4130842E-2,2.0418519E-3,3.1647854E-2,-1.4189693E-2,-5.6874007E-2],"categories":[],"categories_nodes":[],"categories_segments":[],"categories_sizes":[],"default_left":[0,0,0,0,0,0,0,0,0,0,0,0,0,0,0,0,0,0,0,0,0,0,0,0,0,0,0,0,0,0,0],"id":8,"left_children":[1,3,5,7,9,11,13,15,17,19,21,23,25,27,29,-1,-1,-1,-1,-1,-1,-1,-1,-1,-1,-1,-1,-1,-1,-1,-1],"loss_changes":[8.287951E1,3.889248E1,6.548822E1,2.3706512E1,3.5677933E1,3.9812805E1,5.9929436E1,7.5737076E0,1.7100311E1,2.6025248E1,4.239513E1,3.1704987E1,2.0051216E1,2.9368E1,2.6253216E1,0E0,0E0,0E0,0E0,0E0,0E0,0E0,0E0,0E0,0E0,0E0,0E0,0E0,0E0,0E0,0E0],"parents":[2147483647,0,0,1,1,2,2,3,3,4,4,5,5,6,6,7,7,8,8,9,9,10,10,11,11,12,12,13,13,14,14],"right_children":[2,4,6,8,10,12,14,16,18,20,22,24,26,28,30,-1,-1,-1,-1,-1,-1,-1,-1,-1,-1,-1,-1,-1,-1,-1,-1],"split_conditions":[4.9940468E1,5.29282E3,2.624853E0,6.2445015E-1,2.8865755E1,7.064893E0,3.543511E3,6.4295306E2,1.4108263E2,-9.4421315E-1,-2.9135208E0,7.946508E-1,-4.8414357E-3,8.201537E1,5.379987E-2,2.753866E-2,-7.5865366E-2,1.8005442E-2,4.8708048E-2,-4.6387645E-3,-3.7578795E-2,1.0431115E-2,9.850778E-4,-3.2727893E-2,-5.4604383E-3,2.6822051E-2,-2.4130842E-2,2.0418519E-3,3.1647854E-2,-1.4189693E-2,-5.6874007E-2],"split_indices":[14,3,20,59,22,24,26,67,26,52,24,28,37,69,61,0,0,0,0,0,0,0,0,0,0,0,0,0,0,0,0],"split_type":[0,0,0,0,0,0,0,0,0,0,0,0,0,0,0,0,0,0,0,0,0,0,0,0,0,0,0,0,0,0,0],"sum_hessian":[1.1852551E4,5.5672E3,6.285351E3,2.0747137E2,5.3597285E3,2.8560261E3,3.429325E3,8.227945E0,1.9924344E2,4.435736E2,4.9161553E3,2.344826E3,5.1120016E2,3.1039937E3,3.253312E2,1.749416E0,6.478529E0,1.2821606E2,7.102737E1,3.7303244E2,7.054116E1,2.0066296E3,2.9095254E3,1.1101306E2,2.233813E3,1.9299974E1,4.919002E2,3.0188306E3,8.516312E1,2.8483588E2,4.0495323E1],"tree_param":{"num_deleted":"0","num_feature":"108","num_nodes":"31","size_leaf_vector":"1"}},{"base_weights":[-3.1487267E-5,9.231808E-2,-6.98438E-2,1.17744714E-1,-2.2140989E-1,-1.6143605E-1,3.2716256E-2,1.3911252E-1,-2.2816621E-1,-3.3217412E-1,5.690751E-1,-1.0999923E-1,-4.795123E-1,5.1482018E-2,-8.634971E-1,-3.2625769E-3,8.80322E-3,-1.5873041E-2,3.299282E-2,-1.2636623E-2,-5.281743E-2,-3.2467803E-3,5.9618395E-2,-1.3402893E-2,-1.0722432E-3,-2.6550049E-2,2.2373086E-2,3.6731777E-3,-2.349165E-2,2.6458232E-2,-5.6387257E-2],"categories":[],"categories_nodes":[],"categories_segments":[],"categories_sizes":[],"default_left":[0,0,0,0,0,0,0,0,0,0,0,0,0,0,0,0,0,0,0,0,0,0,0,0,0,0,0,0,0,0,0],"id":9,"left_children":[1,3,5,7,9,11,13,15,17,19,21,23,25,27,29,-1,-1,-1,-1,-1,-1,-1,-1,-1,-1,-1,-1,-1,-1,-1,-1],"loss_changes":[7.640718E1,4.07259E1,6.3405445E1,3.4920883E1,3.3710945E1,5.8280342E1,5.360692E1,3.358806E1,2.2015587E1,1.908796E1,1.881734E1,4.2969925E1,2.3911629E1,3.5792473E1,2.4655315E1,0E0,0E0,0E0,0E0,0E0,0E0,0E0,0E0,0E0,0E0,0E0,0E0,0E0,0E0,0E0,0E0],"parents":[2147483647,0,0,1,1,2,2,3,3,4,4,5,5,6,6,7,7,8,8,9,9,10,10,11,11,12,12,13,13,14,14],"right_children":[2,4,6,8,10,12,14,16,18,20,22,24,26,28,30,-1,-1,-1,-1,-1,-1,-1,-1,-1,-1,-1,-1,-1,-1,-1,-1],"split_conditions":[-9.3335996E-4,9.899637E3,2.911509E0,1.0667467E0,2.754226E4,7.352055E0,4.1700713E3,3.378089E1,1.5454171E0,3.011141E0,5.353528E3,1.7266662E0,1.0592948E2,1.8484805E3,3.427911E1,-3.2625769E-3,8.80322E-3,-1.5873041E-2,3.299282E-2,-1.2636623E-2,-5.281743E-2,-3.2467803E-3,5.9618395E-2,-1.3402893E-2,-1.0722432E-3,-2.6550049E-2,2.2373086E-2,3.6731777E-3,-2.349165E-2,2.6458232E-2,-5.6387257E-2],"split_indices":[41,67,20,60,64,24,58,85,107,107,65,28,59,43,89,0,0,0,0,0,0,0,0,0,0,0,0,0,0,0,0],"split_type":[0,0,0,0,0,0,0,0,0,0,0,0,0,0,0,0,0,0,0,0,0,0,0,0,0,0,0,0,0,0,0],"sum_hessian":[1.1849335E4,5.101118E3,6.7482163E3,4.719262E3,3.8185614E2,3.5644106E3,3.1838057E3,4.4452646E3,2.7399762E2,3.3543427E2,4.6421886E1,3.0693975E3,4.9501328E2,3.1194307E3,6.437504E1,6.805707E2,3.7646938E3,2.4954707E2,2.4450552E1,3.0349048E2,3.1943796E1,2.3457172E1,2.2964714E1,1.1014386E3,1.9679589E3,4.693694E2,2.564389E1,2.9940442E3,1.25386406E2,1.0106804E1,5.426823E1],"tree_param":{"num_deleted":"0","num_feature":"108","num_nodes":"31","size_leaf_vector":"1"}},{"base_weights":[-3.8604852E-5,9.960903E-2,-6.203952E-2,-1.7695187E-3,3.1863526E-1,1.2126293E-1,-1.455188E-1,2.5404945E-1,-1.0291872E-1,1.0999234E0,2.8015286E-1,1.308998E-1,-1.3742532E0,-9.6932423E-1,-1.3057318E-1,8.607983E-2,1.1161268E-2,-2.168221E-3,-2.1115331E-2,7.849424E-2,2.3231622E-2,1.0683536E-2,3.795087E-2,2.9553475E-3,1.6336802E-2,-8.693037E-2,5.5661995E-2,5.33278E-2,-5.478893E-2,-2.978143E-2,-5.492841E-3],"categories":[],"categories_nodes":[],"categories_segments":[],"categories_sizes":[],"default_left":[0,0,0,0,0,0,0,0,0,0,0,0,0,0,0,0,0,0,0,0,0,0,0,0,0,0,0,0,0,0,0],"id":10,"left_children":[1,3,5,7,9,11,13,15,17,19,21,23,25,27,29,-1,-1,-1,-1,-1,-1,-1,-1,-1,-1,-1,-1,-1,-1,-1,-1],"loss_changes":[7.320469E1,1.0091243E2,1.11785225E2,8.044011E1,4.2925552E1,3.3127407E1,6.1669197E1,3.9462524E1,4.2356697E1,1.9322205E1,4.351056E1,3.1929482E1,1.5280203E1,2.4152954E1,4.7438774E1,0E0,0E0,0E0,0E0,0E0,0E0,0E0,0E0,0E0,0E0,0E0,0E0,0E0,0E0,0E0,0E0],"parents":[2147483647,0,0,1,1,2,2,3,3,4,4,5,5,6,6,7,7,8,8,9,9,10,10,11,11,12,12,13,13,14,14],"right_children":[2,4,6,8,10,12,14,16,18,20,22,24,26,28,30,-1,-1,-1,-1,-1,-1,-1,-1,-1,-1,-1,-1,-1,-1,-1,-1],"split_conditions":[1.20894E3,2.747406E2,-4.663311E0,7.142E3,1.036E4,5.6135855E0,1.6811376E0,-1.0637625E0,1.001567E4,6.16158E0,2.2680137E4,5.6969324E2,1.1593214E3,-8.021266E-2,1.2604493E3,8.607983E-2,1.1161268E-2,-2.168221E-3,-2.1115331E-2,7.849424E-2,2.3231622E-2,1.0683536E-2,3.795087E-2,2.9553475E-3,1.6336802E-2,-8.693037E-2,5.5661995E-2,5.33278E-2,-5.478893E-2,-2.978143E-2,-5.492841E-3],"split_indices":[8,58,24,3,1,107,51,107,2,91,38,75,21,101,58,0,0,0,0,0,0,0,0,0,0,0,0,0,0,0,0],"split_type":[0,0,0,0,0,0,0,0,0,0,0,0,0,0,0,0,0,0,0,0,0,0,0,0,0,0,0,0,0,0,0],"sum_hessian":[1.1846784E4,4.543646E3,7.3031377E3,3.1066794E3,1.4369668E3,2.2850999E3,5.018038E3,8.798691E2,2.2268103E3,6.616059E1,1.3708062E3,2.2713757E3,1.3723929E1,8.827798E1,4.92976E3,1.6972025E1,8.6289703E2,1.8778036E3,3.4900677E2,3.7183025E1,2.8977564E1,1.2049637E3,1.6584242E2,1.6630204E3,6.0835547E2,1.2233146E1,1.4907831E0,4.7277737E0,8.35502E1,2.0905258E2,4.7207075E3],"tree_param":{"num_deleted":"0","num_feature":"108","num_nodes":"31","size_leaf_vector":"1"}},{"base_weights":[-2.480412E-5,6.830701E-2,-8.40561E-2,3.795454E-2,3.046227E-1,-1.1231896E-1,2.4752177E-1,1.4946982E-1,-7.280406E-2,3.5722837E-1,-3.6672956E-1,6.643392E-2,-1.6463493E-1,3.678099E-1,-2.1117467E-1,3.5547935E-3,1.9187367E-2,-1.0870197E-2,3.4585737E-3,4.8592843E-2,1.4700174E-2,2.4790112E-2,-3.9367802E-2,1.1502285E-2,-6.62826E-3,-4.304709E-3,-1.44965425E-2,2.054817E-2,-5.2130837E-2,-2.2687813E-2,6.0910966E-2],"categories":[],"categories_nodes":[],"categories_segments":[],"categories_sizes":[],"default_left":[0,0,0,0,0,0,0,0,0,0,0,0,0,0,0,0,0,0,0,0,0,0,0,0,0,0,0,0,0,0,0],"id":11,"left_children":[1,3,5,7,9,11,13,15,17,19,21,23,25,27,29,-1,-1,-1,-1,-1,-1,-1,-1,-1,-1,-1,-1,-1,-1,-1,-1],"loss_changes":[6.802246E1,4.685211E1,4.9816772E1,7.153763E1,2.6389648E1,4.579929E1,2.3119135E1,5.2963127E1,5.96752E1,2.6527313E1,2.017048E1,3.6146957E1,3.7252304E1,2.0587322E1,3.0856485E1,0E0,0E0,0E0,0E0,0E0,0E0,0E0,0E0,0E0,0E0,0E0,0E0,0E0,0E0,0E0,0E0],"parents":[2147483647,0,0,1,1,2,2,3,3,4,4,5,5,6,6,7,7,8,8,9,9,10,10,11,11,12,12,13,13,14,14],"right_children":[2,4,6,8,10,12,14,16,18,20,22,24,26,28,30,-1,-1,-1,-1,-1,-1,-1,-1,-1,-1,-1,-1,-1,-1,-1,-1],"split_conditions":[5.701207E-1,5.6969324E2,3.0920487E-2,1.915E4,4.16255E3,-2.5076976E-3,2.097807E0,3.079345E2,2.3826999E2,7.1538074E2,-2.9998544E-1,2.4405542E1,-9.462064E-2,6.626E4,2.5429607E3,3.5547935E-3,1.9187367E-2,-1.0870197E-2,3.4585737E-3,4.8592843E-2,1.4700174E-2,2.4790112E-2,-3.9367802E-2,1.1502285E-2,-6.62826E-3,-4.304709E-3,-1.44965425E-2,2.054817E-2,-5.2130837E-2,-2.2687813E-2,6.0910966E-2],"split_indices":[23,75,41,3,79,33,107,54,21,43,107,91,107,2,58,0,0,0,0,0,0,0,0,0,0,0,0,0,0,0,0],"split_type":[0,0,0,0,0,0,0,0,0,0,0,0,0,0,0,0,0,0,0,0,0,0,0,0,0,0,0,0,0,0,0],"sum_hessian":[1.1844452E4,6.532555E3,5.3118975E3,5.7900405E3,7.4251434E2,4.895296E3,4.166014E2,2.8849907E3,2.90505E3,6.889942E2,5.352014E1,1.1082759E3,3.7870203E3,3.302065E2,8.63949E1,2.162772E3,7.2221875E2,1.4389602E3,1.4660897E3,6.292356E1,6.260706E2,1.7485615E1,3.6034523E1,6.0813086E2,5.00145E2,2.3288726E3,1.4581478E3,3.21091E2,9.115506E0,7.4443665E1,1.1951236E1],"tree_param":{"num_deleted":"0","num_feature":"108","num_nodes":"31","size_leaf_vector":"1"}},{"base_weights":[-2.07775E-5,8.4732935E-2,-6.413541E-2,-1.0396342E-1,1.24043666E-1,-1.4972281E-1,3.161294E-2,-2.2920778E-1,7.289373E-2,1.8278247E-1,-6.377906E-2,-1.0203839E-1,-4.4571182E-1,4.925466E-2,-8.1655455E-1,-7.6341177E-3,-6.393468E-2,2.7334733E-2,-6.8975897E-3,7.2990805E-3,2.6912529E-2,-3.3520066E-4,-3.082393E-2,-9.141756E-3,2.2875988E-3,-2.4756411E-2,2.1911945E-2,3.5192464E-3,-2.2641856E-2,2.5607565E-2,-5.3569432E-2],"categories":[],"categories_nodes":[],"categories_segments":[],"categories_sizes":[],"default_left":[0,0,0,0,0,0,0,0,0,0,0,0,0,0,0,0,0,0,0,0,0,0,0,0,0,0,0,0,0,0,0],"id":12,"left_children":[1,3,5,7,9,11,13,15,17,19,21,23,25,27,29,-1,-1,-1,-1,-1,-1,-1,-1,-1,-1,-1,-1,-1,-1,-1,-1],"loss_changes":[6.4357124E1,3.784933E1,5.526059E1,1.950832E1,4.6588585E1,5.0207092E1,4.7672207E1,4.1197327E1,3.6595753E1,4.199546E1,3.174653E1,3.6640263E1,2.1783241E1,3.3126312E1,2.2530445E1,0E0,0E0,0E0,0E0,0E0,0E0,0E0,0E0,0E0,0E0,0E0,0E0,0E0,0E0,0E0,0E0],"parents":[2147483647,0,0,1,1,2,2,3,3,4,4,5,5,6,6,7,7,8,8,9,9,10,10,11,11,12,12,13,13,14,14],"right_children":[2,4,6,8,10,12,14,16,18,20,22,24,26,28,30,-1,-1,-1,-1,-1,-1,-1,-1,-1,-1,-1,-1,-1,-1,-1,-1],"split_conditions":[-9.3335996E-4,3.3418964E1,2.911509E0,2.925936E4,2.9343762E0,7.352055E0,4.1700713E3,2.8503629E4,2.2734348E3,5.883264E2,3.9930322E3,8.8131096E1,1.0592948E2,1.8484805E3,3.427911E1,-7.6341177E-3,-6.393468E-2,2.7334733E-2,-6.8975897E-3,7.2990805E-3,2.6912529E-2,-3.3520066E-4,-3.082393E-2,-9.141756E-3,2.2875988E-3,-2.4756411E-2,2.1911945E-2,3.5192464E-3,-2.2641856E-2,2.5607565E-2,-5.3569432E-2],"split_indices":[41,69,20,64,24,24,58,18,27,75,26,39,59,43,89,0,0,0,0,0,0,0,0,0,0,0,0,0,0,0,0],"split_type":[0,0,0,0,0,0,0,0,0,0,0,0,0,0,0,0,0,0,0,0,0,0,0,0,0,0,0,0,0,0,0],"sum_hessian":[1.1841519E4,5.099768E3,6.741751E3,8.789681E2,4.2208E3,3.5594612E3,3.1822898E3,5.143948E2,3.645733E2,3.2152915E3,1.0055084E3,3.0667468E3,4.927143E2,3.1183704E3,6.3919567E1,4.8050336E2,3.389142E1,1.1178442E2,2.527889E2,2.914926E3,3.0036548E2,9.1230994E2,9.319845E1,1.9826167E3,1.0841301E3,4.670445E2,2.5669794E1,2.9932603E3,1.2510997E2,1.0123879E1,5.379569E1],"tree_param":{"num_deleted":"0","num_feature":"108","num_nodes":"31","size_leaf_vector":"1"}},{"base_weights":[-3.2631477E-5,9.516955E-2,-5.550262E-2,-2.8058963E-3,3.38001E-1,9.4115935E-2,-1.2532306E-1,2.4059781E-1,-9.907268E-2,1.0551562E0,2.942701E-1,-1.3141787E-1,1.687371E-1,-8.066213E-1,-1.1234203E-1,2.6313453E-3,2.336456E-2,-2.1166787E-3,-2.0180054E-2,7.0004724E-2,-2.185593E-2,1.5838377E-2,-5.241376E-2,-1.7268812E-2,4.0258276E-3,1.210189E-2,-4.3300013E-3,3.002525E-2,-4.8420623E-2,-4.5116246E-3,-2.1956457E-2],"categories":[],"categories_nodes":[],"categories_segments":[],"categories_sizes":[],"default_left":[0,0,0,0,0,0,0,0,0,0,0,0,0,0,0,0,0,0,0,0,0,0,0,0,0,0,0,0,0,0,0],"id":13,"left_children":[1,3,5,7,9,11,13,15,17,19,21,23,25,27,29,-1,-1,-1,-1,-1,-1,-1,-1,-1,-1,-1,-1,-1,-1,-1,-1],"loss_changes":[6.252633E1,1.0370728E2,7.816374E1,7.282225E1,3.898987E1,4.00921E1,4.5024918E1,3.7508144E1,3.8462997E1,3.748561E1,3.6047844E1,2.6893892E1,3.3512806E1,2.2258827E1,3.613704E1,0E0,0E0,0E0,0E0,0E0,0E0,0E0,0E0,0E0,0E0,0E0,0E0,0E0,0E0,0E0,0E0],"parents":[2147483647,0,0,1,1,2,2,3,3,4,4,5,5,6,6,7,7,8,8,9,9,10,10,11,11,12,12,13,13,14,14],"right_children":[2,4,6,8,10,12,14,16,18,20,22,24,26,28,30,-1,-1,-1,-1,-1,-1,-1,-1,-1,-1,-1,-1,-1,-1,-1,-1],"split_conditions":[1.1344844E3,2.747406E2,-4.663311E0,7.142E3,5.381552E1,3.4102016E1,1.6811376E0,1.3925868E2,1.001567E4,5.153675E-1,9.996776E-2,3.343295E1,7.898158E-1,-1.3918439E0,3.9599138E3,2.6313453E-3,2.336456E-2,-2.1166787E-3,-2.0180054E-2,7.0004724E-2,-2.185593E-2,1.5838377E-2,-5.241376E-2,-1.7268812E-2,4.0258276E-3,1.210189E-2,-4.3300013E-3,3.002525E-2,-4.8420623E-2,-4.5116246E-3,-2.1956457E-2],"split_indices":[58,58,24,3,43,83,51,27,2,25,61,85,40,36,26,0,0,0,0,0,0,0,0,0,0,0,0,0,0,0,0],"split_type":[0,0,0,0,0,0,0,0,0,0,0,0,0,0,0,0,0,0,0,0,0,0,0,0,0,0,0,0,0,0,0],"sum_hessian":[1.1838171E4,4.3579614E3,7.4802095E3,3.1058354E3,1.2521259E3,2.37992E3,5.1002896E3,8.798069E2,2.2260283E3,7.063502E1,1.1814908E3,5.914798E2,1.7884401E3,9.4217606E1,5.0060723E3,4.8165643E2,3.9815048E2,1.8773782E3,3.4865024E2,5.742341E1,1.321161E1,1.16277E3,1.8720848E1,2.9402115E2,2.9745865E2,1.3895797E3,3.9886032E2,9.436356E0,8.478125E1,4.690033E3,3.1603897E2],"tree_param":{"num_deleted":"0","num_feature":"108","num_nodes":"31","size_leaf_vector":"1"}},{"base_weights":[-3.695259E-5,9.236484E-2,-5.475253E-2,-1.6945645E-1,1.2185658E-1,-1.1516319E-1,4.2522687E-2,-5.5207856E-2,-6.875677E-1,1.8436271E-1,-5.5613354E-2,1.5492839E-1,-1.421949E-1,2.3729096E-1,-4.0635053E-2,2.678134E-2,-6.625558E-3,-4.7713324E-2,-4.2921216E-3,7.42073E-4,1.2970425E-2,-9.064363E-3,6.8514915E-3,-1.552043E-2,2.4006492E-2,-4.120281E-2,-6.402676E-3,-1.1558834E-2,1.4898884E-2,3.278486E-4,-2.441844E-2],"categories":[],"categories_nodes":[],"categories_segments":[],"categories_sizes":[],"default_left":[0,0,0,0,0,0,0,0,0,0,0,0,0,0,0,0,0,0,0,0,0,0,0,0,0,0,0,0,0,0,0],"id":14,"left_children":[1,3,5,7,9,11,13,15,17,19,21,23,25,27,29,-1,-1,-1,-1,-1,-1,-1,-1,-1,-1,-1,-1,-1,-1,-1,-1],"loss_changes":[5.9845776E1,3.4014046E1,4.369412E1,2.636855E1,4.390833E1,3.350916E1,4.6153255E1,1.6814613E1,1.2838371E1,3.723015E1,2.4998095E1,6.3368107E1,4.010225E1,2.430772E1,4.220722E1,0E0,0E0,0E0,0E0,0E0,0E0,0E0,0E0,0E0,0E0,0E0,0E0,0E0,0E0,0E0,0E0],"parents":[2147483647,0,0,1,1,2,2,3,3,4,4,5,5,6,6,7,7,8,8,9,9,10,10,11,11,12,12,13,13,14,14],"right_children":[2,4,6,8,10,12,14,16,18,20,22,24,26,28,30,-1,-1,-1,-1,-1,-1,-1,-1,-1,-1,-1,-1,-1,-1,-1,-1],"split_conditions":[-1.4031348E-3,2.8865755E1,2.0328549E4,-1.0204518E0,6.6662908E0,7.250482E3,4.629027E1,-5.168537E2,-4.864767E-2,-3.8455464E-2,7.7369305E2,1.37022E2,7.3016826E3,-6.598611E-1,5.325287E4,2.678134E-2,-6.625558E-3,-4.7713324E-2,-4.2921216E-3,7.42073E-4,1.2970425E-2,-9.064363E-3,6.8514915E-3,-1.552043E-2,2.4006492E-2,-4.120281E-2,-6.402676E-3,-1.1558834E-2,1.4898884E-2,3.278486E-4,-2.441844E-2],"split_indices":[37,22,9,52,88,18,85,16,61,101,43,46,19,40,19,0,0,0,0,0,0,0,0,0,0,0,0,0,0,0,0],"split_type":[0,0,0,0,0,0,0,0,0,0,0,0,0,0,0,0,0,0,0,0,0,0,0,0,0,0,0,0,0,0,0],"sum_hessian":[1.1835013E4,4.401397E3,7.433616E3,4.4510504E2,3.9562917E3,4.585628E3,2.8479885E3,3.6559445E2,7.951058E1,2.925775E3,1.0305168E3,4.167612E2,4.1688667E3,8.5158685E2,1.9964016E3,4.1613163E1,3.239813E2,5.4686405E1,2.4824183E1,8.9814636E2,2.0276287E3,6.236969E2,4.0681985E2,1.7146053E2,2.4530067E2,8.3539314E1,4.0853271E3,9.734307E1,7.542438E2,1.8069326E3,1.8946893E2],"tree_param":{"num_deleted":"0","num_feature":"108","num_nodes":"31","size_leaf_vector":"1"}},{"base_weights":[-4.4077642E-5,7.03412E-2,-6.6516824E-2,-1.7789803E-1,9.1826975E-2,-1.0882451E-1,1.24592945E-1,-5.811278E-1,-8.594851E-2,3.8121557E-1,6.967994E-2,-9.861218E-2,-7.831794E-1,1.715759E-1,-5.111871E-1,-4.1537597E-3,-5.0751816E-2,3.5525315E-2,-1.0146576E-2,-1.4550313E-2,2.3321286E-2,-2.675117E-4,8.657218E-3,-4.597443E-3,-5.1151324E-2,4.370748E-2,-4.8252996E-2,-4.139365E-3,1.4107897E-2,-6.0104787E-2,-1.0987173E-2],"categories":[],"categories_nodes":[],"categories_segments":[],"categories_sizes":[],"default_left":[0,0,0,0,0,0,0,0,0,0,0,0,0,0,0,0,0,0,0,0,0,0,0,0,0,0,0,0,0,0,0],"id":15,"left_children":[1,3,5,7,9,11,13,15,17,19,21,23,25,27,29,-1,-1,-1,-1,-1,-1,-1,-1,-1,-1,-1,-1,-1,-1,-1,-1],"loss_changes":[5.5370705E1,3.0674728E1,4.922525E1,1.6939634E1,3.388349E1,3.4244976E1,3.3054962E1,1.8266441E1,3.501952E1,2.1667763E1,3.816371E1,3.0153713E1,2.3211403E1,2.8951977E1,1.5079046E1,0E0,0E0,0E0,0E0,0E0,0E0,0E0,0E0,0E0,0E0,0E0,0E0,0E0,0E0,0E0,0E0],"parents":[2147483647,0,0,1,1,2,2,3,3,4,4,5,5,6,6,7,7,8,8,9,9,10,10,11,11,12,12,13,13,14,14],"right_children":[2,4,6,8,10,12,14,16,18,20,22,24,26,28,30,-1,-1,-1,-1,-1,-1,-1,-1,-1,-1,-1,-1,-1,-1,-1,-1],"split_conditions":[5.0394855E1,2.8865755E1,6.739704E1,2.092096E2,7.1927E3,1.9215128E3,3.552582E3,1.706914E2,1.3247235E2,1.30146675E1,3.857224E2,6.997587E4,1.1980536E3,2.8944679E-2,3.6011375E3,-4.1537597E-3,-5.0751816E-2,3.5525315E-2,-1.0146576E-2,-1.4550313E-2,2.3321286E-2,-2.675117E-4,8.657218E-3,-4.597443E-3,-5.1151324E-2,4.370748E-2,-4.8252996E-2,-4.139365E-3,1.4107897E-2,-6.0104787E-2,-1.0987173E-2],"split_indices":[14,83,68,58,3,43,46,58,39,43,43,42,4,101,58,0,0,0,0,0,0,0,0,0,0,0,0,0,0,0,0],"split_type":[0,0,0,0,0,0,0,0,0,0,0,0,0,0,0,0,0,0,0,0,0,0,0,0,0,0,0,0,0,0,0],"sum_hessian":[1.1832628E4,5.7471484E3,6.0854795E3,4.5722693E2,5.289922E3,4.982819E3,1.1026608E3,8.391428E1,3.7331265E2,3.749075E2,4.915014E3,4.9096147E3,7.320417E1,1.0274633E3,7.519749E1,3.9624084E1,4.42902E1,4.7159985E1,3.2615265E2,4.1904926E1,3.3300256E2,2.8495386E3,2.0654756E3,4.8755703E3,3.404441E1,6.8628097E0,6.634136E1,3.1140775E2,7.160555E2,2.1382526E1,5.3814957E1],"tree_param":{"num_deleted":"0","num_feature":"108","num_nodes":"31","size_leaf_vector":"1"}},{"base_weights":[-5.569063E-5,8.832979E-2,-5.158055E-2,-4.819838E-3,3.1909943E-1,8.591595E-2,-1.1578629E-1,2.1629807E-1,-9.228068E-2,1.3285149E0,2.9031512E-1,-1.1849555E-1,1.5945247E-1,-7.635558E-1,-1.03508346E-1,8.262215E-2,9.393204E-3,-4.1323403E-4,-1.4082695E-2,-7.0058934E-2,7.697072E-2,2.007671E-2,1.3436968E-3,-4.2813834E-2,-2.9739253E-3,1.1265786E-2,-4.079697E-3,1.09452E-2,-4.93267E-2,-6.7610326E-3,5.3326017E-3],"categories":[],"categories_nodes":[],"categories_segments":[],"categories_sizes":[],"default_left":[0,0,0,0,0,0,0,0,0,0,0,0,0,0,0,0,0,0,0,0,0,0,0,0,0,0,0,0,0,0,0],"id":16,"left_children":[1,3,5,7,9,11,13,15,17,19,21,23,25,27,29,-1,-1,-1,-1,-1,-1,-1,-1,-1,-1,-1,-1,-1,-1,-1,-1],"loss_changes":[5.388285E1,9.366704E1,6.599559E1,6.0073288E1,3.602218E1,3.5792297E1,4.0448242E1,3.56422E1,3.541165E1,2.1996166E1,3.5722847E1,2.7389553E1,2.7811882E1,2.094645E1,3.3351353E1,0E0,0E0,0E0,0E0,0E0,0E0,0E0,0E0,0E0,0E0,0E0,0E0,0E0,0E0,0E0,0E0],"parents":[2147483647,0,0,1,1,2,2,3,3,4,4,5,5,6,6,7,7,8,8,9,9,10,10,11,11,12,12,13,13,14,14],"right_children":[2,4,6,8,10,12,14,16,18,20,22,24,26,28,30,-1,-1,-1,-1,-1,-1,-1,-1,-1,-1,-1,-1,-1,-1,-1,-1],"split_conditions":[1.1344844E3,2.747406E2,-4.663311E0,7.142E3,1.0203586E4,3.410663E1,1.6811376E0,-1.0762657E0,7.177368E-1,2.651224E2,6.8615514E-1,1.2058191E3,8.3066183E-1,-1.1285992E0,8.076215E-1,8.262215E-2,9.393204E-3,-4.1323403E-4,-1.4082695E-2,-7.0058934E-2,7.697072E-2,2.007671E-2,1.3436968E-3,-4.2813834E-2,-2.9739253E-3,1.1265786E-2,-4.079697E-3,1.09452E-2,-4.93267E-2,-6.7610326E-3,5.3326017E-3],"split_indices":[58,58,24,3,30,84,51,107,23,27,107,27,40,32,107,0,0,0,0,0,0,0,0,0,0,0,0,0,0,0,0],"split_type":[0,0,0,0,0,0,0,0,0,0,0,0,0,0,0,0,0,0,0,0,0,0,0,0,0,0,0,0,0,0,0],"sum_hessian":[1.18298545E4,4.3563237E3,7.473531E3,3.104271E3,1.2520527E3,2.3788625E3,5.0946685E3,8.794297E2,2.2248413E3,3.346153E1,1.2185912E3,6.292123E2,1.7496503E3,9.363082E1,5.0010376E3,1.5964784E1,8.634649E2,1.5418422E3,6.829992E2,1.9950856E0,3.1466444E1,8.5648E2,3.6211124E2,4.5603756E1,5.836085E2,1.374224E3,3.754262E2,1.7322916E1,7.630791E1,4.3456533E3,6.5538403E2],"tree_param":{"num_deleted":"0","num_feature":"108","num_nodes":"31","size_leaf_vector":"1"}},{"base_weights":[-5.246217E-5,8.5534506E-2,-5.0755296E-2,1.1344661E-1,-1.5532304E-1,-1.08115025E-1,3.987864E-2,1.6950813E-1,-4.8459116E-2,-9.861812E-2,-9.936298E-1,1.7859708E-1,-1.3702822E-1,2.1503967E-1,-3.3776846E-2,6.7518855E-4,1.1798909E-2,-8.5104145E-3,6.894547E-3,3.2589674E-2,-7.472299E-3,2.8557086E-3,-6.737594E-2,-1.2613538E-2,2.4032213E-2,-4.144072E-2,-6.157429E-3,-5.4465807E-3,1.4987293E-2,6.2422256E-4,-2.3771344E-2],"categories":[],"categories_nodes":[],"categories_segments":[],"categories_sizes":[],"default_left":[0,0,0,0,0,0,0,0,0,0,0,0,0,0,0,0,0,0,0,0,0,0,0,0,0,0,0,0,0,0,0],"id":17,"left_children":[1,3,5,7,9,11,13,15,17,19,21,23,25,27,29,-1,-1,-1,-1,-1,-1,-1,-1,-1,-1,-1,-1,-1,-1,-1,-1],"loss_changes":[5.1329124E1,2.9600853E1,3.862021E1,3.5806614E1,2.164553E1,3.773683E1,3.7159496E1,3.0377884E1,2.3055834E1,1.648087E1,1.0812099E1,5.4413395E1,3.958287E1,2.3429592E1,4.1442318E1,0E0,0E0,0E0,0E0,0E0,0E0,0E0,0E0,0E0,0E0,0E0,0E0,0E0,0E0,0E0,0E0],"parents":[2147483647,0,0,1,1,2,2,3,3,4,4,5,5,6,6,7,7,8,8,9,9,10,10,11,11,12,12,13,13,14,14],"right_children":[2,4,6,8,10,12,14,16,18,20,22,24,26,28,30,-1,-1,-1,-1,-1,-1,-1,-1,-1,-1,-1,-1,-1,-1,-1,-1],"split_conditions":[-1.4031348E-3,4.2284423E-1,2.0325998E4,6.6662908E0,6.1887945E-4,7.250482E3,4.6051544E1,-3.8455464E-2,7.7369305E2,1.640175E2,-7.7532493E-3,1.37022E2,7.3016826E3,1.7156719E4,5.325287E4,6.7518855E-4,1.1798909E-2,-8.5104145E-3,6.894547E-3,3.2589674E-2,-7.472299E-3,2.8557086E-3,-6.737594E-2,-1.2613538E-2,2.4032213E-2,-4.144072E-2,-6.157429E-3,-5.4465807E-3,1.4987293E-2,6.2422256E-4,-2.3771344E-2],"split_indices":[37,102,80,88,101,18,85,101,43,54,12,46,19,81,19,0,0,0,0,0,0,0,0,0,0,0,0,0,0,0,0],"split_type":[0,0,0,0,0,0,0,0,0,0,0,0,0,0,0,0,0,0,0,0,0,0,0,0,0,0,0,0,0,0,0],"sum_hessian":[1.1826344E4,4.3994067E3,7.4269365E3,3.9429963E3,4.5641043E2,4.548269E3,2.8786675E3,2.9288167E3,1.0141797E3,4.2854065E2,2.78698E1,4.1617487E2,4.132094E3,8.515844E2,2.0270831E3,8.7542004E2,2.0533967E3,6.1346655E2,4.007131E2,2.6435093E1,4.0210556E2,7.2329144E0,2.0636887E1,1.715809E2,2.4459396E2,8.011875E1,4.0519753E3,1.7644785E2,6.751366E2,1.8357649E3,1.913182E2],"tree_param":{"num_deleted":"0","num_feature":"108","num_nodes":"31","size_leaf_vector":"1"}},{"base_weights":[-5.8394002E-5,1.0651398E-1,-3.7204884E-2,1.1437226E-1,-7.997857E-1,2.4891362E-2,-1.1276674E-1,6.08827E-2,2.423332E-1,-1.3644766E0,-1.6446939E-1,-6.297551E-2,9.485502E-2,-1.3809612E-1,2.3666988E-1,8.472717E-3,-3.257264E-4,1.0888263E-2,4.388143E-2,1.8313956E-2,-7.810094E-2,-3.0357886E-2,4.8087645E-2,3.2581683E-2,-4.1072615E-3,1.0354082E-2,3.85612E-4,6.6544604E-4,-8.939024E-3,-7.362488E-4,2.3819136E-2],"categories":[],"categories_nodes":[],"categories_segments":[],"categories_sizes":[],"default_left":[0,0,0,0,0,0,0,0,0,0,0,0,0,0,0,0,0,0,0,0,0,0,0,0,0,0,0,0,0,0,0],"id":18,"left_children":[1,3,5,7,9,11,13,15,17,19,21,23,25,27,29,-1,-1,-1,-1,-1,-1,-1,-1,-1,-1,-1,-1,-1,-1,-1,-1],"loss_changes":[4.681411E1,2.1859436E1,4.1147438E1,2.073156E1,9.246431E0,2.9600925E1,3.5045067E1,1.5652145E1,1.3749657E1,5.3037567E0,7.3443456E0,2.9295586E1,2.6213175E1,2.2726059E1,1.6140896E1,0E0,0E0,0E0,0E0,0E0,0E0,0E0,0E0,0E0,0E0,0E0,0E0,0E0,0E0,0E0,0E0],"parents":[2147483647,0,0,1,1,2,2,3,3,4,4,5,5,6,6,7,7,8,8,9,9,10,10,11,11,12,12,13,13,14,14],"right_children":[2,4,6,8,10,12,14,16,18,20,22,24,26,28,30,-1,-1,-1,-1,-1,-1,-1,-1,-1,-1,-1,-1,-1,-1,-1,-1],"split_conditions":[-2.2890668E-3,6.9987695E4,5.701207E-1,2.4783956E-3,1.6005359E3,1.2570236E4,2.6701248E0,1.209014E3,7.191297E1,1.19937065E2,4.0607812E3,-1.5624068E0,1.908627E4,-1.5690458E-3,7.590867E1,8.472717E-3,-3.257264E-4,1.0888263E-2,4.388143E-2,1.8313956E-2,-7.810094E-2,-3.0357886E-2,4.8087645E-2,3.2581683E-2,-4.1072615E-3,1.0354082E-2,3.85612E-4,6.6544604E-4,-8.939024E-3,-7.362488E-4,2.3819136E-2],"split_indices":[12,30,23,94,66,80,44,50,14,31,26,36,2,53,14,0,0,0,0,0,0,0,0,0,0,0,0,0,0,0,0],"split_type":[0,0,0,0,0,0,0,0,0,0,0,0,0,0,0,0,0,0,0,0,0,0,0,0,0,0,0,0,0,0,0],"sum_hessian":[1.1823359E4,3.0554578E3,8.767901E3,3.0300588E3,2.5399027E1,4.8131533E3,3.9547476E3,2.1378723E3,8.921864E2,1.2839303E1,1.2559724E1,2.1336355E3,2.679518E3,3.6880212E3,2.6672638E2,8.182391E2,1.3196333E3,8.602614E2,3.1925014E1,1.2278028E0,1.1611501E1,9.34668E0,3.213044E0,5.4878548E1,2.0787568E3,1.1705945E3,1.5089236E3,7.812618E2,2.9067595E3,1.3064899E2,1.360774E2],"tree_param":{"num_deleted":"0","num_feature":"108","num_nodes":"31","size_leaf_vector":"1"}},{"base_weights":[-5.056331E-5,6.903536E-2,-5.323864E-2,9.247389E-2,-2.2188634E-1,-1.3266273E-1,3.4806E-2,1.101152E-1,-1.9142957E-1,-3.296806E-1,4.4356963E-1,-9.00063E-2,-3.9718345E-1,5.09355E-2,-7.478165E-1,4.7586383E-3,2.7442107E-2,-1.5679134E-2,1.7711582E-2,-1.2550463E-2,-5.2728444E-2,-3.5799665E-3,5.310409E-2,-8.519514E-3,2.8223053E-3,5.864498E-4,-2.5076648E-2,1.0380284E-2,-7.1262056E-4,3.0589862E-2,-5.004794E-2],"categories":[],"categories_nodes":[],"categories_segments":[],"categories_sizes":[],"default_left":[0,0,0,0,0,0,0,0,0,0,0,0,0,0,0,0,0,0,0,0,0,0,0,0,0,0,0,0,0,0,0],"id":19,"left_children":[1,3,5,7,9,11,13,15,17,19,21,23,25,27,29,-1,-1,-1,-1,-1,-1,-1,-1,-1,-1,-1,-1,-1,-1,-1,-1],"loss_changes":[4.344396E1,3.5088623E1,4.6717434E1,2.3861843E1,2.7673088E1,3.959388E1,4.004005E1,2.9332035E1,1.8697441E1,1.8601395E1,1.7257608E1,3.5629982E1,2.0804344E1,3.1722927E1,2.2658379E1,0E0,0E0,0E0,0E0,0E0,0E0,0E0,0E0,0E0,0E0,0E0,0E0,0E0,0E0,0E0,0E0],"parents":[2147483647,0,0,1,1,2,2,3,3,4,4,5,5,6,6,7,7,8,8,9,9,10,10,11,11,12,12,13,13,14,14],"right_children":[2,4,6,8,10,12,14,16,18,20,22,24,26,28,30,-1,-1,-1,-1,-1,-1,-1,-1,-1,-1,-1,-1,-1,-1,-1,-1],"split_conditions":[-8.556172E-4,9.899637E3,2.911509E0,1.0667467E0,2.4894371E4,7.352055E0,4.1700713E3,1.6518494E3,7.130139E-1,3.011141E0,5.775389E3,8.8131096E1,4.96687E1,-2.5156477E-1,5.743533E2,4.7586383E-3,2.7442107E-2,-1.5679134E-2,1.7711582E-2,-1.2550463E-2,-5.2728444E-2,-3.5799665E-3,5.310409E-2,-8.519514E-3,2.8223053E-3,5.864498E-4,-2.5076648E-2,1.0380284E-2,-7.1262056E-4,3.0589862E-2,-5.004794E-2],"split_indices":[41,67,20,60,19,24,58,43,107,107,4,39,15,107,43,0,0,0,0,0,0,0,0,0,0,0,0,0,0,0,0],"split_type":[0,0,0,0,0,0,0,0,0,0,0,0,0,0,0,0,0,0,0,0,0,0,0,0,0,0,0,0,0,0,0],"sum_hessian":[1.1820941E4,5.1418726E3,6.679069E3,4.7591284E3,3.8274402E2,3.5111726E3,3.1678962E3,4.481281E3,2.778475E2,3.2982217E2,5.2921844E1,3.0247446E3,4.8642795E2,3.1048416E3,6.3054485E1,4.3348584E3,1.464224E2,2.273726E2,5.047489E1,2.987459E2,3.1076284E1,2.9355448E1,2.3566397E1,1.9527606E3,1.071984E3,9.907447E1,3.8735345E2,9.116446E2,2.193197E3,9.674807E0,5.337968E1],"tree_param":{"num_deleted":"0","num_feature":"108","num_nodes":"31","size_leaf_vector":"1"}},{"base_weights":[-5.3418775E-5,7.712414E-2,-4.8169777E-2,-8.37519E-3,2.617222E-1,-5.774221E-1,-2.9969368E-2,4.8938017E-2,-3.2710883E-1,2.0238064E-1,7.214994E-1,5.295932E-1,-7.0834166E-1,9.258307E-2,-8.8273525E-2,3.266628E-2,-8.184822E-6,7.96746E-2,-1.8696824E-2,1.2950565E-2,-3.493679E-2,4.1539203E-2,-6.892081E-2,4.3513503E-2,-6.541903E-2,-8.641168E-3,-4.4553913E-2,6.038068E-2,3.907792E-3,-3.7396543E-2,-3.9013324E-3],"categories":[],"categories_nodes":[],"categories_segments":[],"categories_sizes":[],"default_left":[0,0,0,0,0,0,0,0,0,0,0,0,0,0,0,0,0,0,0,0,0,0,0,0,0,0,0,0,0,0,0],"id":20,"left_children":[1,3,5,7,9,11,13,15,17,19,21,23,25,27,29,-1,-1,-1,-1,-1,-1,-1,-1,-1,-1,-1,-1,-1,-1,-1,-1],"loss_changes":[4.389261E1,7.1642975E1,7.011409E1,5.6704567E1,3.9057808E1,3.5447357E1,5.030856E1,7.808276E1,4.3144394E1,6.519534E1,3.874997E1,1.7521774E1,2.106466E1,3.6421207E1,3.218899E1,0E0,0E0,0E0,0E0,0E0,0E0,0E0,0E0,0E0,0E0,0E0,0E0,0E0,0E0,0E0,0E0],"parents":[2147483647,0,0,1,1,2,2,3,3,4,4,5,5,6,6,7,7,8,8,9,9,10,10,11,11,12,12,13,13,14,14],"right_children":[2,4,6,8,10,12,14,16,18,20,22,24,26,28,30,-1,-1,-1,-1,-1,-1,-1,-1,-1,-1,-1,-1,-1,-1,-1,-1],"split_conditions":[1.21496E3,2.747406E2,1.2604493E3,9.77662E3,2.1846646E4,-1.4316394E0,-4.663311E0,-1.051059E0,1.73113E2,2.0244951E4,7.2947205E1,3.635801E4,2.0583262E0,1.08904945E2,1.7218646E0,3.266628E-2,-8.184822E-6,7.96746E-2,-1.8696824E-2,1.2950565E-2,-3.493679E-2,4.1539203E-2,-6.892081E-2,4.3513503E-2,-6.541903E-2,-8.641168E-3,-4.4553913E-2,6.038068E-2,3.907792E-3,-3.7396543E-2,-3.9013324E-3],"split_indices":[6,58,58,38,42,36,24,107,50,42,22,0,15,43,51,0,0,0,0,0,0,0,0,0,0,0,0,0,0,0,0],"split_type":[0,0,0,0,0,0,0,0,0,0,0,0,0,0,0,0,0,0,0,0,0,0,0,0,0,0,0,0,0,0,0],"sum_hessian":[1.1817731E4,4.538107E3,7.2796245E3,3.1022217E3,1.4358853E3,2.4099417E2,7.0386304E3,2.6301301E3,4.7209137E2,1.2730217E3,1.6286354E2,2.5164644E1,2.1582953E2,2.268909E3,4.7697217E3,1.9669745E2,2.4334329E3,1.0450325E1,4.6164105E2,1.1984197E3,7.4602104E1,1.5538148E2,7.48205E0,2.1673811E1,3.4908345E0,5.5405827E1,1.604237E2,2.7925695E1,2.2409832E3,7.185664E1,4.6978647E3],"tree_param":{"num_deleted":"0","num_feature":"108","num_nodes":"31","size_leaf_vector":"1"}},{"base_weights":[-5.4708566E-5,9.926281E-2,-3.468831E-2,1.3219939E-1,-1.0414067E-1,2.109152E-2,-1.02638714E-1,1.3764562E-1,-1.0023148E0,-7.9886574E-1,-1.667122E-3,1.01484865E-1,-4.4828437E-2,-1.264668E-1,2.2565526E-1,5.9876074E-3,2.4317635E-2,-6.770946E-2,2.1927444E-2,2.2060424E-2,-4.589363E-2,3.8447753E-3,-2.6237551E-2,2.4092548E-2,2.707657E-3,-1.12596E-2,4.946844E-3,-3.0508337E-3,-1.1025481E-2,-6.2147726E-4,2.2624966E-2],"categories":[],"categories_nodes":[],"categories_segments":[],"categories_sizes":[],"default_left":[0,0,0,0,0,0,0,0,0,0,0,0,0,0,0,0,0,0,0,0,0,0,0,0,0,0,0,0,0,0,0],"id":21,"left_children":[1,3,5,7,9,11,13,15,17,19,21,23,25,27,29,-1,-1,-1,-1,-1,-1,-1,-1,-1,-1,-1,-1,-1,-1,-1,-1],"loss_changes":[4.0645412E1,2.0481802E1,3.320971E1,1.6387417E1,3.034983E1,2.5507805E1,3.0927193E1,1.6278095E1,7.0252476E0,8.4921875E0,1.534961E1,3.901367E1,6.860452E1,2.2657452E1,1.4460875E1,0E0,0E0,0E0,0E0,0E0,0E0,0E0,0E0,0E0,0E0,0E0,0E0,0E0,0E0,0E0,0E0],"parents":[2147483647,0,0,1,1,2,2,3,3,4,4,5,5,6,6,7,7,8,8,9,9,10,10,11,11,12,12,13,13,14,14],"right_children":[2,4,6,8,10,12,14,16,18,20,22,24,26,28,30,-1,-1,-1,-1,-1,-1,-1,-1,-1,-1,-1,-1,-1,-1,-1,-1],"split_conditions":[-2.2890668E-3,3.21879E3,5.701207E-1,1.1717873E-1,3.5226306E2,1.914825E4,2.6701248E0,7.303966E1,7.898994E3,1.0912119E2,4.6072008E4,-1.0403305E0,2.3826999E2,-9.462064E-2,7.590867E1,5.9876074E-3,2.4317635E-2,-6.770946E-2,2.1927444E-2,2.2060424E-2,-4.589363E-2,3.8447753E-3,-2.6237551E-2,2.4092548E-2,2.707657E-3,-1.12596E-2,4.946844E-3,-3.0508337E-3,-1.1025481E-2,-6.2147726E-4,2.2624966E-2],"split_indices":[12,7,23,61,75,0,44,69,66,35,9,107,21,107,14,0,0,0,0,0,0,0,0,0,0,0,0,0,0,0,0],"split_type":[0,0,0,0,0,0,0,0,0,0,0,0,0,0,0,0,0,0,0,0,0,0,0,0,0,0,0,0,0,0,0],"sum_hessian":[1.1814477E4,3.054198E3,8.760278E3,2.6288633E3,4.253347E2,4.811365E3,3.9489136E3,2.6171782E3,1.1685068E1,5.3799843E1,3.7153482E2,2.167468E3,2.643897E3,3.682264E3,2.666496E2,2.4907136E3,1.2646445E2,9.4398985E0,2.24517E0,4.4738655E0,4.9325977E1,3.2376166E2,4.777318E1,2.3884972E2,1.9286184E3,1.1724326E3,1.4714642E3,2.1721687E3,1.5100952E3,1.3056253E2,1.3608707E2],"tree_param":{"num_deleted":"0","num_feature":"108","num_nodes":"31","size_leaf_vector":"1"}},{"base_weights":[-5.669219E-5,7.445546E-2,-4.4239264E-2,-1.6659397E-1,1.0159461E-1,2.0802143E-1,-6.2768474E-2,-7.399562E-2,-7.145704E-1,1.5283377E-1,-4.4001717E-2,-1.6876413E-1,3.301282E-1,4.5496047E-2,-1.17829226E-1,2.2629796E-2,-7.349425E-3,-5.019332E-2,-2.5365644E-3,-2.7480617E-5,1.1038539E-2,-7.851277E-3,6.4499504E-3,1.5541813E-2,-3.2039803E-2,4.126142E-2,1.1316687E-2,-5.2110455E-4,1.5231005E-2,-5.46878E-3,-4.4239763E-2],"categories":[],"categories_nodes":[],"categories_segments":[],"categories_sizes":[],"default_left":[0,0,0,0,0,0,0,0,0,0,0,0,0,0,0,0,0,0,0,0,0,0,0,0,0,0,0,0,0,0,0],"id":22,"left_children":[1,3,5,7,9,11,13,15,17,19,21,23,25,27,29,-1,-1,-1,-1,-1,-1,-1,-1,-1,-1,-1,-1,-1,-1,-1,-1],"loss_changes":[3.8892937E1,2.8785252E1,3.4678337E1,2.2546833E1,2.9498352E1,2.3414213E1,4.1194427E1,1.4754227E1,1.2291386E1,3.0472847E1,2.0157053E1,2.8480612E1,1.9535126E1,3.3765884E1,2.9601513E1,0E0,0E0,0E0,0E0,0E0,0E0,0E0,0E0,0E0,0E0,0E0,0E0,0E0,0E0,0E0,0E0],"parents":[2147483647,0,0,1,1,2,2,3,3,4,4,5,5,6,6,7,7,8,8,9,9,10,10,11,11,12,12,13,13,14,14],"right_children":[2,4,6,8,10,12,14,16,18,20,22,24,26,28,30,-1,-1,-1,-1,-1,-1,-1,-1,-1,-1,-1,-1,-1,-1,-1,-1],"split_conditions":[-1.4031348E-3,2.8865755E1,-4.607932E-1,-9.4421315E-1,6.6662908E0,2.116901E0,4.5802288E1,-5.168537E2,-4.864767E-2,-3.8455464E-2,7.7369305E2,3.8633188E-3,2.094355E0,4.4402E4,4.337495E3,2.2629796E-2,-7.349425E-3,-5.019332E-2,-2.5365644E-3,-2.7480617E-5,1.1038539E-2,-7.851277E-3,6.4499504E-3,1.5541813E-2,-3.2039803E-2,4.126142E-2,1.1316687E-2,-5.2110455E-4,1.5231005E-2,-5.46878E-3,-4.4239763E-2],"split_indices":[37,22,102,52,88,44,85,16,61,101,43,33,89,3,50,0,0,0,0,0,0,0,0,0,0,0,0,0,0,0,0],"split_type":[0,0,0,0,0,0,0,0,0,0,0,0,0,0,0,0,0,0,0,0,0,0,0,0,0,0,0,0,0,0,0],"sum_hessian":[1.1811881E4,4.3965645E3,7.4153164E3,4.443872E2,3.9521775E3,5.0670447E2,6.908612E3,3.8111975E2,6.3267475E1,2.923331E3,1.0288464E3,1.2392531E2,3.8277917E2,2.3291125E3,4.5794995E3,4.5764072E1,3.3535568E2,4.3707756E1,1.955972E1,8.976567E2,2.0256743E3,6.2234924E2,4.064972E2,6.1639248E1,6.228606E1,6.5134865E1,3.1764432E2,1.916498E3,4.1261438E2,4.530704E3,4.8795506E1],"tree_param":{"num_deleted":"0","num_feature":"108","num_nodes":"31","size_leaf_vector":"1"}},{"base_weights":[-5.8209516E-5,7.3193796E-2,-4.281623E-2,-1.1816589E-2,2.8383458E-1,7.312642E-2,-9.349927E-2,1.9307385E-1,-9.283926E-2,9.7543716E-1,2.4168359E-1,-1.7426268E-3,2.7214634E-1,-6.8201536E-1,-8.254832E-2,5.6335283E-3,3.2710567E-2,-2.9166305E-5,-1.2364569E-2,6.510995E-2,-2.1795293E-2,4.630425E-3,2.1868525E-2,6.7164656E-4,-7.576456E-2,6.1127823E-2,1.0948568E-2,5.616389E-2,-3.9432563E-2,-5.563999E-3,5.597009E-3],"categories":[],"categories_nodes":[],"categories_segments":[],"categories_sizes":[],"default_left":[0,0,0,0,0,0,0,0,0,0,0,0,0,0,0,0,0,0,0,0,0,0,0,0,0,0,0,0,0,0,0],"id":23,"left_children":[1,3,5,7,9,11,13,15,17,19,21,23,25,27,29,-1,-1,-1,-1,-1,-1,-1,-1,-1,-1,-1,-1,-1,-1,-1,-1],"loss_changes":[3.6992504E1,7.795282E1,4.3830276E1,5.151994E1,3.6253876E1,3.3809105E1,3.3390068E1,3.2534966E1,3.1688492E1,3.3576653E1,3.441568E1,3.7912865E1,3.1078098E1,1.9109928E1,2.8488735E1,0E0,0E0,0E0,0E0,0E0,0E0,0E0,0E0,0E0,0E0,0E0,0E0,0E0,0E0,0E0,0E0],"parents":[2147483647,0,0,1,1,2,2,3,3,4,4,5,5,6,6,7,7,8,8,9,9,10,10,11,11,12,12,13,13,14,14],"right_children":[2,4,6,8,10,12,14,16,18,20,22,24,26,28,30,-1,-1,-1,-1,-1,-1,-1,-1,-1,-1,-1,-1,-1,-1,-1,-1],"split_conditions":[1.1344844E3,2.747406E2,-5.505314E0,7.142E3,5.381552E1,5.6969324E2,1.6811376E0,1.632783E2,2.0012187E-3,5.153675E-1,1.4035E4,3.8415096E0,3.2343567E1,-8.021266E-2,8.371171E-1,5.6335283E-3,3.2710567E-2,-2.9166305E-5,-1.2364569E-2,6.510995E-2,-2.1795293E-2,4.630425E-3,2.1868525E-2,6.7164656E-4,-7.576456E-2,6.1127823E-2,1.0948568E-2,5.616389E-2,-3.9432563E-2,-5.563999E-3,5.597009E-3],"split_indices":[58,58,87,3,43,75,51,27,101,25,3,107,59,101,107,0,0,0,0,0,0,0,0,0,0,0,0,0,0,0,0],"split_type":[0,0,0,0,0,0,0,0,0,0,0,0,0,0,0,0,0,0,0,0,0,0,0,0,0,0,0,0,0,0,0],"sum_hessian":[1.1808727E4,4.3521006E3,7.4566255E3,3.101387E3,1.2507135E3,2.2679697E3,5.188656E3,8.784858E2,2.2229011E3,7.0576195E1,1.1801373E3,1.6487281E3,6.192417E2,9.366599E1,5.0949897E3,7.491154E2,1.2937038E2,1.3922805E3,8.3062067E2,5.737074E1,1.3205454E1,6.706821E2,5.094552E2,1.6333425E3,1.5385545E1,3.1645334E1,5.875964E2,4.692388E0,8.89736E1,4.4395635E3,6.5542615E2],"tree_param":{"num_deleted":"0","num_feature":"108","num_nodes":"31","size_leaf_vector":"1"}},{"base_weights":[-4.7197194E-5,9.2056975E-2,-3.217955E-2,9.942483E-2,-7.6091343E-1,3.545002E-2,-8.030685E-2,4.9162604E-2,2.1967071E-1,-1.3055762E0,-1.5192781E-1,-1.9317357E-1,6.4589724E-2,-1.0933812E-1,1.1872614E-1,2.9650838E-3,-2.6144141E-2,9.841762E-3,4.0523615E-2,1.7657353E-2,-7.485839E-2,-2.8925855E-2,4.6302896E-2,-1.8381484E-2,4.165853E-3,2.4030013E-2,2.3515795E-3,-3.648725E-2,-5.034652E-3,6.9640502E-3,-6.2437534E-2],"categories":[],"categories_nodes":[],"categories_segments":[],"categories_sizes":[],"default_left":[0,0,0,0,0,0,0,0,0,0,0,0,0,0,0,0,0,0,0,0,0,0,0,0,0,0,0,0,0,0,0],"id":24,"left_children":[1,3,5,7,9,11,13,15,17,19,21,23,25,27,29,-1,-1,-1,-1,-1,-1,-1,-1,-1,-1,-1,-1,-1,-1,-1,-1],"loss_changes":[3.4942135E1,1.9266586E1,2.8492409E1,1.8292284E1,8.514143E0,2.4261337E1,2.9563457E1,1.24254875E1,1.1880318E1,4.893347E0,6.7589145E0,1.9890675E1,2.3564175E1,2.3867249E1,1.8485958E1,0E0,0E0,0E0,0E0,0E0,0E0,0E0,0E0,0E0,0E0,0E0,0E0,0E0,0E0,0E0,0E0],"parents":[2147483647,0,0,1,1,2,2,3,3,4,4,5,5,6,6,7,7,8,8,9,9,10,10,11,11,12,12,13,13,14,14],"right_children":[2,4,6,8,10,12,14,16,18,20,22,24,26,28,30,-1,-1,-1,-1,-1,-1,-1,-1,-1,-1,-1,-1,-1,-1,-1,-1],"split_conditions":[-2.2890668E-3,6.9987695E4,4.9940468E1,2.4783956E-3,1.6005359E3,3.1110302E1,2.15642E0,4.3352046E3,7.191297E1,1.19937065E2,4.0607812E3,2.5571602E4,5.29282E3,3.8510046E3,6.886399E4,2.9650838E-3,-2.6144141E-2,9.841762E-3,4.0523615E-2,1.7657353E-2,-7.485839E-2,-2.8925855E-2,4.6302896E-2,-1.8381484E-2,4.165853E-3,2.4030013E-2,2.3515795E-3,-3.648725E-2,-5.034652E-3,6.9640502E-3,-6.2437534E-2],"split_indices":[12,30,14,94,66,85,44,54,14,31,26,80,3,18,64,0,0,0,0,0,0,0,0,0,0,0,0,0,0,0,0],"split_type":[0,0,0,0,0,0,0,0,0,0,0,0,0,0,0,0,0,0,0,0,0,0,0,0,0,0,0,0,0,0,0],"sum_hessian":[1.1804676E4,3.0526616E3,8.752014E3,3.0273948E3,2.5266836E1,3.6388638E3,5.11315E3,2.1359756E3,8.914192E2,1.2733992E1,1.2532844E1,4.1073105E2,3.2281326E3,4.462669E3,6.504813E2,2.099657E3,3.6318497E1,8.5953E2,3.1889133E1,1.2312344E0,1.1502758E1,9.311397E0,3.2214463E0,2.5163094E2,1.5910013E2,1.2966104E2,3.0984717E3,6.0184216E1,4.4024844E3,6.417334E2,8.747896E0],"tree_param":{"num_deleted":"0","num_feature":"108","num_nodes":"31","size_leaf_vector":"1"}},{"base_weights":[-5.443931E-5,5.7189064E-3,-4.880716E-1,9.504641E-2,-2.5463842E-2,1.7141841E-1,-7.3448545E-1,1.08568974E-1,-3.0826902E-1,1.0868307E-2,-1.21509254E-1,8.875172E-1,-7.138571E-1,-8.9601743E-1,3.602888E-1,3.2012512E-3,1.1718942E-2,-2.3123095E-2,3.14256E-2,8.585896E-3,-1.3215058E-3,-9.146382E-3,2.5868712E-3,5.7502247E-2,-4.826344E-2,-6.389778E-2,4.8950635E-2,-1.1635186E-2,-6.773388E-2,5.4634124E-2,-5.9408095E-2],"categories":[],"categories_nodes":[],"categories_segments":[],"categories_sizes":[],"default_left":[0,0,0,0,0,0,0,0,0,0,0,0,0,0,0,0,0,0,0,0,0,0,0,0,0,0,0,0,0,0,0],"id":25,"left_children":[1,3,5,7,9,11,13,15,17,19,21,23,25,27,29,-1,-1,-1,-1,-1,-1,-1,-1,-1,-1,-1,-1,-1,-1,-1,-1],"loss_changes":[3.3258484E1,3.2498577E1,2.255428E1,1.64983E1,3.0180052E1,2.4946562E1,1.8124092E1,1.6358597E1,1.4474739E1,3.7654938E1,2.5266842E1,1.163965E1,1.8157814E1,2.6459442E1,1.6785326E1,0E0,0E0,0E0,0E0,0E0,0E0,0E0,0E0,0E0,0E0,0E0,0E0,0E0,0E0,0E0,0E0],"parents":[2147483647,0,0,1,1,2,2,3,3,4,4,5,5,6,6,7,7,8,8,9,9,10,10,11,11,12,12,13,13,14,14],"right_children":[2,4,6,8,10,12,14,16,18,20,22,24,26,28,30,-1,-1,-1,-1,-1,-1,-1,-1,-1,-1,-1,-1,-1,-1,-1,-1],"split_conditions":[6.939101E4,-2.2890668E-3,-2.3897048E-2,4.09454E3,3.3845388E3,5.1508136E2,6.2557007E2,3.0157613E-3,1.2506988E0,-4.72013E0,6.4744096E0,1.0580232E-1,1.1129407E3,2.3874245E1,7.550041E-1,3.2012512E-3,1.1718942E-2,-2.3123095E-2,3.14256E-2,8.585896E-3,-1.3215058E-3,-9.146382E-3,2.5868712E-3,5.7502247E-2,-4.826344E-2,-6.389778E-2,4.8950635E-2,-1.1635186E-2,-6.773388E-2,5.4634124E-2,-5.9408095E-2],"split_indices":[64,12,101,5,67,35,21,94,107,88,20,56,43,91,107,0,0,0,0,0,0,0,0,0,0,0,0,0,0,0,0],"split_type":[0,0,0,0,0,0,0,0,0,0,0,0,0,0,0,0,0,0,0,0,0,0,0,0,0,0,0,0,0,0,0],"sum_hessian":[1.1802296E4,1.1665281E4,1.3701447E2,3.0179316E3,8.647351E3,3.7351925E1,9.966253E1,2.9207346E3,9.719709E1,6.274655E3,2.3726956E3,2.064758E1,1.6704348E1,8.700644E1,1.2656095E1,2.158138E3,7.625965E2,8.389449E1,1.3302592E1,1.180432E3,5.0942227E3,1.7516538E3,6.2104175E2,1.8417263E1,2.230317E0,1.27131605E1,3.9911866E0,3.618421E1,5.0822224E1,8.791966E0,3.8641286E0],"tree_param":{"num_deleted":"0","num_feature":"108","num_nodes":"31","size_leaf_vector":"1"}},{"base_weights":[-5.9723123E-5,6.919291E-2,-4.0494945E-2,-1.14918975E-2,2.6912186E-1,-1.269793E-1,2.0292278E-2,4.2493455E-2,-3.1195787E-1,9.31471E-1,2.2883448E-1,-1.13006055E-1,-1.2889973E0,-1.3805408E0,3.0131632E-2,3.0476222E-2,-1.8218788E-4,6.963177E-2,-1.8006358E-2,6.2204834E-2,-2.083873E-2,4.378084E-3,2.0717671E-2,3.653082E-2,-6.500106E-3,6.205473E-2,-7.064779E-2,6.4322665E-2,-7.808476E-2,1.162274E-2,-1.730993E-3],"categories":[],"categories_nodes":[],"categories_segments":[],"categories_sizes":[],"default_left":[0,0,0,0,0,0,0,0,0,0,0,0,0,0,0,0,0,0,0,0,0,0,0,0,0,0,0,0,0,0,0],"id":26,"left_children":[1,3,5,7,9,11,13,15,17,19,21,23,25,27,29,-1,-1,-1,-1,-1,-1,-1,-1,-1,-1,-1,-1,-1,-1,-1,-1],"loss_changes":[3.304955E1,7.01871E1,3.9176495E1,5.031037E1,3.316971E1,4.9796837E1,6.0367558E1,6.8790436E1,3.928906E1,3.0615505E1,3.090646E1,4.3688465E1,1.3185616E1,1.676836E1,5.6959484E1,0E0,0E0,0E0,0E0,0E0,0E0,0E0,0E0,0E0,0E0,0E0,0E0,0E0,0E0,0E0,0E0],"parents":[2147483647,0,0,1,1,2,2,3,3,4,4,5,5,6,6,7,7,8,8,9,9,10,10,11,11,12,12,13,13,14,14],"right_children":[2,4,6,8,10,12,14,16,18,20,22,24,26,28,30,-1,-1,-1,-1,-1,-1,-1,-1,-1,-1,-1,-1,-1,-1,-1,-1],"split_conditions":[1.1344844E3,2.747406E2,3.228966E4,9.77662E3,5.381552E1,2.09396E3,1.25209885E2,-1.051059E0,1.7316E2,5.153675E-1,1.4035E4,1.655873E4,2.9915727E4,1.89199E3,2.23199E3,3.0476222E-2,-1.8218788E-4,6.963177E-2,-1.8006358E-2,6.2204834E-2,-2.083873E-2,4.378084E-3,2.0717671E-2,3.653082E-2,-6.500106E-3,6.205473E-2,-7.064779E-2,6.4322665E-2,-7.808476E-2,1.162274E-2,-1.730993E-3],"split_indices":[58,58,18,38,43,6,43,107,79,25,3,3,18,79,5,0,0,0,0,0,0,0,0,0,0,0,0,0,0,0,0],"split_type":[0,0,0,0,0,0,0,0,0,0,0,0,0,0,0,0,0,0,0,0,0,0,0,0,0,0,0,0,0,0,0],"sum_hessian":[1.1800376E4,4.3498164E3,7.450559E3,3.0997864E3,1.2500303E3,3.0748132E3,4.375746E3,2.6283955E3,4.7139078E2,7.040516E1,1.1796251E3,3.039362E3,3.545104E1,2.9548891E1,4.346197E3,1.9685213E2,2.4315435E3,1.2187664E1,4.592031E2,5.721551E1,1.3189648E1,6.705061E2,5.0911896E2,5.9194122E1,2.980168E3,1.234837E0,3.42162E1,1.4913579E0,2.8057533E1,1.0530952E3,3.2931018E3],"tree_param":{"num_deleted":"0","num_feature":"108","num_nodes":"31","size_leaf_vector":"1"}},{"base_weights":[-4.4254593E-5,5.5091057E-2,-4.974579E-2,-1.3952808E-1,8.628735E-2,-8.4798776E-2,1.2092653E-1,-1.7053825E-1,7.8224427E-1,4.1180888E-1,6.0609955E-2,7.0177704E-2,-1.2749755E-1,1.5345132E-1,-6.324632E-1,-1.5170387E-2,3.971414E-3,6.646729E-2,-1.2485502E-2,2.2875965E-2,-5.6461282E-2,3.499788E-3,-4.143501E-2,6.7292854E-2,1.3485905E-3,-2.333528E-3,-1.0062861E-2,2.8098697E-2,5.1973765E-3,-5.9798863E-2,-1.2819405E-2],"categories":[],"categories_nodes":[],"categories_segments":[],"categories_sizes":[],"default_left":[0,0,0,0,0,0,0,0,0,0,0,0,0,0,0,0,0,0,0,0,0,0,0,0,0,0,0,0,0,0,0],"id":27,"left_children":[1,3,5,7,9,11,13,15,17,19,21,23,25,27,29,-1,-1,-1,-1,-1,-1,-1,-1,-1,-1,-1,-1,-1,-1,-1,-1],"loss_changes":[3.233426E1,3.3975174E1,3.7135323E1,2.223435E1,4.0278046E1,3.407998E1,2.6016163E1,2.489529E1,1.4640647E1,2.5337658E1,3.7372036E1,6.1298023E1,2.4058128E1,2.046404E1,9.011677E0,0E0,0E0,0E0,0E0,0E0,0E0,0E0,0E0,0E0,0E0,0E0,0E0,0E0,0E0,0E0,0E0],"parents":[2147483647,0,0,1,1,2,2,3,3,4,4,5,5,6,6,7,7,8,8,9,9,10,10,11,11,12,12,13,13,14,14],"right_children":[2,4,6,8,10,12,14,16,18,20,22,24,26,28,30,-1,-1,-1,-1,-1,-1,-1,-1,-1,-1,-1,-1,-1,-1,-1,-1],"split_conditions":[-2.1591457E-2,3.3016106E1,6.739704E1,1.1593214E3,-2.4349155E2,-3.6836972E0,6.3115105E4,-2.3897048E-2,-5.0111786E1,8.264447E-1,8.135306E1,1.01456764E2,1.209014E3,1.7360527E2,1.3818933E-3,-1.5170387E-2,3.971414E-3,6.646729E-2,-1.2485502E-2,2.2875965E-2,-5.6461282E-2,3.499788E-3,-4.143501E-2,6.7292854E-2,1.3485905E-3,-2.333528E-3,-1.0062861E-2,2.8098697E-2,5.1973765E-3,-5.9798863E-2,-1.2819405E-2],"split_indices":[40,70,69,21,73,88,42,101,24,60,55,43,50,26,93,0,0,0,0,0,0,0,0,0,0,0,0,0,0,0,0],"split_type":[0,0,0,0,0,0,0,0,0,0,0,0,0,0,0,0,0,0,0,0,0,0,0,0,0,0,0,0,0,0,0],"sum_hessian":[1.1797492E4,5.592958E3,6.2045337E3,7.721847E2,4.8207734E3,5.1477773E3,1.0567566E3,7.4784094E2,2.4343788E1,3.513643E2,4.469409E3,1.1118048E3,4.0359724E3,1.01378644E3,4.2970142E1,4.8815094E2,2.5968997E2,1.5720966E1,8.622822E0,3.4192517E2,9.439135E0,4.423643E3,4.5765976E1,3.5434376E1,1.0763705E3,1.9265078E3,2.1094646E3,1.0845185E2,9.053346E2,1.6326391E1,2.6643751E1],"tree_param":{"num_deleted":"0","num_feature":"108","num_nodes":"31","size_leaf_vector":"1"}},{"base_weights":[-4.4783654E-5,1.8029626E-1,-1.4557535E-2,1.4990486E0,1.5452504E-1,7.228172E-2,-5.1219117E-2,1.2861515E-3,1.6122279E0,9.954469E-2,7.131971E-1,3.5457322E-1,3.680029E-2,-3.860622E-2,-3.839551E-1,2.617456E-2,8.344482E-2,-6.6851503E-3,1.2874643E-2,5.8660027E-2,-4.245396E-2,-2.1025006E-2,2.3613447E-2,-2.568767E-2,3.0599309E-3,-5.1064747E-3,1.6599495E-3,1.7876359E-2,-2.7522668E-2],"categories":[],"categories_nodes":[],"categories_segments":[],"categories_sizes":[],"default_left":[0,0,0,0,0,0,0,0,0,0,0,0,0,0,0,0,0,0,0,0,0,0,0,0,0,0,0,0,0],"id":28,"left_children":[1,3,5,7,9,11,13,-1,15,17,19,21,23,25,27,-1,-1,-1,-1,-1,-1,-1,-1,-1,-1,-1,-1,-1,-1],"loss_changes":[3.0873373E1,2.9627596E1,3.4761536E1,2.7474632E0,2.6432404E1,3.2452377E1,3.2204712E1,0E0,8.362961E-2,2.9017582E1,5.6436836E1,3.320291E1,3.8724323E1,3.37477E1,3.479861E1,0E0,0E0,0E0,0E0,0E0,0E0,0E0,0E0,0E0,0E0,0E0,0E0,0E0,0E0],"parents":[2147483647,0,0,1,1,2,2,3,3,4,4,5,5,6,6,8,8,9,9,10,10,11,11,12,12,13,13,14,14],"right_children":[2,4,6,8,10,12,14,-1,16,18,20,22,24,26,28,-1,-1,-1,-1,-1,-1,-1,-1,-1,-1,-1,-1,-1,-1],"split_conditions":[7.142E3,-1.0762657E0,-2.456604E0,4.309082E1,1.4913222E2,1.05739E3,3.91026E3,1.2861515E-3,-3.162038E-3,1.3699E2,4.1651343E2,1.9703E2,1.1786825E3,7.0656803E-3,5.539374E2,2.617456E-2,8.344482E-2,-6.6851503E-3,1.2874643E-2,5.8660027E-2,-4.245396E-2,-2.1025006E-2,2.3613447E-2,-2.568767E-2,3.0599309E-3,-5.1064747E-3,1.6599495E-3,1.7876359E-2,-2.7522668E-2],"split_indices":[3,107,88,83,39,7,8,0,94,78,43,6,27,104,43,0,0,0,0,0,0,0,0,0,0,0,0,0,0],"split_type":[0,0,0,0,0,0,0,0,0,0,0,0,0,0,0,0,0,0,0,0,0,0,0,0,0,0,0,0,0],"sum_hessian":[1.1794133E4,8.7757874E2,1.0916555E4,1.5725261E1,8.6185345E2,3.2403228E3,7.676232E3,1.2093734E0,1.4515887E1,7.8570807E2,7.614538E1,3.6079904E2,2.8795237E3,7.396954E3,2.792776E2,1.2246766E0,1.329121E1,3.1729733E2,4.6841077E2,5.901716E1,1.712822E1,4.722576E1,3.135733E2,1.21342636E2,2.758181E3,3.9245952E3,3.4723591E3,5.100132E1,2.2827626E2],"tree_param":{"num_deleted":"0","num_feature":"108","num_nodes":"29","size_leaf_vector":"1"}},{"base_weights":[-3.4421886E-5,6.331097E-2,-4.086296E-2,-1.6673191E-1,8.7893635E-2,-3.5302516E-2,-8.28609E-1,-8.083563E-2,-6.684333E-1,1.3027531E-1,-5.3388946E-2,-1.6142379E-1,-3.5964258E-3,-1.1545911E0,4.5624226E-1,2.0972855E-2,-7.515433E-3,-4.7392644E-2,-2.339452E-3,7.629868E-4,1.0157429E-2,-1.2157337E-2,6.107475E-3,-3.917458E-3,-1.9727968E-2,-1.14830285E-2,1.1680438E-3,-1.3234555E-2,-7.1402095E-2,6.6424735E-2,-6.1597407E-2],"categories":[],"categories_nodes":[],"categories_segments":[],"categories_sizes":[],"default_left":[0,0,0,0,0,0,0,0,0,0,0,0,0,0,0,0,0,0,0,0,0,0,0,0,0,0,0,0,0,0,0],"id":29,"left_children":[1,3,5,7,9,11,13,15,17,19,21,23,25,27,29,-1,-1,-1,-1,-1,-1,-1,-1,-1,-1,-1,-1,-1,-1,-1,-1],"loss_changes":[3.0500877E1,2.6152876E1,3.1381989E1,1.9191092E1,2.501501E1,2.8478725E1,2.156068E1,1.3355357E1,1.1271259E1,2.69272E1,3.2155807E1,2.7678589E1,3.469427E1,9.438492E0,1.7657207E1,0E0,0E0,0E0,0E0,0E0,0E0,0E0,0E0,0E0,0E0,0E0,0E0,0E0,0E0,0E0,0E0],"parents":[2147483647,0,0,1,1,2,2,3,3,4,4,5,5,6,6,7,7,8,8,9,9,10,10,11,11,12,12,13,13,14,14],"right_children":[2,4,6,8,10,12,14,16,18,20,22,24,26,28,30,-1,-1,-1,-1,-1,-1,-1,-1,-1,-1,-1,-1,-1,-1,-1,-1],"split_conditions":[-1.1278966E-3,2.8865755E1,6.997587E4,-9.4421315E-1,5.3210845E-3,-5.200012E0,6.613771E2,-5.168537E2,-4.864767E-2,-3.092192E-2,2.8893123E0,2.9172256E3,5.7926494E3,-2.3897048E-2,5.9082336E2,2.0972855E-2,-7.515433E-3,-4.7392644E-2,-2.339452E-3,7.629868E-4,1.0157429E-2,-1.2157337E-2,6.107475E-3,-3.917458E-3,-1.9727968E-2,-1.14830285E-2,1.1680438E-3,-1.3234555E-2,-7.1402095E-2,6.6424735E-2,-6.1597407E-2],"split_indices":[37,22,42,52,101,17,75,16,61,101,20,4,81,101,35,0,0,0,0,0,0,0,0,0,0,0,0,0,0,0,0],"split_type":[0,0,0,0,0,0,0,0,0,0,0,0,0,0,0,0,0,0,0,0,0,0,0,0,0,0,0,0,0,0,0],"sum_hessian":[1.1791249E4,4.621089E3,7.1701606E3,4.4558185E2,4.175507E3,7.120941E3,4.92196E1,3.8143713E2,6.414472E1,3.2120425E3,9.634645E2,1.4297107E3,5.6912305E3,3.9339962E1,9.879637E0,4.5895363E1,3.3554178E2,4.389144E1,2.025328E1,1.2462697E3,1.965773E3,4.627955E2,5.0066898E2,1.0550826E3,3.7462802E2,6.0555145E2,5.0856787E3,9.709613E0,2.9630348E1,6.654475E0,3.2251616E0],"tree_param":{"num_deleted":"0","num_feature":"108","num_nodes":"31","size_leaf_vector":"1"}},{"base_weights":[-4.7484664E-5,1.610092E-1,-1.5254667E-2,1.317927E-1,5.3886944E-1,-8.2523925E-3,-3.696753E-1,1.9046049E-1,-7.511174E-2,7.166775E-1,-7.146344E-2,-5.5673167E-2,6.062369E-2,1.3755945E-2,-7.87812E-1,3.541448E-2,8.308618E-3,2.796923E-2,-7.7941203E-3,4.431627E-2,-2.1488657E-2,-3.4343876E-2,4.5006778E-2,-3.872671E-3,7.0633776E-3,3.8898562E-3,-1.4346085E-2,-2.3196442E-2,2.2939835E-2,-1.5605065E-2,-6.200516E-2],"categories":[],"categories_nodes":[],"categories_segments":[],"categories_sizes":[],"default_left":[0,0,0,0,0,0,0,0,0,0,0,0,0,0,0,0,0,0,0,0,0,0,0,0,0,0,0,0,0,0,0],"id":30,"left_children":[1,3,5,7,9,11,13,15,17,19,21,23,25,27,29,-1,-1,-1,-1,-1,-1,-1,-1,-1,-1,-1,-1,-1,-1,-1,-1],"loss_changes":[2.8878738E1,1.1159393E1,2.6734657E1,1.149238E1,7.93939E0,3.4513657E1,3.347252E1,9.151321E0,1.0829265E1,1.13463E1,1.0967283E1,2.6854897E1,2.5739838E1,2.3566996E1,2.1097435E1,0E0,0E0,0E0,0E0,0E0,0E0,0E0,0E0,0E0,0E0,0E0,0E0,0E0,0E0,0E0,0E0],"parents":[2147483647,0,0,1,1,2,2,3,3,4,4,5,5,6,6,7,7,8,8,9,9,10,10,11,11,12,12,13,13,14,14],"right_children":[2,4,6,8,10,12,14,16,18,20,22,24,26,28,30,-1,-1,-1,-1,-1,-1,-1,-1,-1,-1,-1,-1,-1,-1,-1,-1],"split_conditions":[-1.4308007E0,8.968954E0,4.4245678E1,1.7988392E1,9.702443E4,2.0328549E4,4.7894125E4,1.2907717E1,-8.825709E-3,6.3162556E1,-1.5698342E0,5.038452E2,4.34764E-1,2.6822034E3,2.7603426E4,3.541448E-2,8.308618E-3,2.796923E-2,-7.7941203E-3,4.431627E-2,-2.1488657E-2,-3.4343876E-2,4.5006778E-2,-3.872671E-3,7.0633776E-3,3.8898562E-3,-1.4346085E-2,-2.3196442E-2,2.2939835E-2,-1.5605065E-2,-6.200516E-2],"split_indices":[32,20,23,47,82,9,19,35,96,89,32,76,102,58,80,0,0,0,0,0,0,0,0,0,0,0,0,0,0,0,0],"split_type":[0,0,0,0,0,0,0,0,0,0,0,0,0,0,0,0,0,0,0,0,0,0,0,0,0,0,0,0,0,0,0],"sum_hessian":[1.1788999E4,1.0162698E3,1.0772729E4,9.445826E2,7.168723E1,1.056502E4,2.0770938E2,7.359759E2,2.0860664E2,5.537935E1,1.6307882E1,6.2571797E3,4.30784E3,1.0885577E2,9.8853615E1,3.1711721E1,7.0426416E2,2.2887516E1,1.8571913E2,4.8438484E1,6.9408665E0,1.0163398E1,6.1444855E0,5.6346357E3,6.2254425E2,4.105737E3,2.0210269E2,5.2481873E1,5.6373894E1,4.9003147E1,4.985047E1],"tree_param":{"num_deleted":"0","num_feature":"108","num_nodes":"31","size_leaf_vector":"1"}},{"base_weights":[-4.6072804E-5,5.13332E-2,-4.6377275E-2,-1.326381E-1,8.080239E-2,-7.928439E-2,1.1376236E-1,-1.6202942E-1,7.457724E-1,7.2172755E-1,6.8993434E-2,6.2745616E-2,-1.1847206E-1,-6.481459E-2,2.3409854E-1,-1.4373464E-2,3.690517E-3,-3.5982702E-2,5.472082E-2,-2.8282195E-2,4.0906064E-2,5.7343263E-3,-2.3322182E-3,6.364017E-2,1.0828797E-3,-5.4326626E-3,-3.455296E-2,1.3092528E-2,-1.324701E-2,4.839695E-2,9.948107E-3],"categories":[],"categories_nodes":[],"categories_segments":[],"categories_sizes":[],"default_left":[0,0,0,0,0,0,0,0,0,0,0,0,0,0,0,0,0,0,0,0,0,0,0,0,0,0,0,0,0,0,0],"id":31,"left_children":[1,3,5,7,9,11,13,15,17,19,21,23,25,27,29,-1,-1,-1,-1,-1,-1,-1,-1,-1,-1,-1,-1,-1,-1,-1,-1],"loss_changes":[2.8063581E1,3.0316967E1,3.26766E1,2.0056705E1,3.64224E1,2.8632332E1,2.273191E1,2.2149849E1,1.3651783E1,1.1268246E1,2.5012608E1,5.529978E1,2.2588673E1,2.7942108E1,1.6097107E1,0E0,0E0,0E0,0E0,0E0,0E0,0E0,0E0,0E0,0E0,0E0,0E0,0E0,0E0,0E0,0E0],"parents":[2147483647,0,0,1,1,2,2,3,3,4,4,5,5,6,6,7,7,8,8,9,9,10,10,11,11,12,12,13,13,14,14],"right_children":[2,4,6,8,10,12,14,16,18,20,22,24,26,28,30,-1,-1,-1,-1,-1,-1,-1,-1,-1,-1,-1,-1,-1,-1,-1,-1],"split_conditions":[-2.1591457E-2,3.3016106E1,6.739704E1,1.1593214E3,-5.44825E2,-3.6836972E0,3.9314378E-2,-2.3897048E-2,8.79053E1,-2.0734303E0,2.493033E1,1.01456764E2,5.678787E1,-1.19985096E-1,3.2783577E1,-1.4373464E-2,3.690517E-3,-3.5982702E-2,5.472082E-2,-2.8282195E-2,4.0906064E-2,5.7343263E-3,-2.3322182E-3,6.364017E-2,1.0828797E-3,-5.4326626E-3,-3.455296E-2,1.3092528E-2,-1.324701E-2,4.839695E-2,9.948107E-3],"split_indices":[40,70,69,21,73,88,101,101,59,56,91,43,29,107,35,0,0,0,0,0,0,0,0,0,0,0,0,0,0,0,0],"split_type":[0,0,0,0,0,0,0,0,0,0,0,0,0,0,0,0,0,0,0,0,0,0,0,0,0,0,0,0,0,0,0],"sum_hessian":[1.1787124E4,5.589029E3,6.1980957E3,7.711796E2,4.817849E3,5.141975E3,1.0561202E3,7.470008E2,2.417886E1,8.607458E1,4.7317744E3,1.1118036E3,4.0301716E3,4.2535773E2,6.307626E2,4.8749182E2,2.5950897E2,4.442387E0,1.9736471E1,5.6568856E0,8.0417694E1,3.3916191E3,1.3401552E3,3.5527515E1,1.0762761E3,3.9633965E3,6.677517E1,1.6147444E2,2.6388327E2,2.760801E1,6.0315454E2],"tree_param":{"num_deleted":"0","num_feature":"108","num_nodes":"31","size_leaf_vector":"1"}},{"base_weights":[-3.5217734E-5,1.7137904E-1,-1.3824986E-2,9.6765436E-2,5.9975827E-1,-1.8590687E-1,3.956921E-3,3.2318687E-1,-2.8921248E-2,-3.1642234E-1,1.0289223E0,-1.3556305E-2,-4.8258206E-1,6.23493E-1,-4.827103E-3,-2.7470473E-2,1.87632E-2,-6.0032564E-3,3.1250153E-2,1.4944225E-2,-6.861183E-2,-8.101747E-2,5.779281E-2,-1.1179948E-2,1.7006919E-2,-1.8426388E-3,-4.0717978E-2,1.2758121E-2,5.3305008E-2,5.5161875E-2,-3.8783203E-4],"categories":[],"categories_nodes":[],"categories_segments":[],"categories_sizes":[],"default_left":[0,0,0,0,0,0,0,0,0,0,0,0,0,0,0,0,0,0,0,0,0,0,0,0,0,0,0,0,0,0,0],"id":32,"left_children":[1,3,5,7,9,11,13,15,17,19,21,23,25,27,29,-1,-1,-1,-1,-1,-1,-1,-1,-1,-1,-1,-1,-1,-1,-1,-1],"loss_changes":[2.7860397E1,2.799219E1,3.3381268E1,2.1313074E1,5.1435852E1,5.2235344E1,5.3814617E1,1.2352802E1,2.8820724E1,2.7845467E1,3.1720398E1,4.8164005E1,5.548693E1,2.2265614E1,3.1661184E1,0E0,0E0,0E0,0E0,0E0,0E0,0E0,0E0,0E0,0E0,0E0,0E0,0E0,0E0,0E0,0E0],"parents":[2147483647,0,0,1,1,2,2,3,3,4,4,5,5,6,6,7,7,8,8,9,9,10,10,11,11,12,12,13,13,14,14],"right_children":[2,4,6,8,10,12,14,16,18,20,22,24,26,28,30,-1,-1,-1,-1,-1,-1,-1,-1,-1,-1,-1,-1,-1,-1,-1,-1],"split_conditions":[7.142E3,1.632783E2,1.943E2,-4.0947044E-1,-2.8864446E-1,2.235856E-3,2.06766E2,1.1091145E1,1.1790541E2,-2.3812951E-1,9.3800706E-1,8.666898E3,1.730365E2,5.7348573E-1,7.71789E3,-2.7470473E-2,1.87632E-2,-6.0032564E-3,3.1250153E-2,1.4944225E-2,-6.861183E-2,-8.101747E-2,5.779281E-2,-1.1179948E-2,1.7006919E-2,-1.8426388E-3,-4.0717978E-2,1.2758121E-2,5.3305008E-2,5.5161875E-2,-3.8783203E-4],"split_indices":[3,27,7,36,25,101,50,43,39,40,20,30,54,44,64,0,0,0,0,0,0,0,0,0,0,0,0,0,0,0,0],"split_type":[0,0,0,0,0,0,0,0,0,0,0,0,0,0,0,0,0,0,0,0,0,0,0,0,0,0,0,0,0,0,0],"sum_hessian":[1.1784457E4,8.765864E2,1.090787E4,7.4759827E2,1.2898819E2,1.0207033E3,9.887167E3,2.6629788E2,4.8130038E2,4.123095E1,8.775725E1,6.46292E2,3.7441135E2,1.3724597E2,9.749921E3,1.4459902E1,2.5183797E2,4.2313962E2,5.8160755E1,2.650266E1,1.4728289E1,3.4745092E0,8.428274E1,4.057211E2,2.4057088E2,1.6024284E2,2.1416852E2,7.5768845E1,6.1477123E1,2.4718807E1,9.725202E3],"tree_param":{"num_deleted":"0","num_feature":"108","num_nodes":"31","size_leaf_vector":"1"}},{"base_weights":[-3.1951673E-5,5.161448E-3,-4.424231E-1,1.5733273E-1,-9.1914E-3,1.6810276E-1,-6.730903E-1,2.0860313E-1,-4.9821585E-2,-8.770888E-4,-2.7596855E-1,1.4987656E0,-2.7558574E-1,-7.992648E-1,5.7218844E-1,3.1983312E-2,9.1015175E-3,-1.3595586E-2,1.2934436E-2,5.0493805E-3,-1.641253E-3,-1.0116263E-2,-6.362016E-2,8.840976E-2,-9.340346E-3,-3.562801E-2,5.893425E-2,-8.884743E-3,-5.9926033E-2,6.8755485E-2,-5.064558E-2],"categories":[],"categories_nodes":[],"categories_segments":[],"categories_sizes":[],"default_left":[0,0,0,0,0,0,0,0,0,0,0,0,0,0,0,0,0,0,0,0,0,0,0,0,0,0,0,0,0,0,0],"id":33,"left_children":[1,3,5,7,9,11,13,15,17,19,21,23,25,27,29,-1,-1,-1,-1,-1,-1,-1,-1,-1,-1,-1,-1,-1,-1,-1,-1],"loss_changes":[2.7076262E1,2.544237E1,1.9370522E1,1.0674084E1,2.3611664E1,2.3023714E1,1.6082592E1,9.10479E0,1.3773941E1,3.360313E1,2.3351852E1,4.749941E0,1.96281E1,2.2299232E1,1.3778778E1,0E0,0E0,0E0,0E0,0E0,0E0,0E0,0E0,0E0,0E0,0E0,0E0,0E0,0E0,0E0,0E0],"parents":[2147483647,0,0,1,1,2,2,3,3,4,4,5,5,6,6,7,7,8,8,9,9,10,10,11,11,12,12,13,13,14,14],"right_children":[2,4,6,8,10,12,14,16,18,20,22,24,26,28,30,-1,-1,-1,-1,-1,-1,-1,-1,-1,-1,-1,-1,-1,-1,-1,-1],"split_conditions":[6.939101E4,-1.4308007E0,-2.3897048E-2,7.745371E0,4.2284423E-1,-7.903825E-1,6.615752E2,-1.2985944E-2,7.6398926E2,-1.0879709E-2,6.1887945E-4,5.746535E2,1.2871385E3,2.4408827E1,7.550041E-1,3.1983312E-2,9.1015175E-3,-1.3595586E-2,1.2934436E-2,5.0493805E-3,-1.641253E-3,-1.0116263E-2,-6.362016E-2,8.840976E-2,-9.340346E-3,-3.562801E-2,5.893425E-2,-8.884743E-3,-5.9926033E-2,6.8755485E-2,-5.064558E-2],"split_indices":[64,32,101,88,102,107,21,95,43,61,101,31,43,29,107,0,0,0,0,0,0,0,0,0,0,0,0,0,0,0,0],"split_type":[0,0,0,0,0,0,0,0,0,0,0,0,0,0,0,0,0,0,0,0,0,0,0,0,0,0,0,0,0,0,0],"sum_hessian":[1.1783031E4,1.1647287E4,1.3574365E2,1.00303033E3,1.0644257E4,3.729723E1,9.844642E1,8.0402765E2,1.9900267E2,1.03235205E4,3.20737E2,8.731796E0,2.8565432E1,8.97145E1,8.731916E0,4.5346447E1,7.586812E2,1.1577634E2,8.322633E1,2.4642397E3,7.8592803E3,2.9978397E2,2.0953026E1,7.4861574E0,1.2456391E0,2.2357536E1,6.2078958E0,3.565348E1,5.4061024E1,5.8839307E0,2.847986E0],"tree_param":{"num_deleted":"0","num_feature":"108","num_nodes":"31","size_leaf_vector":"1"}},{"base_weights":[-3.0455256E-5,5.9080847E-2,-3.693265E-2,3.740476E-2,6.3964E-1,-5.3550017E-1,-1.9871797E-2,4.641847E-2,-1.0299399E0,7.4313855E-1,-1.338544E0,4.7763515E-1,-6.563016E-1,-9.865639E-2,3.182916E-2,-7.5849687E-4,1.0035825E-2,-7.734394E-2,3.094996E-3,4.3641552E-2,-2.3969408E-2,-8.138406E-2,9.266299E-3,4.0384464E-2,-6.473721E-2,5.5794786E-3,-3.849061E-2,-5.5274307E-3,6.0800016E-2,2.9149571E-2,4.6061515E-4],"categories":[],"categories_nodes":[],"categories_segments":[],"categories_sizes":[],"default_left":[0,0,0,0,0,0,0,0,0,0,0,0,0,0,0,0,0,0,0,0,0,0,0,0,0,0,0,0,0,0,0],"id":34,"left_children":[1,3,5,7,9,11,13,15,17,19,21,23,25,27,29,-1,-1,-1,-1,-1,-1,-1,-1,-1,-1,-1,-1,-1,-1,-1,-1],"loss_changes":[2.570198E1,5.696508E1,6.1692432E1,4.2058315E1,3.435382E1,2.968428E1,2.8577297E1,4.1160904E1,2.0759365E1,2.5069633E1,4.0282574E0,1.633985E1,1.8811821E1,4.3593746E1,5.2802864E1,0E0,0E0,0E0,0E0,0E0,0E0,0E0,0E0,0E0,0E0,0E0,0E0,0E0,0E0,0E0,0E0],"parents":[2147483647,0,0,1,1,2,2,3,3,4,4,5,5,6,6,7,7,8,8,9,9,10,10,11,11,12,12,13,13,14,14],"right_children":[2,4,6,8,10,12,14,16,18,20,22,24,26,28,30,-1,-1,-1,-1,-1,-1,-1,-1,-1,-1,-1,-1,-1,-1,-1,-1],"split_conditions":[1.21496E3,2.1846646E4,1.2604493E3,2.0837926E4,7.2947205E1,-1.4316394E0,3.857224E2,2.747406E2,3.9269467E-4,8.997714E1,4.6121686E2,3.635801E4,4.4424377E1,3.8242886E3,9.103527E0,-7.5849687E-4,1.0035825E-2,-7.734394E-2,3.094996E-3,4.3641552E-2,-2.3969408E-2,-8.138406E-2,9.266299E-3,4.0384464E-2,-6.473721E-2,5.5794786E-3,-3.849061E-2,-5.5274307E-3,6.0800016E-2,2.9149571E-2,4.6061515E-4],"split_indices":[6,42,58,42,22,36,43,58,101,59,31,0,85,54,55,0,0,0,0,0,0,0,0,0,0,0,0,0,0,0,0],"split_type":[0,0,0,0,0,0,0,0,0,0,0,0,0,0,0,0,0,0,0,0,0,0,0,0,0,0,0,0,0,0,0],"sum_hessian":[1.1780674E4,4.527598E3,7.253075E3,4.3656636E3,1.619345E2,2.3898068E2,7.0140947E3,4.330053E3,3.5610718E1,1.5447661E2,7.4578857E0,2.5144602E1,2.1383609E2,2.7787632E3,4.2353315E3,3.0954133E3,1.2346396E3,2.38853E1,1.172542E1,1.3991924E2,1.4557372E1,6.211248E0,1.246638E0,2.1656076E1,3.4885237E0,2.7540863E1,1.8629523E2,2.75476E3,2.400329E1,1.6596895E2,4.0693623E3],"tree_param":{"num_deleted":"0","num_feature":"108","num_nodes":"31","size_leaf_vector":"1"}},{"base_weights":[-3.855304E-5,-4.195236E-3,5.2027494E-1,2.6699314E-3,-3.6451852E-1,5.480623E-2,7.647E-1,-4.010512E-2,6.068897E-2,-6.8984497E-1,6.8747886E-2,3.9910847E-1,-6.8729806E-1,1.1988295E0,7.326288E-2,1.5931511E-3,-5.3205607E-3,6.998934E-3,-1.0504377E-4,3.3363204E-2,-4.039567E-2,1.8228587E-2,-4.8218787E-2,2.9371737E-2,-6.1503775E-2,-6.419811E-2,6.7452826E-3,6.773629E-2,6.563581E-3,3.1458996E-2,-4.4066027E-2],"categories":[],"categories_nodes":[],"categories_segments":[],"categories_sizes":[],"default_left":[0,0,0,0,0,0,0,0,0,0,0,0,0,0,0,0,0,0,0,0,0,0,0,0,0,0,0,0,0,0,0],"id":35,"left_children":[1,3,5,7,9,11,13,15,17,19,21,23,25,27,29,-1,-1,-1,-1,-1,-1,-1,-1,-1,-1,-1,-1,-1,-1,-1,-1],"loss_changes":[2.5477179E1,2.8909552E1,1.0579977E1,2.8465733E1,3.0846256E1,8.762933E0,1.8264297E1,3.1509369E1,2.4234085E1,2.0550137E1,2.9268377E1,7.879529E0,5.5186644E0,6.061947E0,1.3633441E1,0E0,0E0,0E0,0E0,0E0,0E0,0E0,0E0,0E0,0E0,0E0,0E0,0E0,0E0,0E0,0E0],"parents":[2147483647,0,0,1,1,2,2,3,3,4,4,5,5,6,6,7,7,8,8,9,9,10,10,11,11,12,12,13,13,14,14],"right_children":[2,4,6,8,10,12,14,16,18,20,22,24,26,28,30,-1,-1,-1,-1,-1,-1,-1,-1,-1,-1,-1,-1,-1,-1,-1,-1],"split_conditions":[8.201537E1,4.4245678E1,6.663999E0,2.0328549E4,6.412667E-1,1.1428127E0,2.1709285E0,-1.7623275E-5,4.8704422E1,5.890787E2,6.202035E4,-1.5986659E-7,2.6701248E0,6.932197E1,6.326207E0,1.5931511E-3,-5.3205607E-3,6.998934E-3,-1.0504377E-4,3.3363204E-2,-4.039567E-2,1.8228587E-2,-4.8218787E-2,2.9371737E-2,-6.1503775E-2,-6.419811E-2,6.7452826E-3,6.773629E-2,6.563581E-3,3.1458996E-2,-4.4066027E-2],"split_indices":[69,23,28,9,107,36,107,41,70,43,1,106,44,59,25,0,0,0,0,0,0,0,0,0,0,0,0,0,0,0,0],"split_type":[0,0,0,0,0,0,0,0,0,0,0,0,0,0,0,0,0,0,0,0,0,0,0,0,0,0,0,0,0,0,0],"sum_hessian":[1.1777828E4,1.1685468E4,9.2360985E1,1.1467963E4,2.1750421E2,3.2222523E1,6.013846E1,6.6013604E3,4.8666025E3,1.2388818E2,9.361603E1,2.2326328E1,9.896196E0,3.6492348E1,2.3646112E1,3.1657732E3,3.4355872E3,2.150176E3,2.7164268E3,9.543311E0,1.1434487E2,7.328016E1,2.0335869E1,2.05861E1,1.740229E0,5.4091935E0,4.4870024E0,3.1607664E1,4.8846817E0,1.5158943E1,8.487169E0],"tree_param":{"num_deleted":"0","num_feature":"108","num_nodes":"31","size_leaf_vector":"1"}},{"base_weights":[-4.394957E-5,1.6342013E-1,-1.3188046E-2,1.4206444E0,1.3917574E-1,-1.760055E-1,3.6347718E-3,-1.0494723E-4,1.5322912E0,-1.0179945E-2,3.2061E-1,-1.1176119E-2,-4.5521733E-1,5.9180856E-1,-4.717792E-3,2.3826757E-2,7.944351E-2,-5.1192115E-3,3.5637133E-2,5.2795984E-2,9.988522E-3,-7.3997425E-3,2.4515383E-2,-4.2120995E-5,-3.7559424E-2,4.079638E-2,-5.5967914E-3,-1.18148E-3,7.6424056E-3],"categories":[],"categories_nodes":[],"categories_segments":[],"categories_sizes":[],"default_left":[0,0,0,0,0,0,0,0,0,0,0,0,0,0,0,0,0,0,0,0,0,0,0,0,0,0,0,0,0],"id":36,"left_children":[1,3,5,7,9,11,13,-1,15,17,19,21,23,25,27,-1,-1,-1,-1,-1,-1,-1,-1,-1,-1,-1,-1,-1,-1],"loss_changes":[2.5304386E1,2.6519217E1,2.9858166E1,2.6201096E0,2.3336124E1,4.6976345E1,4.8545044E1,0E0,1.5539932E-1,3.1617731E1,3.4336037E1,4.4185276E1,5.0956375E1,2.1913769E1,2.9037823E1,0E0,0E0,0E0,0E0,0E0,0E0,0E0,0E0,0E0,0E0,0E0,0E0,0E0,0E0],"parents":[2147483647,0,0,1,1,2,2,3,3,4,4,5,5,6,6,8,8,9,9,10,10,11,11,12,12,13,13,14,14],"right_children":[2,4,6,8,10,12,14,-1,16,18,20,22,24,26,28,-1,-1,-1,-1,-1,-1,-1,-1,-1,-1,-1,-1,-1,-1],"split_conditions":[7.142E3,-1.0762657E0,1.943E2,4.309082E1,1.3925868E2,2.0012187E-3,2.06766E2,-1.0494723E-4,-3.15165E-6,2.411896E-2,1.8356279E0,-6.8268826E-5,1.718505E2,9.345114E3,1.3542602E0,2.3826757E-2,7.944351E-2,-5.1192115E-3,3.5637133E-2,5.2795984E-2,9.988522E-3,-7.3997425E-3,2.4515383E-2,-4.2120995E-5,-3.7559424E-2,4.079638E-2,-5.5967914E-3,-1.18148E-3,7.6424056E-3],"split_indices":[3,107,7,83,27,101,50,0,106,57,28,101,54,19,107,0,0,0,0,0,0,0,0,0,0,0,0,0,0],"split_type":[0,0,0,0,0,0,0,0,0,0,0,0,0,0,0,0,0,0,0,0,0,0,0,0,0,0,0,0,0],"sum_hessian":[1.1775216E4,8.755217E2,1.0899694E4,1.5474501E1,8.6004724E2,1.0198403E3,9.879854E3,1.1973653E0,1.4277135E1,4.7224313E2,3.878041E2,6.419266E2,3.779137E2,1.3735965E2,9.742494E3,1.2054812E0,1.3071654E1,4.1958594E2,5.26572E1,5.3643677E1,3.3416043E2,5.0488483E2,1.3704173E2,1.4946219E2,2.284515E2,1.0406046E2,3.3299194E1,8.699222E3,1.043272E3],"tree_param":{"num_deleted":"0","num_feature":"108","num_nodes":"29","size_leaf_vector":"1"}},{"base_weights":[-2.359171E-5,2.8822965E-3,-7.30225E-1,6.393468E-2,-3.2596573E-2,4.880632E-1,-9.7305083E-1,2.019363E-2,3.976952E-1,-2.2590196E-1,-8.41183E-3,-5.8212824E-2,1.2702928E0,-1.2208797E0,1.5721846E-1,2.2922435E-3,-1.8865379E-2,-4.3802233E-3,2.4880111E-2,3.481854E-2,-1.4899838E-2,2.750205E-2,-1.4187082E-3,7.59724E-2,7.521329E-3,4.8674806E-3,-7.0937656E-2,-2.872389E-2,5.173802E-2],"categories":[],"categories_nodes":[],"categories_segments":[],"categories_sizes":[],"default_left":[0,0,0,0,0,0,0,0,0,0,0,0,0,0,0,0,0,0,0,0,0,0,0,0,0,0,0,0,0],"id":37,"left_children":[1,3,5,7,9,11,13,15,17,19,21,-1,23,25,27,-1,-1,-1,-1,-1,-1,-1,-1,-1,-1,-1,-1,-1,-1],"loss_changes":[2.4985924E1,2.5407228E1,1.428289E1,6.2929436E1,3.468042E1,1.23656225E1,1.1186977E1,3.8892094E1,2.4260284E1,5.505638E1,7.3533554E1,0E0,1.4999352E0,8.565243E0,5.695739E0,0E0,0E0,0E0,0E0,0E0,0E0,0E0,0E0,0E0,0E0,0E0,0E0,0E0,0E0],"parents":[2147483647,0,0,1,1,2,2,3,3,4,4,5,5,6,6,7,7,8,8,9,9,10,10,12,12,13,13,14,14],"right_children":[2,4,6,8,10,12,14,16,18,20,22,-1,24,26,28,-1,-1,-1,-1,-1,-1,-1,-1,-1,-1,-1,-1,-1,-1],"split_conditions":[1.1717873E-1,1.1344844E3,8.706474E0,1.4035E4,1.38287E3,2.1034317E0,7.898994E3,1.1714618E4,1.16373215E2,1.655873E4,1.545067E3,-5.8212824E-2,7.76836E1,1.1766646E1,3.95331E-3,2.2922435E-3,-1.8865379E-2,-4.3802233E-3,2.4880111E-2,3.481854E-2,-1.4899838E-2,2.750205E-2,-1.4187082E-3,7.59724E-2,7.521329E-3,4.8674806E-3,-7.0937656E-2,-2.872389E-2,5.173802E-2],"split_indices":[61,58,59,3,8,88,66,38,39,3,58,0,70,28,95,0,0,0,0,0,0,0,0,0,0,0,0,0,0],"split_type":[0,0,0,0,0,0,0,0,0,0,0,0,0,0,0,0,0,0,0,0,0,0,0,0,0,0,0,0,0],"sum_hessian":[1.1773358E4,1.1727684E4,4.5675095E1,4.3100703E3,7.417613E3,7.423004E0,3.825209E1,3.811601E3,4.9846954E2,8.2390564E2,6.593707E3,2.2281196E0,5.194885E0,3.1307316E1,6.944774E0,3.5813752E3,2.3022586E2,8.512018E1,4.1334937E2,5.910796E1,7.6479767E2,2.2664638E2,6.3670605E3,3.9575667E0,1.2373182E0,4.1523643E0,2.7154951E1,3.975418E0,2.969356E0],"tree_param":{"num_deleted":"0","num_feature":"108","num_nodes":"29","size_leaf_vector":"1"}},{"base_weights":[-2.0558737E-5,4.8371344E-3,-4.165795E-1,1.108572E-1,-1.4268414E-2,1.585729E-1,-6.355333E-1,6.787088E-1,8.96483E-2,8.193188E-2,-4.142047E-2,7.717159E-1,-7.2939116E-1,-7.85815E-1,3.7069008E-1,-1.3737257E-2,4.895095E-2,5.5800993E-3,-1.850576E-2,1.2804448E-2,-1.6110204E-3,-2.4594562E-3,1.9579751E-2,-5.436443E-2,5.3707033E-2,-5.7773698E-2,6.6655986E-2,-8.312508E-3,-6.097442E-2,5.1302858E-2,-5.383138E-2],"categories":[],"categories_nodes":[],"categories_segments":[],"categories_sizes":[],"default_left":[0,0,0,0,0,0,0,0,0,0,0,0,0,0,0,0,0,0,0,0,0,0,0,0,0,0,0,0,0,0,0],"id":38,"left_children":[1,3,5,7,9,11,13,15,17,19,21,23,25,27,29,-1,-1,-1,-1,-1,-1,-1,-1,-1,-1,-1,-1,-1,-1,-1,-1],"loss_changes":[2.382395E1,2.3574848E1,1.7191525E1,2.1341745E1,2.5762585E1,2.1371687E1,1.5185314E1,1.854608E1,1.7344334E1,4.317022E1,2.5893562E1,1.4151843E1,1.5711423E1,2.2908806E1,1.3889172E1,0E0,0E0,0E0,0E0,0E0,0E0,0E0,0E0,0E0,0E0,0E0,0E0,0E0,0E0,0E0,0E0],"parents":[2147483647,0,0,1,1,2,2,3,3,4,4,5,5,6,6,7,7,8,8,9,9,10,10,11,11,12,12,13,13,14,14],"right_children":[2,4,6,8,10,12,14,16,18,20,22,24,26,28,30,-1,-1,-1,-1,-1,-1,-1,-1,-1,-1,-1,-1,-1,-1,-1,-1],"split_conditions":[6.939101E4,-1.26016E0,-2.3897048E-2,5.2921E3,-4.72013E0,3.8190393E0,6.2557007E2,-2.0393014E0,4.7145534E-2,3.655268E1,8.0088936E1,-1.8547648E0,7.373915E0,2.4408827E1,7.550041E-1,-1.3737257E-2,4.895095E-2,5.5800993E-3,-1.850576E-2,1.2804448E-2,-1.6110204E-3,-2.4594562E-3,1.9579751E-2,-5.436443E-2,5.3707033E-2,-5.7773698E-2,6.6655986E-2,-8.312508E-3,-6.097442E-2,5.1302858E-2,-5.383138E-2],"split_indices":[64,36,101,0,88,28,21,60,101,59,69,60,28,29,107,0,0,0,0,0,0,0,0,0,0,0,0,0,0,0,0],"split_type":[0,0,0,0,0,0,0,0,0,0,0,0,0,0,0,0,0,0,0,0,0,0,0,0,0,0,0,0,0,0,0],"sum_hessian":[1.1771549E4,1.1636835E4,1.3471431E2,1.7761061E3,9.860729E3,3.721994E1,9.749436E1,6.283184E1,1.7132742E3,2.1700786E3,7.69065E3,2.2094505E1,1.5125435E1,8.501607E1,1.2478294E1,1.5070308E1,4.7761536E1,1.6359165E3,7.7357666E1,8.5872174E2,1.3113568E3,7.555976E3,1.3467398E2,2.7283168E0,1.9366188E1,1.2900222E1,2.2252128E0,3.5575172E1,4.9440895E1,8.789391E0,3.688904E0],"tree_param":{"num_deleted":"0","num_feature":"108","num_nodes":"31","size_leaf_vector":"1"}},{"base_weights":[-2.2190869E-5,5.463225E-2,-3.5268474E-2,-1.6328773E-1,7.790617E-2,-3.0100388E-2,-7.778972E-1,5.2188646E-2,-3.3996975E-1,1.7646982E-1,2.9552173E-2,-5.9886362E-2,9.199618E-2,-1.084906E0,4.186982E-1,-4.8109263E-2,6.6190385E-3,-2.2050085E-2,5.3128176E-3,1.7939324E-2,4.492178E-3,5.5611376E-3,-2.1250898E-3,-1.8643799E-3,-1.5944643E-2,6.840728E-3,-3.4323446E-2,-2.1899655E-2,-7.04038E-2,6.1931442E-2,-5.826789E-2],"categories":[],"categories_nodes":[],"categories_segments":[],"categories_sizes":[],"default_left":[0,0,0,0,0,0,0,0,0,0,0,0,0,0,0,0,0,0,0,0,0,0,0,0,0,0,0,0,0,0,0],"id":39,"left_children":[1,3,5,7,9,11,13,15,17,19,21,23,25,27,29,-1,-1,-1,-1,-1,-1,-1,-1,-1,-1,-1,-1,-1,-1,-1,-1],"loss_changes":[2.2675985E1,2.3419636E1,2.7442312E1,1.6984066E1,1.9870735E1,2.585527E1,1.860858E1,1.653053E1,1.1092308E1,2.164228E1,1.6476166E1,3.3436737E1,4.8741753E1,7.6634026E0,1.5485892E1,0E0,0E0,0E0,0E0,0E0,0E0,0E0,0E0,0E0,0E0,0E0,0E0,0E0,0E0,0E0,0E0],"parents":[2147483647,0,0,1,1,2,2,3,3,4,4,5,5,6,6,7,7,8,8,9,9,10,10,11,11,12,12,13,13,14,14],"right_children":[2,4,6,8,10,12,14,16,18,20,22,24,26,28,30,-1,-1,-1,-1,-1,-1,-1,-1,-1,-1,-1,-1,-1,-1,-1,-1],"split_conditions":[-1.1278966E-3,2.8865755E1,6.997587E4,-3.4715644E-1,-1.9826525E1,4.348365E2,6.613771E2,9.878125E2,-2.9090271E1,2.6758294E0,-1.5780417E-6,5.8644226E1,3.9953218E3,-1.21834045E-2,5.9082336E2,-4.8109263E-2,6.6190385E-3,-2.2050085E-2,5.3128176E-3,1.7939324E-2,4.492178E-3,5.5611376E-3,-2.1250898E-3,-1.8643799E-3,-1.5944643E-2,6.840728E-3,-3.4323446E-2,-2.1899655E-2,-7.04038E-2,6.1931442E-2,-5.826789E-2],"split_indices":[37,22,42,105,73,39,75,65,16,20,106,59,27,101,35,0,0,0,0,0,0,0,0,0,0,0,0,0,0,0,0],"split_type":[0,0,0,0,0,0,0,0,0,0,0,0,0,0,0,0,0,0,0,0,0,0,0,0,0,0,0,0,0,0,0],"sum_hessian":[1.176938E4,4.614062E3,7.1553174E3,4.4465182E2,4.16941E3,7.1069E3,4.8417664E1,2.0064973E2,2.4400208E2,1.3713774E3,2.7980327E3,5.713562E3,1.3933381E3,3.8605934E1,9.811729E0,1.3894579E1,1.8675516E2,1.9896523E2,4.5036846E1,4.407074E2,9.3067E2,1.3112427E3,1.48679E3,5.2561016E3,4.5746005E2,1.3182661E3,7.5071976E1,1.3645682E1,2.496025E1,6.60892E0,3.2028089E0],"tree_param":{"num_deleted":"0","num_feature":"108","num_nodes":"31","size_leaf_vector":"1"}},{"base_weights":[-3.7954203E-5,2.714993E-3,-6.966644E-1,6.123302E-2,-3.1299293E-2,4.67526E-1,-9.3014395E-1,-1.1882055E-2,2.4277216E-1,-1.12987764E-1,2.6228523E-2,-5.6216218E-2,1.2258412E0,-1.1690493E0,1.4898257E-1,1.9438745E-3,-1.4698057E-2,6.0315486E-2,1.0761471E-2,-3.4753166E-3,-2.3397235E-2,-6.5798104E-2,1.7816657E-3,7.336315E-2,7.263116E-3,4.379889E-2,-6.389604E-2,-2.7766723E-2,4.9675103E-2],"categories":[],"categories_nodes":[],"categories_segments":[],"categories_sizes":[],"default_left":[0,0,0,0,0,0,0,0,0,0,0,0,0,0,0,0,0,0,0,0,0,0,0,0,0,0,0,0,0],"id":40,"left_children":[1,3,5,7,9,11,13,15,17,19,21,-1,23,25,27,-1,-1,-1,-1,-1,-1,-1,-1,-1,-1,-1,-1,-1,-1],"loss_changes":[2.2569979E1,2.3334993E1,1.3026762E1,5.720343E1,3.4844284E1,1.1523036E1,1.0208412E1,4.401275E1,3.257794E1,4.7255363E1,5.4972027E1,0E0,1.3966694E0,8.239483E0,5.2755795E0,0E0,0E0,0E0,0E0,0E0,0E0,0E0,0E0,0E0,0E0,0E0,0E0,0E0,0E0],"parents":[2147483647,0,0,1,1,2,2,3,3,4,4,5,5,6,6,7,7,8,8,9,9,10,10,12,12,13,13,14,14],"right_children":[2,4,6,8,10,12,14,16,18,20,22,-1,24,26,28,-1,-1,-1,-1,-1,-1,-1,-1,-1,-1,-1,-1,-1,-1],"split_conditions":[1.1717873E-1,1.1344844E3,8.706474E0,2.747406E2,3.228966E4,2.1034317E0,7.898994E3,9.77662E3,1.0203586E4,1.89841E3,1.25209885E2,-5.6216218E-2,7.76836E1,2.066293E1,3.95331E-3,1.9438745E-3,-1.4698057E-2,6.0315486E-2,1.0761471E-2,-3.4753166E-3,-2.3397235E-2,-6.5798104E-2,1.7816657E-3,7.336315E-2,7.263116E-3,4.379889E-2,-6.389604E-2,-2.7766723E-2,4.9675103E-2],"split_indices":[61,58,59,58,18,88,66,38,30,8,43,0,70,31,95,0,0,0,0,0,0,0,0,0,0,0,0,0,0],"split_type":[0,0,0,0,0,0,0,0,0,0,0,0,0,0,0,0,0,0,0,0,0,0,0,0,0,0,0,0,0],"sum_hessian":[1.1766844E4,1.1721519E4,4.5325314E1,4.308461E3,7.4130576E3,7.4040995E0,3.7921215E1,3.072103E3,1.2363582E3,3.062871E3,4.350186E3,2.2333028E0,5.1707964E0,3.097942E1,6.941793E0,2.6043228E3,4.677803E2,3.3169773E1,1.2031884E3,2.7296865E3,3.331847E2,2.9303183E1,4.320883E3,3.9340146E0,1.236782E0,1.2097442E0,2.9769676E1,3.9717972E0,2.969996E0],"tree_param":{"num_deleted":"0","num_feature":"108","num_nodes":"29","size_leaf_vector":"1"}},{"base_weights":[-3.834812E-5,1.6011052E-1,-1.145895E-2,-1.11025395E-2,3.993788E-1,-1.6493061E-1,3.4119345E-3,-1.12377636E-1,5.7670206E-1,5.2239156E-1,-3.5013446E-1,-3.1000325E-2,-4.9955994E-1,9.3774277E-1,-1.9169558E-3,1.5523803E-2,-1.6497057E-2,-2.707522E-2,4.1602608E-2,3.5219748E-2,2.7377836E-3,-3.7295286E-2,7.304717E-2,-8.769601E-3,1.8695515E-2,3.7337612E-2,-3.1062309E-2,7.544154E-2,2.608308E-2,4.1043493E-3,-1.5275319E-3],"categories":[],"categories_nodes":[],"categories_segments":[],"categories_sizes":[],"default_left":[0,0,0,0,0,0,0,0,0,0,0,0,0,0,0,0,0,0,0,0,0,0,0,0,0,0,0,0,0,0,0],"id":41,"left_children":[1,3,5,7,9,11,13,15,17,19,21,23,25,27,29,-1,-1,-1,-1,-1,-1,-1,-1,-1,-1,-1,-1,-1,-1,-1,-1],"loss_changes":[2.152006E1,3.20894E1,2.5066233E1,2.7300066E1,3.030524E1,4.346647E1,4.9859074E1,3.6082832E1,1.9696497E1,2.388179E1,3.453393E1,4.0638332E1,4.251187E1,1.2707314E1,2.3954494E1,0E0,0E0,0E0,0E0,0E0,0E0,0E0,0E0,0E0,0E0,0E0,0E0,0E0,0E0,0E0,0E0],"parents":[2147483647,0,0,1,1,2,2,3,3,4,4,5,5,6,6,7,7,8,8,9,9,10,10,11,11,12,12,13,13,14,14],"right_children":[2,4,6,8,10,12,14,16,18,20,22,24,26,28,30,-1,-1,-1,-1,-1,-1,-1,-1,-1,-1,-1,-1,-1,-1,-1,-1],"split_conditions":[6.878061E3,1.3925868E2,1.875618E2,6.3208286E1,1.1794851E0,1.0159039E-2,7.921713E3,-6.977614E-1,1.2555E2,5.374285E-1,1.04276535E2,8.780253E3,-1.1994641E1,-3.1833746E-3,1.1344844E3,1.5523803E-2,-1.6497057E-2,-2.707522E-2,4.1602608E-2,3.5219748E-2,2.7377836E-3,-3.7295286E-2,7.304717E-2,-8.769601E-3,1.8695515E-2,3.7337612E-2,-3.1062309E-2,7.544154E-2,2.608308E-2,4.1043493E-3,-1.5275319E-3],"split_indices":[34,27,58,84,107,101,18,60,6,87,72,38,17,101,58,0,0,0,0,0,0,0,0,0,0,0,0,0,0,0,0],"split_type":[0,0,0,0,0,0,0,0,0,0,0,0,0,0,0,0,0,0,0,0,0,0,0,0,0,0,0,0,0,0,0],"sum_hessian":[1.1764044E4,7.822124E2,1.0981831E4,4.56505E2,3.2570743E2,9.6921124E2,1.001262E4,3.901017E2,6.64033E1,2.8004797E2,4.565944E1,6.92958E2,2.7625323E2,5.5790134E1,9.95683E3,1.3238084E2,2.5772086E2,1.2136327E1,5.4266968E1,2.012251E2,7.882288E1,3.7953648E1,7.705792E0,5.112223E2,1.8173572E2,2.4116362E1,2.5213687E2,2.2407986E1,3.338215E1,2.5306575E3,7.4261724E3],"tree_param":{"num_deleted":"0","num_feature":"108","num_nodes":"31","size_leaf_vector":"1"}},{"base_weights":[-1.855949E-5,-3.7663947E-3,4.7030324E-1,2.52905E-3,-3.3627898E-1,6.758797E-1,-2.396222E-2,5.2103223E-3,-7.6929647E-1,-6.505093E-1,8.093722E-2,1.12826794E-1,1.109526E0,3.954736E-1,-8.31929E-1,-8.3401235E-4,5.598675E-3,-4.7836673E-2,3.6414634E-2,-1.8295517E-2,-6.258654E-2,1.7869422E-2,-4.5341324E-2,6.1925706E-2,-3.5791912E-3,2.9091164E-2,7.206912E-2,-2.0062985E-2,6.615996E-2,-6.1259057E-2,5.3363103E-2],"categories":[],"categories_nodes":[],"categories_segments":[],"categories_sizes":[],"default_left":[0,0,0,0,0,0,0,0,0,0,0,0,0,0,0,0,0,0,0,0,0,0,0,0,0,0,0,0,0,0,0],"id":42,"left_children":[1,3,5,7,9,11,13,15,17,19,21,23,25,27,29,-1,-1,-1,-1,-1,-1,-1,-1,-1,-1,-1,-1,-1,-1,-1,-1],"loss_changes":[2.0736158E1,2.443178E1,9.466042E0,2.3709972E1,2.848432E1,1.5920656E1,9.914429E0,2.6683212E1,1.1830364E1,2.0726952E1,2.600771E1,6.2551856E0,5.6428795E0,1.4794247E1,8.76712E0,0E0,0E0,0E0,0E0,0E0,0E0,0E0,0E0,0E0,0E0,0E0,0E0,0E0,0E0,0E0,0E0],"parents":[2147483647,0,0,1,1,2,2,3,3,4,4,5,5,6,6,7,7,8,8,9,9,10,10,11,11,12,12,13,13,14,14],"right_children":[2,4,6,8,10,12,14,16,18,20,22,24,26,28,30,-1,-1,-1,-1,-1,-1,-1,-1,-1,-1,-1,-1,-1,-1,-1,-1],"split_conditions":[8.201537E1,4.4245678E1,2.097807E0,4.7402124E3,6.412667E-1,6.663999E0,6.326207E0,4.826438E2,3.5445736E1,3.86261E3,6.202035E4,1.3603159E2,7.76836E1,3.575962E4,6.3293457E1,-8.3401235E-4,5.598675E-3,-4.7836673E-2,3.6414634E-2,-1.8295517E-2,-6.258654E-2,1.7869422E-2,-4.5341324E-2,6.1925706E-2,-3.5791912E-3,2.9091164E-2,7.206912E-2,-2.0062985E-2,6.615996E-2,-6.1259057E-2,5.3363103E-2],"split_indices":[69,23,107,26,107,28,25,76,23,8,1,39,70,82,51,0,0,0,0,0,0,0,0,0,0,0,0,0,0,0,0],"split_type":[0,0,0,0,0,0,0,0,0,0,0,0,0,0,0,0,0,0,0,0,0,0,0,0,0,0,0,0,0,0,0],"sum_hessian":[1.1761932E4,1.1669931E4,9.200173E1,1.1454063E4,2.1586684E2,6.471699E1,2.7284744E1,1.14154E4,3.866312E1,1.2281123E2,9.305561E1,2.8705505E1,3.6011486E1,1.8296898E1,8.987846E0,9.473759E3,1.9416421E3,3.4683334E1,3.9797854E0,8.444588E1,3.8365353E1,7.3205376E1,1.9850235E1,3.236015E0,2.546949E1,1.4966186E1,2.1045298E1,1.0148671E1,8.148227E0,7.74006E0,1.2477863E0],"tree_param":{"num_deleted":"0","num_feature":"108","num_nodes":"31","size_leaf_vector":"1"}},{"base_weights":[-1.2919436E-5,2.6079766E-3,-6.691838E-1,9.790763E-2,-1.619041E-2,4.4302794E-1,-8.925459E-1,-1.6286482E-1,1.6595343E-1,1.3179439E-2,-9.35205E-2,-5.3671725E-2,1.1723518E0,-1.1224922E0,1.371665E-1,-3.4112378E-3,-2.9061152E-2,1.2627065E-2,9.050712E-4,1.9426452E-3,-6.526345E-3,-7.486409E-3,3.8605859E-3,7.0354335E-2,6.708925E-3,7.3069814E-3,-6.590204E-2,-2.7030611E-2,4.7572207E-2],"categories":[],"categories_nodes":[],"categories_segments":[],"categories_sizes":[],"default_left":[0,0,0,0,0,0,0,0,0,0,0,0,0,0,0,0,0,0,0,0,0,0,0,0,0,0,0,0,0],"id":43,"left_children":[1,3,5,7,9,11,13,15,17,19,21,-1,23,25,27,-1,-1,-1,-1,-1,-1,-1,-1,-1,-1,-1,-1,-1,-1],"loss_changes":[2.0629099E1,2.0991367E1,1.1795437E1,3.428277E1,2.222908E1,1.0485499E1,9.280884E0,1.5797871E1,1.960196E1,2.6177597E1,2.586485E1,0E0,1.3005247E0,8.036537E0,4.889597E0,0E0,0E0,0E0,0E0,0E0,0E0,0E0,0E0,0E0,0E0,0E0,0E0,0E0,0E0],"parents":[2147483647,0,0,1,1,2,2,3,3,4,4,5,5,6,6,7,7,8,8,9,9,10,10,12,12,13,13,14,14],"right_children":[2,4,6,8,10,12,14,16,18,20,22,-1,24,26,28,-1,-1,-1,-1,-1,-1,-1,-1,-1,-1,-1,-1,-1,-1],"split_conditions":[1.1717873E-1,-4.173986E-3,8.706474E0,-2.1657803E0,3.3384487E3,2.1034317E0,7.898994E3,-8.4775174E-1,3.3045256E0,5.8644226E1,4.348365E2,-5.3671725E-2,7.76836E1,1.1766646E1,3.95331E-3,-3.4112378E-3,-2.9061152E-2,1.2627065E-2,9.050712E-4,1.9426452E-3,-6.526345E-3,-7.486409E-3,3.8605859E-3,7.0354335E-2,6.708925E-3,7.3069814E-3,-6.590204E-2,-2.7030611E-2,4.7572207E-2],"split_indices":[61,33,59,60,67,88,66,32,24,59,39,0,70,28,95,0,0,0,0,0,0,0,0,0,0,0,0,0,0],"split_type":[0,0,0,0,0,0,0,0,0,0,0,0,0,0,0,0,0,0,0,0,0,0,0,0,0,0,0,0,0],"sum_hessian":[1.1760337E4,1.1715448E4,4.4888992E1,1.9295021E3,9.785946E3,7.342787E0,3.7546207E1,3.990037E2,1.5304984E3,7.0929023E3,2.6930437E3,2.2313604E0,5.1114264E0,3.0618622E1,6.9275856E0,3.2634235E2,7.266137E1,9.647786E2,5.6571985E2,6.0184263E3,1.074476E3,2.0261326E3,6.669111E2,3.8790176E0,1.2324086E0,4.123012E0,2.649561E1,3.9640887E0,2.963497E0],